432 100
plane -0.07198625 0.04336028 0.80044585 0.42403668 0.047662023 -0.41167378 -0.022257226 -0.4459218 0.13731562 -0.09305256 -0.63329834 -0.20494951 0.16842315 0.027871964 -0.043642566 0.349365 0.20091048 -0.72218573 -0.72446954 -0.26313218 -0.3244382 0.08071722 -0.40838727 0.34502134 0.11905836 -0.3696094 0.44055092 0.71680325 0.34276113 0.17621458 -0.07090054 0.19880657 -0.10611865 -0.1473668 -0.58264124 -0.27213404 0.37573624 0.40541583 -0.39159712 -0.5644957 -0.022256762 -0.09231629 0.17701738 0.7216274 0.43996033 0.5413005 0.7170339 0.49145573 0.015108679 -0.35228944 -0.30044973 -0.36846656 0.08059915 0.09259731 0.3943167 0.085285924 0.07301579 0.3784504 -0.010974614 0.45030385 0.59388226 0.26285586 -0.38416168 -0.30620506 0.2713942 -0.49693137 -0.4147498 -0.047428787 0.29199976 -0.10970373 -0.19713314 0.4006212 -0.03396129 0.1363356 -0.048232146 0.18127851 -0.18863063 -0.034163795 0.057023663 0.26728588 0.0031774524 0.60747033 0.041060746 -0.12235551 -0.16562076 -0.3762472 -0.021137986 0.5635104 0.99317515 0.24647154 -0.24643739 -0.71543473 0.11284441 -0.145849 0.11234073 0.15814261 -0.75396585 0.027249081 0.8377277 0.17082466
stupid 0.37134033 0.10269161 0.1279134 -0.31929255 0.10503507 0.36568266 0.149287 0.033836298 0.5208216 0.13070734 -0.17409456 -0.01098434 0.29752803 0.36609596 0.15585917 -0.1487149 0.3252779 -0.4452054 -0.720216 0.24458793 -0.08491941 0.29213628 0.13997422 -0.03088294 0.5530028 0.22560865 0.5693207 -0.12032881 -0.36191443 0.55571246 0.6641655 -0.027497401 -0.19915044 0.18463632 -0.4457132 0.1239686 -0.07951946 0.45122966 0.19946605 -0.40951493 -0.34758288 -0.21110249 -0.2099455 -0.3009815 -0.22696222 0.13887098 0.25479412 0.66357 -0.09983037 0.018832646 -0.0099521065 -0.17631237 -0.2081114 0.53834975 -0.20363785 0.23839393 -0.041879043 -0.09394607 -0.10579092 0.2725019 0.099918365 -0.041314416 1.2012966 0.28753263 0.7872218 -0.21663691 -0.04369314 -0.21402802 -0.54982686 -0.21067663 -0.398854 -0.42083243 0.83644557 -0.041126538 -0.49387702 -0.010670164 -0.23842822 -0.035178285 -0.058666952 0.09524698 0.6236286 -0.100118 0.2573453 7.1836775E-4 0.032148395 -0.34847888 -0.22070928 -0.16072296 1.0401336 0.07029426 0.4543421 -0.7408836 0.44576445 -0.07501537 0.08513989 -0.29377523 0.17672773 -0.22032036 -0.054457087 -0.22010033
egg -0.024157133 -0.0045367214 -0.43091348 0.15140168 0.46494827 -0.51361024 -0.27433133 -0.056148652 -0.012157247 -0.47565395 -0.5085244 0.68647426 0.8938176 -0.2186418 -0.015722543 -0.7026021 0.5340857 -0.22382574 -0.37287232 -0.2376237 -0.2933587 0.16025552 -0.116864264 -0.31118435 0.18772598 -0.33918315 -0.068519354 -0.032955013 0.14933269 0.6839339 -0.43602252 0.2057764 0.0049455743 -0.13664661 -0.41627845 0.1407636 0.43007812 -0.23546465 -0.37857193 -0.64603454 0.27201807 0.035824675 0.24054381 0.10988851 0.02257136 0.09116502 -0.08060529 0.74748904 0.6914596 -0.7147128 0.039441325 -0.56301916 0.32519406 0.15337053 -0.44966874 -0.20621036 0.3434727 -0.28796375 0.25720933 0.5646614 0.59662 -0.23245575 0.6560485 1.032269 0.33554772 -0.25169173 0.36563584 -0.12815449 -0.117147654 0.22173876 -0.29154623 0.05544177 0.39493376 0.38382795 -0.197988 0.42369303 0.37559333 0.47265172 -0.2132495 0.3462816 0.7372204 -0.41671008 0.54796207 -0.3021179 0.22392237 0.46928012 0.01952724 -0.74532884 -0.4291293 0.42440864 -0.010635844 -0.69227916 0.24595146 0.27719963 -0.053850852 0.012215232 -0.16170369 -0.24495627 0.52549523 0.45049405
year -0.24159488 -0.20600986 0.022436628 -0.18912767 -0.11196228 0.3458284 -0.25416198 -0.06491906 0.086612746 -0.109932005 -0.2714236 -0.11854044 -0.13706279 0.041335862 0.21294378 -0.070171095 0.021233076 -0.1791261 0.11325587 -0.17582266 -0.29740015 -0.3052119 -0.51508856 0.097777024 0.13794926 -0.060202092 0.34305802 0.13726497 -0.07758379 -0.098260485 0.15621012 0.66498137 0.43772325 -0.18798445 -0.22735113 -0.007670308 0.2576211 -0.33434618 -0.037918672 0.1913606 -0.536211 0.32934666 0.09565291 -0.1858272 -0.026047787 -0.22232416 -0.35662952 0.6357422 0.2697461 -0.21299356 0.2796456 -0.053498108 0.042517085 0.1655016 -0.047780067 0.3200131 0.19311273 0.20852761 0.37332797 0.40962386 -0.050498985 0.11548564 0.45155805 0.007904509 0.2176423 0.31651834 -0.24950317 0.14086038 -0.2554529 -0.34348792 -0.13034752 0.2694279 0.12221181 -0.23085006 -0.14802271 0.06241066 -0.029626474 0.27897805 -0.23266137 0.30843258 0.12576188 0.085540675 0.16214767 0.06354969 0.29362753 0.30205873 -0.22884339 0.567375 -0.22682862 0.2541933 -0.053985804 -0.13815589 0.070370995 -0.2833338 -0.31461897 -0.058017418 -0.032090623 -0.7264124 0.025299937 -0.48967656
psychiatry -0.4909693 0.09556419 -0.12482744 -0.24867034 0.25513953 0.42031178 0.93463343 -0.1518559 0.48062542 -0.48819378 -0.7628222 0.5117014 -0.0878289 -0.088726744 0.35896406 -0.76312554 0.014469927 -0.98699796 -0.042243335 -0.31801274 0.20077354 -0.32504728 -0.36858553 -0.44945216 -0.2844128 -0.17813496 0.08491771 0.0545951 -0.14971174 0.20684996 -0.015928565 -0.49863008 -0.0721622 0.44200632 -1.0677462 0.31681624 -0.20552033 0.23231134 0.08632962 -0.60971856 0.29353753 0.7398158 0.12072363 -0.17636508 0.6693177 -0.90170383 0.39011487 0.6517272 -0.21403606 1.44881 0.16608958 -0.31583554 -0.55388826 0.17469098 -0.50126034 0.5809568 0.13739675 -0.025283176 0.7912446 0.30116084 0.3268668 -0.11090006 -0.018814612 -0.007289643 0.7181721 -0.35180646 -0.19319391 0.17269985 -0.56758326 0.56313056 0.22652052 0.41562715 0.39633158 -0.30882877 0.084608965 0.121794835 -0.3911276 0.13507502 0.6206035 0.19519594 0.14158225 0.053646423 0.47648522 -0.06564322 -0.04391487 -0.31612152 -0.06497211 -0.17411415 -0.038327757 -0.58051264 0.09701341 -0.03997665 0.25501618 0.5726147 0.056374285 -0.04369811 -0.31478342 -0.5205609 0.18128024 0.11629665
asylum -0.30854338 0.12901884 0.6370663 -0.28393668 -0.31784782 0.10161518 -0.07158044 -0.28111002 0.56966555 0.029824065 -0.88853365 -0.12035595 8.551447E-4 0.597882 0.28477338 -0.6365899 0.20044751 -0.1699615 -0.17607185 0.2725814 0.49432495 -0.13364503 -0.71112627 0.0600929 0.14319651 -0.12557904 0.42168206 -0.025801307 0.30844826 -0.0050578746 -0.28226373 0.055978827 -0.6691234 -0.15202811 -0.54760104 -0.21170656 0.49054483 -0.2953435 -0.006479094 0.5208599 -0.4217183 -0.031113803 -0.1774676 -0.24682444 0.22826628 0.16665038 0.67379785 1.1958935 -0.4782009 0.11670751 -0.21416532 -0.29995808 0.3300036 0.36951765 0.54526496 -0.2956458 0.4241448 0.5043434 -0.08775273 -0.22393438 1.0512215 0.22656375 -0.15332708 -0.30549642 0.18507956 -0.11594147 -0.34836257 -0.24743436 -0.7984623 0.312074 0.28799486 0.02494844 0.36854172 0.4794165 -0.03597948 -0.3430819 -0.32127053 0.6332425 0.31453487 1.0685751 0.117805004 0.085426055 -0.46149436 -0.13620493 -0.21922529 -0.15852739 0.3851485 0.061198287 -0.2713012 -0.10029798 0.36172366 0.030778702 0.36283365 0.7975863 0.13803053 -0.32717043 -0.07837094 -0.67904747 0.0679062 -0.69324416
manslaughter -0.38368255 -0.32748646 0.25109747 -0.249753 0.06339882 -0.09359798 -0.09947927 0.26380265 0.61177146 0.2191187 -0.11515418 0.50815433 0.25107542 0.5527083 0.6623715 -0.35249132 -0.2912654 0.26491803 -0.30772743 -0.28500265 0.5691883 -0.42514566 -0.5084487 -0.042635307 0.110867575 0.22766814 1.0206432 0.16093239 -0.37681234 0.49422055 0.090069726 -0.21923406 0.05281475 -0.12447886 -0.52266574 0.19566096 0.5151463 -0.23073952 -0.12331057 -0.5355164 -0.4130881 0.7315268 0.019184226 0.38106456 -0.15362741 -0.50235754 -0.044509534 0.8816555 -0.010191823 0.72311944 -0.7640348 -0.030024922 -0.29475787 -0.26651046 -0.7366877 0.28126708 -0.26463762 -0.40875787 0.16276062 0.23005785 0.910816 0.16723135 0.13923621 0.13902001 0.061623555 -0.1941982 0.6288457 0.20212027 -0.3767756 -0.3610365 0.7603958 0.33557737 0.205941 -0.34388345 -0.3306599 0.33738133 -0.91272974 0.8213659 0.61171365 0.5557263 -0.18898849 0.28077284 0.71910137 0.35719353 -0.50635743 0.38880095 0.8519996 0.019392394 0.13020194 -5.809342E-4 0.060115337 -0.19980577 -0.19443461 0.08265236 0.38855344 -0.084803544 -0.7554763 -0.3244433 0.37406152 -0.41112313
music -0.49388435 0.07641276 0.033880245 -0.18796913 -0.035370868 0.7460627 -0.45925146 0.10069744 0.32281595 -0.2598371 0.21512592 0.39199492 0.17821085 0.09031695 -0.5025309 -0.70817673 0.107839875 -0.574675 -0.11934412 -0.5166515 -0.6551607 0.03165245 -0.17231733 -0.20411697 0.07572787 -0.14736001 0.27027288 -0.11928868 0.04853414 0.37910807 -0.092827916 -0.40022752 -0.019346286 -0.11912331 -0.19163196 0.07635696 -0.27516297 -0.022902807 -0.408246 -0.5072357 0.036003336 0.5041794 0.19808605 -0.34368643 0.21855518 0.075115874 0.6326011 0.1329019 -0.308337 0.519513 0.5308621 0.108386226 0.09500596 0.27034774 0.43747056 0.050310336 0.62097573 -0.19567513 -0.39994058 0.20975398 0.4853672 -0.34194353 -0.17903388 -0.38540652 0.36549187 -0.44236276 -0.27201253 -0.08310437 -0.22175704 -0.47005808 0.65208566 -0.36248177 0.08627193 -0.33196452 -0.8407871 0.1433895 0.3389271 0.2881904 -0.4064885 -0.28931496 0.6719454 -0.07463124 0.39475518 0.04350446 0.2349351 0.5416702 -0.12434135 0.25287038 0.101577364 -0.071771584 -0.22170088 -0.38808823 -0.0033918174 0.31677547 0.42054543 -0.056361333 0.196074 -0.56382203 0.23683073 -0.17461044
record -0.49186224 0.065219015 -0.11496311 -0.6455973 -0.15275323 0.5885884 -0.5122959 -0.31402454 -0.73721755 0.23506734 -0.5911804 -0.3423588 0.30251643 -0.16660528 -0.04061633 0.10308089 0.1167686 -0.16336669 -0.10473262 -0.2555195 -0.46034563 -0.23449564 -0.26681504 -0.32277632 0.20204099 -0.44806188 0.5418917 0.406674 -0.06740102 0.013638879 -0.32864058 0.42504823 0.5162212 -0.23617677 -0.16537742 0.2114557 -0.06213995 -0.20503217 -0.2928792 -0.38075337 0.026732944 0.0052992417 -0.07950966 0.27966428 0.14105628 -0.35694423 0.26949066 0.4108126 -0.026599646 0.11814401 0.43009537 -0.10913889 -0.2631275 0.1148159 0.32246035 0.40635288 -0.18051893 -0.36252862 0.5362545 -0.71846926 -0.04242674 0.023613472 0.2583806 -0.1593831 -0.07576595 -0.3573975 -0.18598717 -0.10411226 -0.10178489 -0.39074278 -0.19582646 -0.26503238 0.1397377 -0.08767906 -0.4511109 0.035811845 -0.06744018 0.27439126 -0.214395 0.37934488 0.5878825 -0.2060595 0.7880721 0.12514706 0.49462822 0.07920017 0.4323561 0.31012306 -0.14119479 -0.03914578 -0.322314 -0.30333096 0.0071937316 -0.5624441 -0.051852424 -0.57274294 -0.023371067 -0.12174454 -0.1937542 -0.2790724
energy 0.22544608 -0.034962878 0.21195008 -0.40645704 0.29245803 -0.25979283 0.033613324 -0.4273862 0.1576622 -0.29577827 -0.48305908 0.2939941 0.38514814 -0.10967418 0.8449728 -0.57649297 -0.32480234 -0.18465507 0.065280184 -0.33719954 -0.36889172 -0.267985 0.29596108 0.0014040596 -0.097090796 -0.5960837 0.45828217 0.4284475 -0.20168357 -0.0026130236 -0.29747272 0.32248014 0.30151007 0.34018287 -0.12136201 -0.03739678 -0.008424332 0.10111495 -0.10397552 -0.46350655 0.3110792 -0.9238865 0.15893891 0.01900151 -0.17668392 0.028974758 0.060468506 0.250481 -0.4041173 0.14724831 0.422687 0.04578222 -0.40588838 0.062106602 -0.5176666 -0.14471853 -0.22370452 -0.33167276 0.4642783 -0.041962538 1.0256859 -0.20871215 0.34102163 -0.11759698 0.4075533 0.20644897 -0.5533851 -0.2936732 -0.31644866 -0.06555309 0.17138986 -0.11196527 -0.021791087 0.2712882 -0.5446997 -0.5701553 0.29497683 0.09141 -0.77658844 0.24265264 0.25568762 0.47180954 0.12947048 0.557392 0.27335858 0.23622207 -0.59442127 0.62096685 0.07454664 0.026865607 -0.14036043 -0.57782155 -0.0434843 -0.27732217 -0.0027554757 0.27713054 0.10636011 -0.3480629 0.06987869 -0.056800354
announcement 0.21722761 -0.15621068 -0.057870775 -0.15391764 -0.45765233 0.5916537 -0.34072492 -0.20441148 0.13547334 0.12953964 0.08687351 0.02887463 0.04060914 0.10022665 0.065073 0.24334069 0.30647063 -0.04532652 0.19094253 -0.46046993 0.05613804 0.22836812 -0.3241525 0.42876533 -0.40200734 -0.4517657 0.48591423 0.13429722 0.09648482 -0.4538338 -0.00946384 0.48425302 -0.24460775 0.11960974 -0.7727925 -0.20875019 -0.09939167 -0.10744779 0.08842187 -0.24351178 0.21432976 0.08328042 0.12249979 0.28110266 -0.14703284 0.06585294 -0.12163644 0.19828774 0.69231623 0.11735821 0.48575637 -0.27100834 -0.07232114 -0.057719517 0.020500239 -0.4217355 -0.08238121 0.26294225 0.1572935 0.12055938 0.9020844 -0.26523006 0.24576913 0.38452378 0.011157143 -0.053233113 -0.2712839 0.29064915 -0.28471863 -0.7428907 -0.24422932 0.02134674 0.13627562 -0.3384683 0.00859828 0.204488 0.24808049 0.7657414 -0.20846245 0.26621953 -0.28456774 0.3443303 0.13257454 0.056306545 0.11211129 0.15005885 -0.5889689 0.49121523 0.61783373 0.13487935 0.22050963 -0.47110522 -0.26179284 0.1883065 0.10004183 -0.26553828 -0.070226155 -0.195501 0.3294661 -0.3284407
mile -0.46235633 -0.4265266 0.3568846 -0.053759333 -0.05620608 -0.4003249 -0.3784113 -0.5616254 0.24574293 -0.21600585 0.41117233 0.22213614 -0.087324925 0.19738054 -0.029975941 -0.1544818 0.4968209 -0.48263758 -0.23320192 -0.38938817 -0.14602458 -0.14731482 0.06235394 -0.3295039 -0.34193373 -0.3345366 0.3884267 0.73994917 0.2754948 0.94992054 -0.6078499 0.41361967 0.27989396 -0.251972 -0.8195712 -0.017180115 0.29510766 -0.16922326 0.64935595 0.33152413 -0.6425716 -0.22823137 0.515926 -0.510135 0.14099997 0.18501382 -0.32652435 0.5607193 -0.17791466 -0.63061553 0.19226277 0.25176373 0.22150294 0.63961643 -0.7107975 0.14206429 -0.044330053 0.06089312 0.07830419 -0.27993518 0.053953163 0.1943923 0.40421 -0.41722474 0.11870167 0.16304243 -0.12404153 0.33522385 0.15998015 0.11759275 -0.5623453 -0.16285805 0.0915503 -0.16541757 -0.16789949 -0.037168678 -0.022375742 -0.028460601 0.49088588 0.19909163 0.18236005 0.24531396 0.6502887 0.034093186 -0.32646245 0.0044664172 -0.16168639 0.74672824 -0.13368437 -0.28056538 -0.6668771 -0.64460087 0.19332507 -0.20486474 0.38489994 0.3036676 -1.0625662 -0.051132344 0.13351777 0.046229944
airport -0.12539652 -0.40596798 0.48657382 0.1722177 -0.19351684 -0.24082163 -0.20131178 -0.59562737 0.5884665 0.0046047983 -0.46078223 -0.48059183 -0.08642116 0.27344257 -0.16704836 0.22604513 0.42905593 -0.8494607 -0.2961803 -0.36964026 -0.35809237 0.2919686 -0.019944638 0.12574227 0.07821632 -0.3570194 0.4994201 0.6079903 0.51419216 -0.019250626 0.053972114 0.36396438 -0.05506987 -0.081662774 -0.5899502 -0.44354 0.7751203 0.53743213 -0.19732787 -0.067483164 -0.42382735 0.3003702 0.26464283 0.41359484 0.2191952 -0.094646215 0.66808546 0.22148752 -0.42194715 -0.43743566 -0.54443574 0.10213685 0.09040818 -0.23533048 -0.2527051 0.0743088 0.43077096 0.56654686 -0.056788325 0.024973756 0.94971764 0.09230174 -0.24047162 -0.45835727 0.18662484 -0.22936465 -0.254938 0.093228444 0.09305487 0.05022789 0.4117443 0.4756182 0.19072573 0.40632296 -0.11439892 0.18211861 0.24056032 0.42523867 0.32663202 -0.04747723 0.001817058 0.98478 -0.22000207 -0.09034257 -0.14939961 -0.02635039 -0.13753699 0.371866 0.65485954 -0.0916113 -0.42208105 -0.4756085 0.4450308 -0.27867615 0.20402521 0.4202453 -0.22897758 -0.4636811 0.34490687 -0.09618089
population -0.46307325 -0.0044183587 0.23831259 -0.43696162 0.26935342 -0.34895056 -0.25119704 0.013308653 0.12078958 -0.66867715 -1.1774322 0.42292863 0.22122265 0.52864367 0.13600937 -0.813092 0.3775328 0.054075737 -0.047955163 -0.21424377 -0.31511945 -0.54418576 0.117268115 0.063742734 -0.19820166 0.1855535 0.56912583 0.1338049 -0.11023854 0.71494454 0.11237284 0.58306664 0.07275625 0.21283907 -0.40762636 0.06988928 -0.17078947 -0.52479225 -0.46789005 0.1888884 -0.045520324 0.03721345 0.29257572 0.2185214 -0.35674328 0.12757173 -0.321366 0.54362065 -0.36417332 -0.69474584 0.011138206 -0.3608658 -0.12747434 0.6927519 -0.18247052 0.25611603 0.3082129 0.3397102 0.20793098 -0.6043776 0.22739789 -0.2548997 0.56350285 -0.6038898 0.39948654 -0.14568852 -0.32624474 0.026023453 0.14611293 0.2303311 -0.08814639 0.23575677 -0.27221653 -0.07828025 0.21232094 0.057121728 0.38746366 0.415367 0.094217055 0.5629975 -0.15697283 0.1827297 -0.028743418 -0.07946859 0.2578622 -0.015823811 0.3874906 -0.21185273 0.21298346 -0.11544813 0.58505577 -0.36587 0.55058134 -0.22355941 -0.13021044 -0.007624781 -0.4453128 -0.48322797 0.2536027 -0.15715042
planning 0.13875423 -0.22870243 -0.042723272 0.14007849 -0.14427753 0.5732852 -0.2850916 -0.29560894 -0.2276891 -0.24638264 -0.14382651 -0.084857374 -0.13665289 0.09653671 0.5152697 -0.3941293 0.035270985 -0.03782728 -0.2758184 -0.17463475 0.06526727 -0.30192074 -0.14834566 0.26414648 0.44679755 0.22828786 0.007548044 0.041732904 0.03381666 0.1501933 -0.01176782 0.09837504 0.10868193 0.10831264 -0.6115456 -0.58063835 0.08885516 0.01766586 0.038610645 -0.13858481 -0.30382037 0.016816055 0.036703594 -0.0042997114 0.12479543 0.06741936 0.3860657 -0.17326127 -0.08533574 0.06620588 -0.18164414 -0.47836697 -0.051695623 -0.13854611 -0.38568106 0.1418801 0.19398515 0.104980886 0.19741617 -0.11772986 0.5907304 -0.37501702 0.11890891 0.16015853 0.39778155 0.020466562 -0.28486654 -0.34455794 -0.85944027 -0.35231164 0.33701724 0.17639326 -0.2002358 -0.11960948 -0.17616194 0.5935708 0.1275297 0.30465883 -0.027926125 0.3847138 -0.23857036 0.27707526 0.20810258 -0.08570496 -0.12726542 -0.24517888 -0.26280016 0.22998555 0.50638133 -0.04758833 -0.20347038 -0.25258458 -0.00695146 -0.12239055 -0.115971275 -0.019494418 -0.10545805 -0.4244924 -0.2900643 -0.5439951
canyon -0.4854258 -0.080352046 0.1915774 -0.06436228 0.0032519258 -0.5901158 -0.45261264 -0.5878701 -0.6159531 -0.009157784 -0.4153557 -0.5690852 0.30671406 0.22398058 -0.0807112 -0.69919443 -0.13816965 -0.40278438 -0.12827337 -0.1275373 -0.53320646 -0.13025087 -0.3833626 0.16878515 -0.3203899 -0.12999408 0.31961292 0.015640698 0.023580551 0.35957378 -0.2565779 -0.3196207 -0.21974754 -0.29136413 -0.47433752 0.42626953 0.36421987 0.2913858 0.2767287 -0.25221857 -0.36935532 0.1484596 0.6278571 -0.40280798 0.6384186 0.5104409 -0.26143605 0.21054718 -0.5476021 -0.4706413 0.2168097 0.23180999 -0.07126467 0.15578127 -0.62467086 -0.63585913 0.17303956 0.113995574 0.24594937 -0.29785073 0.58494306 0.04513815 0.37943128 -0.17990148 0.19611233 -0.6909499 0.2212213 0.07790302 0.3102952 0.022040114 -0.023740435 0.095510356 -0.07021402 0.20917574 -0.36932945 0.047525946 -0.02513843 0.34708437 0.1598969 0.20764947 0.30093402 0.07307932 0.41386157 0.20852508 0.03581599 -0.20716363 -0.18722539 0.29810408 0.030786734 -0.31803855 -0.9784252 -0.75188726 0.1554771 -0.20600618 0.80251336 0.005744702 -0.81429005 -0.0739558 0.08115837 0.60643256
delay -0.07097316 -0.13403277 0.13001615 -0.24416155 -0.32270744 0.104061246 0.02544536 0.028480753 -0.012312388 -0.08088424 0.3318993 -0.1265388 0.11797432 -0.25123167 -0.28696913 0.039717365 0.28671795 -0.2682778 -0.24959573 0.55482626 0.3346936 -0.011818584 0.17290276 0.21086629 0.289686 0.2862232 0.44335246 0.16874819 -0.104840346 0.048501637 -0.25501814 0.6361369 -0.3057888 0.22528641 -0.8300753 -0.49846125 0.69944084 -0.07092338 -0.26534125 -0.3327822 -0.23130295 -0.28132528 -0.25717282 0.31587967 0.20314066 0.105567634 -0.016936785 0.23344448 0.47914279 0.2343562 0.26847458 -0.59342587 -0.17112555 -0.11127015 -0.19838072 -0.4374015 0.40136576 0.021490585 0.31050843 -0.11110183 0.7701613 -0.1590373 0.20472404 0.41135728 -0.10965059 0.013258209 -0.42822653 -0.17356485 -0.3265801 -0.19531024 0.18027698 -0.016344242 0.5553349 -1.229922E-4 0.13958463 0.50222194 -0.029782725 1.077122 -0.38740286 0.699519 0.0524141 0.55475205 0.29616484 0.048235193 -0.28249222 -0.039656445 -0.2326013 0.5665012 0.25262412 -0.029190069 0.22900774 -0.07552133 -0.03881555 -0.37052798 0.45409513 -0.10812635 -0.4345038 -0.14506494 -0.16041343 -0.4422594
size -0.5088375 -1.135258 0.40342194 0.119425416 -2.252297E-4 -0.016496995 -0.11401235 -0.0020173339 0.10067393 -0.48878813 -0.54897183 0.28970805 -0.010294097 0.12375212 0.3139212 -0.26881242 -0.22894366 -0.36272314 -0.39168215 -0.47518492 -0.3431693 -0.33260372 -0.1665445 -0.0071644895 -0.10361277 -0.037181377 0.632121 -0.21714878 -0.28525478 -0.03199538 -0.051980656 0.16292152 0.09163818 0.014379921 -0.09047612 0.15967937 0.16565408 -0.060349785 -0.069054596 0.33810982 -0.28548032 0.1109614 0.09277946 0.22694966 0.07107479 0.22400856 -0.6537261 0.18122292 0.20575045 -0.67539656 -0.09665799 -0.24547431 -0.054998204 0.49089104 -0.36963806 -0.18540879 0.0281098 -0.3328345 0.40805253 -0.018851308 0.5074633 -0.21006481 0.4830025 0.22282264 -0.13378304 -0.5515181 -0.7267434 -0.29841495 -0.040831525 0.06187628 0.009394524 0.21578406 0.24329366 -0.044968683 0.0013515408 0.2436099 0.62928087 -0.2148476 -0.45114917 0.06892075 0.034431595 -0.10739201 0.35243386 0.028590843 -0.26569954 0.0035076102 0.26298383 -0.07013431 0.3609756 0.19970341 0.5262584 -0.47259662 0.47075984 -0.4794626 -0.021856103 0.20628074 -0.3968554 -0.114105225 0.10119507 0.5280405
peace 0.18550135 0.5614909 -0.17932425 -0.39509192 -0.12242436 -0.07312532 -0.031160159 -0.026070468 0.30897015 0.4919364 -0.62599516 -0.52413845 0.0755541 -0.29321912 0.42162853 -0.5513776 -0.02296529 -0.25663722 -0.4585766 -0.11316397 -0.16480479 0.01828342 -0.16984889 0.3113949 0.053816933 0.23759557 0.5582081 -0.96696424 0.11588367 0.30048364 -0.16302906 -0.28647283 0.16269337 0.6983142 -0.18022688 -1.1256396 -0.5494356 0.0042782826 -0.19645222 -0.70274484 0.36099592 0.08723311 0.7979681 -0.24064682 0.560487 0.10763796 -0.112303525 1.2575744 -0.04911722 -0.013376602 0.1374309 -0.7643476 0.60277456 -0.08765532 -0.1254512 -0.34551358 -0.2698798 0.6958361 -0.16932611 -0.719347 0.88017434 -0.08846967 0.13263552 -0.070781805 0.09161454 -0.23778006 0.5293487 0.26011705 -0.49428248 -0.2162057 -0.22309792 0.43484163 0.44336727 -6.8677665E-4 -0.27404317 0.08391637 0.30114526 0.4856996 -0.34564915 -0.021805895 0.11743128 0.07461021 0.091183335 -0.0021554313 0.6417952 0.23095837 0.35440463 0.6840272 -0.11949315 -0.190555 -0.41921768 -0.6177216 0.5189756 0.32690534 0.77507013 0.016146652 -0.17499521 -0.19259557 0.13063505 -0.7103305
science 0.008789394 0.22655419 -0.04184411 -0.29278663 0.5771344 0.5869992 0.65701574 0.11365824 0.26641268 0.028630612 -0.551596 0.15042435 0.3472155 0.31441376 0.21102014 -0.7477362 -0.2544195 -0.68129444 0.2200274 0.10233777 -0.20206489 -0.5225508 -0.1371734 -0.12197288 -0.55140525 -0.28358176 0.12029369 6.482005E-5 -0.3669724 0.0075729256 0.03675314 0.123734206 -0.15895157 0.1831713 -0.6030806 -0.17310022 -0.3237031 -0.47439104 0.20080774 -0.19489588 0.19901527 -0.16276138 0.27269733 -0.10390455 0.69527596 -0.20149007 0.41327217 0.8207682 -0.11365278 0.4732954 0.6382014 -0.17390281 -0.32192516 0.09126755 -0.0075490642 -0.24906744 -0.145539 0.07472946 0.11489683 0.36342326 0.30358768 -0.26304957 0.17095464 -0.13507849 0.4646833 -0.13007449 -0.72679925 0.011169185 -0.2801085 0.14850701 -0.022336556 0.43316332 0.6238618 -0.08722038 -0.60014516 0.12689234 -0.24613677 -0.08173645 -0.26870257 -0.31378716 0.12682132 0.73028344 0.3664377 -0.003100841 -0.02258237 -0.085592404 -0.31797707 -0.44634986 0.5513009 0.0058227857 0.0026816442 -0.55769277 0.1504556 0.2972496 0.079363495 0.22834685 -0.495062 -0.35133728 -0.3381673 0.44889593
dawn 0.1331384 -0.118628494 0.21766353 0.3986303 -0.10662753 -0.30585694 -0.40378347 -0.050864562 0.21667475 0.4237052 0.14914325 0.12896393 0.049278043 0.15006131 -0.288394 -0.14252411 0.34861985 -0.3697849 -0.43099084 -0.2956949 -0.5244216 -0.26909855 -0.5028038 -0.077759966 -0.16743894 0.22766651 0.5738532 0.14830545 -0.25737992 0.100851625 -0.17010145 0.018844832 0.15341361 -0.17401999 -0.7871688 0.035632573 0.24166338 0.38602778 -0.28826186 -0.4873575 0.12837861 0.03233373 0.7134702 -0.12234959 -0.06644136 -0.059140813 0.58171713 0.57707065 0.07393882 -0.52899826 0.39152694 0.122893676 -0.052956454 0.0069647487 -0.43904206 -0.17769635 0.38818017 0.46369112 -0.122832835 0.01614725 0.3103783 0.7022541 0.365186 -0.23742425 -0.010110205 -0.660572 0.26152351 0.18176046 0.15120721 -0.7035187 -0.4260897 0.2988867 -0.034245107 -0.091112204 -0.21945815 -0.044024646 0.16302365 0.66414106 0.35044724 0.36316425 -0.0641147 0.26100636 -0.009003216 -0.006732927 -0.24040832 -0.46594158 -0.082066305 0.4127213 0.25111747 -0.120119095 -0.36931303 -0.3914977 0.4466084 0.198528 0.34475842 -0.38788554 0.110591196 -0.28404903 -0.2166511 -0.24064602
brother 0.20577551 -0.05492618 0.16511504 0.2432877 0.011307673 -0.12436689 0.014838178 0.2281208 0.13002405 -0.17694363 -0.44635233 -0.01906743 -0.5115267 0.21307477 0.28179696 -0.14713614 0.37602898 0.26545042 -0.45336533 -0.118211575 0.3937315 0.049145818 -0.78353745 -0.119733885 0.2774942 0.17045233 0.88165575 0.461308 -0.14648812 0.5331386 -0.057970017 -0.23795904 0.37045276 -0.20622344 -1.0576727 -0.11257294 0.21382624 0.31935015 -0.090627 -0.21137309 0.42210653 0.3691701 -0.12460068 -0.10649369 -0.25961226 -0.20950045 0.19600119 0.12733051 -0.24785762 0.23233835 -0.123963766 0.0059794034 0.20339023 0.23799054 0.0960262 -0.025177082 -0.1565671 -0.03641865 -0.36206293 0.478818 0.59765756 -0.204215 0.12444247 -0.14752237 0.09165149 -0.349383 -0.26860493 -0.50725543 -0.10246342 -0.4544913 0.19244929 0.8163267 0.2632458 -0.17475806 -0.2677433 -0.0055854414 -0.11229761 0.20660552 0.15377423 0.11417659 0.4210122 -0.5006471 -0.24308398 0.20442928 0.11258398 0.04871583 0.073329635 0.41758224 -0.05299441 -0.07540389 -0.18832642 -0.1440732 -0.18995985 -0.34743625 -0.081425056 -0.11273733 -0.79717124 -0.043762352 0.078654766 -0.7533946
wine -0.22487447 -0.35002238 0.5244079 -0.28117722 0.6773206 -0.20538387 -0.26374596 0.37407807 0.07054873 -0.29163694 0.0040355786 0.39928016 0.12550616 0.07832149 0.13558711 -0.795049 0.36445203 -0.50274026 -0.012495838 -0.5476802 -0.9678583 0.38918766 -0.44618747 -0.03058748 -0.25555748 -0.3186613 0.09085772 -0.37086368 0.14220233 0.64068526 -0.36548585 0.29800582 0.012213068 0.2581661 0.101209186 -0.49281606 0.5964692 -0.0427458 -0.20977858 -0.8457822 -0.3161455 0.077709734 -0.0104961945 -0.02950424 -0.12229015 0.19302125 0.21022949 0.21586354 -0.2614472 -0.24558996 -0.21268106 0.6126902 -0.2509063 -0.570608 0.08467369 0.32167232 -0.02399792 -0.18025787 0.31054053 0.50496656 0.51306295 0.009645842 0.3752878 0.19626997 0.4140971 -0.7834617 -0.23079985 -0.15229267 -0.22153954 -0.09764651 0.46701315 -0.089874044 0.03074373 0.56947094 -0.106459685 0.059243187 -0.06162377 0.39487815 0.16488525 0.16998428 0.718225 -0.23834838 -0.029694246 0.23027372 0.23905604 0.5001847 -0.1422246 0.014443902 -0.032839827 0.3351272 -0.72917455 -0.47684285 0.4190876 0.066184714 -0.085359596 -0.2187885 0.13351393 -0.5389913 0.37002483 0.40665787
object 0.1408858 -0.11970963 0.42307186 -0.16339375 -0.23857945 -0.08221128 -0.14598216 -0.3492012 0.3706432 0.09508915 -0.34085634 0.14418462 0.40161213 -0.008612928 0.21428487 -0.04748321 -0.05181363 -0.13717967 -0.3520617 -0.14697842 -0.48993683 -0.1679952 -0.2851144 0.25300464 -0.10330006 -0.3160085 0.5377348 0.15601462 -0.00967219 0.16132714 -0.030592652 -0.17149508 -0.28459558 0.2963389 -0.76885754 0.10250975 -0.008398675 -0.13453352 0.08022687 -0.40160185 -0.23122865 -0.20382723 0.20349695 -0.3716755 0.62329465 0.2878228 -0.3895747 0.32448635 -0.058570515 0.029351529 0.13796873 0.17715277 -0.17280142 0.5099672 0.0016263284 -0.077719085 0.28693324 -0.31422037 -0.1725718 0.092296205 0.25966227 -0.19638209 0.27420217 0.0033459037 0.15886118 -0.60749614 -0.4137206 -0.42338046 -0.6035689 -0.32889268 -0.3170902 -0.13928108 0.30015308 -0.04447861 0.008746707 -0.05074816 -0.10197984 0.10935921 -0.2775208 -0.011113408 0.11687679 -0.07597586 -0.005542865 -0.28449687 -0.02551188 -0.07628437 -0.051235378 0.25917384 0.5498218 -0.037432127 0.030499307 -0.46449307 0.29144502 0.3014019 0.26927724 0.20757727 -0.33309639 0.35632816 0.0033981423 0.09429382
attitude 0.19541809 -0.093026675 0.36781642 -0.3679119 0.3321526 0.20052807 0.54497576 -0.14286311 0.10962263 -0.033353623 -0.27143008 -0.12345721 0.23658088 0.18308173 0.32387772 -0.13439131 0.24459818 -0.3080851 -0.5285243 -0.1152285 -0.31679034 0.5500246 -0.23702794 0.16193624 -0.17245162 0.13768974 0.25549108 0.10621981 -0.26608083 0.2156808 -0.10137645 -0.3649248 -0.21212709 0.15860687 -0.38773787 -0.21293436 -0.055151276 0.34510833 -0.046089917 -0.2892808 -0.1957004 0.33917704 0.050781947 -0.312397 -0.12399767 0.061859038 0.023911737 0.21390635 -0.1571457 -0.3422605 0.7940453 -0.14762504 -0.543378 0.6097363 0.083357394 0.26450738 -0.124989085 -0.1956665 -0.048150998 -0.09051512 0.693953 0.16824982 0.055616945 0.12416091 0.21600036 0.03586585 -0.6206559 -0.27188203 -0.81070167 -0.054756545 -0.21623603 -0.0738803 0.353989 -0.18187578 -0.10323791 0.16298936 0.2986392 -0.4510285 0.32062757 0.5548517 0.17577179 0.22044116 0.13727275 0.26408392 0.19343093 0.34675738 0.45444816 0.04509697 0.63756496 -0.54196507 0.4845398 -0.25067237 0.41068062 0.1689865 0.04596767 -0.54752296 0.012246064 -0.25468054 0.13545085 -0.3615228
treatment -0.18469557 0.26509288 -0.11984986 -0.057070434 0.22415088 -0.29543012 0.13044031 -0.23750097 0.24879609 -0.3178145 -0.40520552 0.0902053 -0.2041286 -0.14186598 0.16697907 -0.5986165 0.19687662 -0.23086539 0.12880808 0.07189944 -0.021305848 -0.029299611 -0.03605331 0.79336375 0.3395777 -0.107866645 0.28197616 0.36797228 0.16179554 0.5721497 -0.25273177 0.31936446 -0.1707726 0.4368979 -0.20972979 0.194063 0.7488475 0.29810646 0.038755264 -0.10438442 0.100444645 0.15830344 -0.081106216 0.014329887 0.052593283 -0.30461308 -0.1584753 0.5602214 -0.057117537 0.7121897 0.5925524 -0.06732979 -0.3397126 0.3425555 -0.18158129 0.2383502 0.1932125 -0.03541233 0.3711944 -0.1267098 0.87605214 0.03330939 -0.24815273 0.3658822 0.4712234 0.0677705 -0.001273209 0.21640076 -0.5955259 0.4147522 -0.3400076 0.23569663 -0.13273259 0.34849852 0.063911386 0.08836641 -0.38764575 0.66891104 -0.1706537 0.4279271 -0.05636088 0.2365306 0.5515237 -0.055215817 -0.37690705 0.19728749 0.23118599 -0.3583476 -0.1291088 -0.7366887 0.05069448 0.023089968 0.171884 0.31155273 -0.41165793 -0.3481124 -0.19197927 -0.6738299 0.39135775 -0.4901508
flight -0.24346054 -0.44311282 0.47440603 0.12298805 -0.103377715 -0.12002299 0.28208724 -0.008490914 0.34452122 -0.33708483 -0.41102642 -0.167275 0.22717871 -0.21278465 -0.11144414 0.3878917 0.33354837 -1.2383889 -0.36655644 -0.21461436 -0.19439074 0.0039068963 -0.43696094 0.38638029 0.11726324 -0.25462386 0.24762681 0.6154965 0.27949 -0.11726289 0.07307978 0.6417642 0.020906013 -0.21051037 -0.5841375 -0.41098928 0.412263 0.4595116 -0.44009575 -0.19340688 -0.006940798 0.3068634 -0.1481744 0.7916355 0.21651231 0.44513902 0.7669981 0.5667858 -0.14065361 -0.17359452 -0.14531675 -0.19294818 0.089954406 0.18039952 0.24363832 -0.0062720994 0.11742641 -0.060067724 -0.13462941 0.009861508 0.76101 0.28882575 -0.17746405 -0.15001112 0.28376985 -0.20689167 -0.42403734 0.065024756 0.23291735 0.10992193 0.22967209 0.54571056 -0.06763312 0.35775074 0.089438535 0.6100031 -0.03795031 0.009367121 0.30653733 0.181279 0.006508906 0.84167707 -0.038910836 0.056323465 -0.38017422 0.011896259 0.16223592 0.4023981 1.0863087 0.26560986 -0.35061428 -0.44627693 0.3532924 -0.28642946 0.019415969 0.251592 -0.893639 -0.0792916 0.43987384 0.014165539
forest 0.15504836 -0.19502075 0.041975033 -0.0934404 0.013774342 -0.28094974 -0.45815438 0.03951256 -0.05212701 0.03248194 -0.90344036 0.13229875 0.5323846 0.92218953 -0.03041812 -0.77932405 -0.16027823 -0.05960811 -0.21073803 -0.3126169 -0.3353147 -0.18257657 -0.25414377 0.2989124 -0.074097335 -0.2780087 0.12770942 -0.16290376 0.0816225 0.42913452 -0.16570726 0.1410169 0.30797634 0.093272306 -0.20823878 0.6048647 -0.019623745 0.001389974 -0.11591649 -0.6832612 -0.25001985 -0.24430653 0.8522336 -0.25741178 0.08547782 0.05886061 -0.14991158 0.0830429 -0.5774194 -0.327682 -0.061659675 -0.2002428 0.0963596 0.5701645 -0.4660577 0.09999051 -2.423964E-4 0.38744894 0.29324818 -0.37572935 0.67035216 0.23708047 0.460997 -0.57121956 0.23007077 -0.27223462 0.022563279 0.1343765 0.001957608 0.23746589 0.08568728 0.122599706 -0.34653378 0.51774657 -0.5058905 0.22316436 0.32383314 0.5354973 -0.091442935 -0.07115677 0.24336551 0.16533098 0.2757615 0.033542257 -0.03549156 -0.08260031 -0.25483865 0.2191842 0.02006879 -0.11422403 -0.33614415 -1.1062679 0.08917864 -0.31331316 0.8061762 0.25316226 -0.52651423 -0.2613883 -0.08704143 0.1702167
abuse -0.022500888 0.47416273 -0.42482397 -0.3166533 -0.26765537 -0.38450745 -0.29410294 -0.35952082 0.28861648 -0.16307612 -0.6000584 0.14310253 0.08516884 0.5092146 0.7646946 -0.27331427 0.41802627 -0.03365632 0.093252696 -0.45031744 0.16001181 0.041921873 0.3077734 0.37326103 -0.22043052 0.3986331 0.48110572 0.23381758 -0.08768206 -0.12812221 0.24633677 -0.18211998 -0.077570386 -0.10738346 -0.45593807 0.35412505 0.7489435 -0.043768894 0.17331152 0.50021887 0.14140002 0.41059852 -0.10782451 0.004761699 0.38060018 -0.19464087 0.114112556 1.0648752 -0.41534457 0.7691598 0.4091581 -0.45515507 -0.41006443 0.5067606 -0.4487272 0.83166236 0.03975231 -0.2906324 0.10748755 0.07123283 0.95906585 -0.0728736 0.36428696 -0.29173154 0.055014823 -0.4556489 -0.20198414 -0.116310045 -0.070432425 -0.4187952 0.6032843 0.44621575 0.1554969 0.044747736 -0.004209463 0.11036366 -0.6298185 0.46618518 0.26960674 0.023304451 0.37493196 0.011576296 0.79311186 0.4993893 0.1416273 -0.064933516 0.55708385 -0.093351 0.5517708 -0.47515664 0.032163396 -0.092282936 -0.29998603 -0.043737683 -0.0074772523 -0.2309633 0.21488482 0.15769966 0.19062221 -0.14994167
criterion -0.41338328 -0.2940116 -0.17726055 -0.3089441 0.21182793 0.3486954 -0.40066963 0.027416265 0.09106616 -0.613044 -0.18562458 0.08131467 0.08729559 -0.24779896 0.48954284 0.112512745 -0.050073385 -0.55233765 -0.005894932 -0.039941993 0.1063103 -0.04853097 -0.6156139 0.052826397 0.20527562 -0.26056436 0.23177694 -8.5050636E-4 -0.1107363 7.827359E-4 -0.3119706 -0.1166667 -0.54429436 0.30689973 -0.50693065 -0.20137668 -0.16184615 0.09830141 -0.10616136 0.14333786 -0.015471709 0.15643255 0.7141411 -0.16740865 0.43839398 -0.34695297 -0.33217123 0.28727424 -0.1851528 0.30397594 -0.057603464 0.15852948 -0.36093423 0.41453633 0.071156956 -0.036214426 -0.043116707 -0.6713435 0.21270661 0.29583836 0.28712916 -0.42232826 0.111218385 -0.014767434 -0.08702862 -0.0023951803 -0.47480682 -0.3588361 -0.5633602 -0.005498932 -0.20074119 0.1459405 0.4316632 -0.049155258 0.14651848 0.34253263 -0.067262456 0.26101655 -0.21291576 0.23270471 0.02875604 0.37203652 0.56991255 0.21510002 -0.08892418 0.24690731 -0.37546542 -0.20284426 0.14883956 0.12451882 -0.008595282 -0.07571752 0.13279067 0.1900564 -0.10991413 -0.22948751 0.02522258 -0.2918344 0.25540265 -0.07966854
sea 0.14186555 0.13395315 0.35161236 0.08640598 0.42809108 -0.34227625 0.12465647 -0.10553063 0.15221953 -0.025987426 -0.55293006 0.06909206 0.44197622 0.23268905 -0.0825781 -0.38865504 -0.45761156 -0.6210829 0.041974977 -0.21472064 -0.7311242 0.17813714 -0.24619263 0.37341458 0.30556202 -0.27116105 0.17736012 -0.11148379 0.18489917 0.4226354 0.0031909773 0.40145487 0.12915169 -0.40551603 -0.24958707 0.41849172 0.1371743 -0.43734312 -0.46759042 -0.27011436 -0.13416986 0.23708884 0.25841153 0.044889633 -0.38954055 0.47543043 0.02123024 0.43738016 -0.0020654374 -0.4561653 -0.08038302 0.46801576 -0.033596218 0.20911744 -0.40579742 -0.43048805 -0.078573875 0.44389233 0.5004031 -0.11365751 0.47005096 0.63711804 0.57902604 -0.30837905 0.18091312 -0.644215 -0.3658131 -0.52999496 0.27518076 0.43464687 -0.32068434 0.27763653 -0.29066223 0.24337608 -0.29811642 0.19459172 0.012754518 0.5051937 -0.2220612 -0.12187783 0.3881563 0.14018258 0.48788083 0.34945253 -0.38748112 0.2887021 0.05724872 0.30471677 0.2653169 0.29319757 -0.9112285 -0.7577368 0.4740788 0.3718031 0.5996707 -0.16538636 -0.3768569 -0.11814619 0.21961705 0.040640917
dollar -0.2724718 -0.47908553 0.08125494 -0.90470284 -0.12563276 0.01444059 -0.336588 -0.67960274 0.16151418 -0.13427824 -0.74622077 0.03207431 -0.30156684 -0.5892372 -0.2899716 -0.42945862 -0.06296261 -0.30506653 -0.65994906 -0.63305616 0.025832688 0.5110034 0.0138822105 -0.029862633 0.10282272 -0.36535466 0.42300063 0.2618364 -0.19769403 -0.30031043 -0.20128962 0.49526235 -0.08637232 -0.16434124 -0.0602158 0.03934694 -0.36088756 0.06895844 0.37641552 -0.22273602 0.024190944 -0.21930309 0.10850658 0.14783992 0.10246012 0.31089658 0.1298997 0.9912506 0.6810622 -0.02216283 0.13735746 0.26436394 -0.2713794 -0.036798865 0.36286286 -0.008424605 -0.114488915 0.17450093 0.47224757 0.04899955 -0.06093833 0.26456127 0.6984884 0.08341593 0.5630368 -0.618065 0.20307064 -0.22050156 -0.088623986 -0.11571366 0.05023248 0.15026139 -0.7786013 -0.23552021 -0.3954566 0.45993337 0.7841309 0.59056294 -0.3600677 0.81547606 0.7431075 0.3420354 -0.032474305 0.7329458 -0.33311 0.40827346 0.3333439 0.8399488 0.05625501 -0.0958022 0.25587726 -0.7325649 -0.064235315 -0.31878114 -0.3509867 0.052464757 0.118728414 -0.58187497 -0.14627454 0.23360112
example 0.050242383 -0.31533793 -0.15923347 -0.40409443 -0.16383392 0.27230877 -0.39013296 0.0052530663 -0.08637732 -0.36996472 -0.31079334 -0.11237737 -0.17729774 0.081662856 0.3753837 -0.47757688 0.013275053 -0.401871 0.027076991 0.15715282 -0.20240778 -0.26992074 -0.3710731 -0.055844963 -0.04316384 -0.320123 0.2741499 0.2982886 0.24663162 0.16004401 -0.09661876 0.24162422 -0.13427386 0.32497665 -0.10889222 0.08369611 0.03527526 0.14653194 -0.29179326 -0.09955999 -0.078916654 -0.024616035 0.23930942 -0.19217886 -0.09979409 -0.045153957 -0.021931129 0.032582887 -0.03283988 -0.15061034 0.17948091 0.30632496 -0.18220782 0.16843788 -0.123519644 0.25986463 -0.096533954 0.16902722 0.017107302 0.33117557 0.3295929 -0.07556438 0.24784988 0.06751641 0.33910647 0.040088937 -0.3867885 -0.27935845 -0.44735172 -0.30847275 -0.13590927 -0.037735697 0.60930574 0.28467634 0.10414958 0.31904906 -0.07674799 0.37231094 0.015901035 0.45164502 -0.017129362 -0.4782059 0.346811 -0.0562323 0.12321997 -0.042143703 0.026916064 0.17522188 0.2653343 -0.40853468 0.25264683 -0.2912182 0.13469994 0.07796203 0.1125094 0.005092236 -0.13581033 -0.092002794 0.04400318 -0.003908615
journal 0.059255477 0.14991193 0.2489606 -0.022203308 0.5874959 0.81109 1.0422137 -0.13188757 -0.63804024 -0.49936974 -0.41268137 0.13669105 -0.05170949 0.0769219 0.15705726 -1.1303796 0.0792867 -1.0190867 0.600206 -0.53529966 -0.20835923 0.021086054 -0.48526472 -0.10330133 -0.039161034 -0.28580597 0.67443913 0.13322105 -0.3510499 -0.013257473 0.15437916 0.43850875 -0.46310744 0.17492819 -0.8452991 0.04515624 -0.41687348 -0.036480885 -0.16701439 0.010662316 -0.13161148 0.36446875 -0.012530905 -0.2830081 0.5200863 -0.90932274 0.24059401 0.7146928 0.41973612 0.50593 0.29362974 -0.36689457 0.3022491 0.13678819 -0.5298034 0.20601854 -0.39787155 -0.20224077 0.33903465 0.5505988 0.3636824 -0.4236206 0.35377014 0.096270256 0.14072685 -0.03770302 -0.15737653 0.16264524 0.28652763 0.8676493 -0.5859769 0.19540463 -0.1434074 0.6275107 -0.0943364 0.019107863 -0.06904066 0.74935293 0.44073418 0.17869382 0.11498422 0.468309 0.75808734 -0.23839043 -0.111678086 0.06742389 0.21097541 0.06592593 0.69837093 0.15184695 0.8051609 0.15561157 -0.22468804 1.0120977 0.6822444 -0.17407395 -0.48859373 -0.3818867 0.984205 0.01219057
laundering -0.40039843 -0.008457934 0.23466656 -0.56551635 -0.06911372 -0.13673884 -0.54241836 -0.28599533 0.2140944 -0.024864402 -0.8279766 -0.13467613 0.49806464 0.3073892 0.59417695 -0.96184266 -0.2118033 -0.12077154 0.05523972 0.028081888 0.54803205 -0.097252324 0.17641208 0.15460093 0.4016638 0.057285275 1.0047535 -0.12226004 -0.53543586 -0.204989 0.1338742 0.20765926 0.31312376 0.19031984 -0.15724629 -0.21199673 0.9257201 0.22751231 0.34008494 0.1890196 -0.7476838 0.09255996 -0.16854736 0.022295993 -0.17915197 -0.24974248 0.45806023 0.7010866 -0.29853338 0.42818075 -0.46381325 -0.30374217 0.27890602 -0.37518722 -0.683858 -0.04441702 -0.04473424 -0.118883036 -0.10132517 0.097987175 0.5700761 0.058219317 0.12063006 0.7475349 0.12504035 -0.22103766 0.4062969 -0.21610191 -0.4648746 -0.47689846 0.24924088 0.35036653 -0.3698852 0.20503105 -0.3955139 0.4121035 -0.65914226 0.20678017 0.12373296 0.2585402 0.646873 -0.08131435 0.027969463 0.64379185 -0.5216492 0.028528953 0.34304717 0.30174655 0.53661436 0.19155067 -0.29281515 -0.31964377 -0.15853445 -0.47970566 0.03261433 -0.3510974 0.29089215 -0.27035376 0.36608034 -0.023976497
hotel -0.492076 -0.27304426 0.32411307 0.0038285516 0.19749051 -0.039273623 -0.32140896 0.04470271 0.4950586 0.013188335 -0.088429965 -0.33020243 -0.12822257 0.15196322 0.10957695 -0.1702564 0.12848064 -0.8119228 -0.68147814 -0.6337491 -0.7894993 0.3402518 -0.08374909 0.22948329 0.08165807 -0.46169892 0.28063676 0.13004896 0.24988106 -0.11454447 0.0021345417 0.15381564 0.24685363 0.021849478 -0.6095984 -0.22249328 0.63848233 0.40778792 0.15543875 -0.16387807 -0.18806691 0.5665223 0.14183635 -0.31181896 0.23901251 -0.06621779 0.5913132 -0.4018875 -0.12426902 -0.45687696 -0.4293225 0.3959365 0.14054714 -0.24590269 -0.3107418 0.031124331 -0.090097845 0.18222828 0.33116937 -0.40256816 0.69843996 0.21570322 0.12388102 0.1545868 0.44280103 -0.38829264 0.11308627 -0.45278677 -0.048857547 -0.2391518 0.4275701 0.27381924 0.22935732 0.34123263 -0.1646816 0.26211807 -0.16193227 0.42512077 -0.041189443 -0.16785826 -0.20648742 -0.038518444 -0.308726 0.18108395 -0.27278867 -0.060030926 -0.33740205 0.15930758 -0.04959515 0.27470693 -0.56602883 -0.38216934 0.13322957 0.13991001 -0.5248717 -0.15364775 -0.5476363 -0.38487464 0.73668545 0.0085423635
term -0.3478559 0.11181218 0.0088146115 -0.24952005 -0.29384753 -0.18612823 -0.2887724 0.36553383 -0.15409894 -0.24564287 -0.4207391 -0.7565652 -0.31099746 -0.3296328 0.10640633 -0.03729441 -0.22947554 0.19295953 0.3301191 -0.4929707 0.39059338 -0.19115083 -0.38411635 0.22797039 -0.0887695 0.031075511 0.38503733 -0.1269827 -0.27473 0.46383715 0.15706483 0.21930027 0.33363494 -0.09048021 -0.93388057 -0.30414927 -0.2847758 -0.20622036 0.04897314 -0.12568235 0.10827383 -0.2859581 -0.016587252 0.19810574 -0.3427569 -0.1969346 -0.3301667 1.0794985 0.19121389 -0.28687596 -0.1824571 0.08447462 -0.45278382 -0.10536575 -0.3053044 0.14011744 -0.25115347 -0.3766872 0.024177574 -0.18903477 -0.018715773 -0.3583715 0.32935894 0.002746257 -0.010924153 0.21003479 -0.4108958 -0.08203444 -0.63725436 -0.0263157 -0.36135507 0.19728231 0.018831009 0.1889745 0.20491092 0.61065894 -0.21712282 0.5378561 -0.4162968 0.54003096 0.25980002 0.08752925 0.2822678 0.5683684 -0.14222054 0.448425 -0.35729855 0.13363971 0.20662005 -0.7337362 0.1094159 0.004583377 0.59517187 -0.31197572 0.067338966 -0.05215835 -0.38372707 -0.62285006 0.16984731 -0.2540702
listing -0.75896084 -0.47212934 0.17249256 -0.6171345 -0.6382383 0.09294685 -0.11896572 -0.0025509882 -0.4828175 -0.2165434 -0.28847793 -0.45581353 -0.1739648 -0.28272754 -0.010520391 -0.25025314 -0.08262564 -0.66985524 0.036951162 -0.14907753 0.042944632 0.06904376 -0.47886834 0.26174763 0.07543314 -0.7622914 0.75423956 -0.33103 0.1286561 0.23064095 -0.08243251 0.6674865 -0.07016943 0.39049718 -0.39590642 -0.017229231 0.0020099184 -0.3056768 0.41888225 -0.08488161 -0.20154862 0.087293625 0.3593019 -0.05931806 0.19576629 -0.03614788 0.5124082 -0.13809812 0.4123503 0.08048399 -0.116303906 -0.1163009 -0.11119852 0.056075323 -0.034488183 -0.011128581 -0.13070835 -0.040653925 0.18672647 -0.002881698 0.46043965 -0.57278234 0.18634047 0.11242422 0.11080125 -0.25402382 0.06433836 -0.40421078 -0.22899944 -0.36660677 -0.056953028 -0.29631886 -0.47618946 0.17101693 -0.006171076 0.44064057 0.007118582 0.4667052 -0.36004964 0.3022021 -0.074023634 -0.141199 -0.15183847 0.29603106 -0.39791846 0.32262346 -0.038602725 6.673744E-5 0.29880932 -0.24156168 -0.20539273 -0.26974192 0.14538224 0.40620333 0.024229607 -0.2163983 -0.0850249 0.13136475 -0.0029876092 -0.3337437
chemistry 0.15589108 0.12549298 -0.044828914 -0.0695282 0.5205587 -0.024460038 0.65397054 0.12809393 0.43499348 0.013086898 -0.7163158 -0.025226284 -0.06470098 -0.094433285 0.107435115 -1.0724876 -0.37357196 -0.79889166 0.4208683 0.008211847 -0.13184908 -0.52231455 -0.6485031 -0.005241626 -0.18627584 -0.1466476 -0.03870531 -0.3014692 -0.08589833 0.24177462 -0.4785312 -0.18158889 -0.17202063 0.04185681 -0.22531392 0.15860523 -0.07577041 -0.12365557 -0.036262795 -0.33310023 -0.067139134 -0.16459396 -0.27599475 -0.35329896 0.59094065 -0.5122481 0.25220802 0.6543681 -0.18634813 0.23522487 0.5901997 0.0010153997 -0.38781223 0.059729457 -0.19398378 -0.21251215 -0.036441565 -0.43858287 0.28796065 0.73103213 0.5730747 -0.31410062 0.10252149 0.08503194 0.38012806 -0.19117957 -0.2160753 0.042767465 -0.32141474 0.12281943 0.265245 0.14802453 0.4582571 -0.10551167 -0.07916954 -0.113863185 -0.20135602 -0.090045735 -0.23311014 -0.14373498 0.07221953 -0.14610125 0.39083502 -0.3611449 0.50033516 0.4279899 -0.022208743 -0.21662362 0.58888364 0.31382445 -0.47899237 -0.2853695 0.1767337 0.021378843 0.2775126 0.033771716 -0.49012294 -0.6113872 -0.23235062 0.26097116
seafood 0.1913566 -0.44385782 0.08800212 -0.09513198 0.82161117 -0.077179246 0.214749 0.028020546 0.021303307 -0.9213206 -0.21368328 0.41024998 0.22512047 0.2974887 -0.015899632 -0.9606429 -0.081820294 -0.36640006 -0.17976527 -0.2547175 -0.59314805 -0.021676281 -0.062496167 -0.0101075675 -0.16272704 -0.17750463 0.033170037 -0.28578392 -0.043687552 0.7307751 -0.13541223 0.41651642 -0.14085434 0.48438543 0.3366469 -0.17102884 0.32329386 0.017020926 -0.12848486 -0.41142777 -0.2756324 0.35683218 0.43545023 0.45445007 -0.079331756 0.18652098 0.28269753 -0.06118022 0.020637844 -0.559196 -0.022558302 0.17439766 -0.37582177 -0.42354944 -0.19652267 0.31208676 -0.041285414 -0.074543856 0.48865923 0.21231243 0.4435091 -0.3614577 0.49116358 0.13246667 0.3534192 -0.5526676 -0.047055878 -0.38900077 0.051212877 0.039242197 0.033230953 -0.040468115 -0.27613834 0.47179663 -0.16027467 0.28451174 -0.008441245 0.9743777 0.22975375 0.21927874 0.41929325 0.089482695 0.405794 0.3117011 -0.10503745 0.5994547 -0.5209912 0.18948947 0.19686735 0.55506486 -1.2487404 -0.5627836 0.24069606 0.46841314 0.15127076 -0.41142708 -0.29955876 -0.175565 -0.045652423 0.09386394
CD -0.7116836 0.07612139 -0.4843212 -0.26753232 -0.22054495 0.57354534 -0.64454585 0.2093476 0.38490528 0.2938261 0.19965671 0.060375467 0.32551503 -0.7221546 -0.35125503 -0.414389 -0.051315412 -0.75927424 -0.13493077 -0.45055994 -0.08970945 0.25068012 -0.35783988 -0.4825177 0.5893575 -0.14692058 0.257812 0.24715422 0.20922805 0.2835626 0.10601638 -0.11652748 -0.09300576 -0.03551781 -0.67279303 0.39554918 0.09478367 0.14124042 -0.12531617 0.11630705 0.3698319 0.49676245 0.37541053 -0.35462776 0.1963385 -0.20330033 0.061407533 0.04628185 -0.04407247 0.27824894 -0.1169747 -0.37113267 0.12995793 0.59908086 0.5445235 0.5639819 0.59264153 -0.38589203 -0.20655593 0.41964024 0.6443682 -0.33565933 0.14044341 0.11077627 0.115651995 -0.38339785 -0.27115053 0.03370479 -0.09036687 -0.64015955 -0.22737634 -0.25482345 -0.43027124 0.64970124 -1.1758856 0.26271415 0.7269585 0.113070466 -0.6379732 0.32132533 0.6200049 -0.4156955 0.29033506 0.4324318 0.60568756 0.17601486 0.11089837 0.37125912 0.2829883 0.1375719 -0.19023633 -0.19880208 -0.3611538 0.04048691 -0.1167464 -0.6190866 -0.16674423 -0.3361422 0.2722288 -0.39157665
mind -0.09114458 0.017005282 0.20468295 -0.34009904 -0.058712397 0.32654345 0.2195638 0.25050482 -0.06824958 0.049758755 -0.22864561 -0.06524195 0.07001537 -0.035743892 -0.18114045 0.02997291 0.4231422 -0.52993125 -0.57514185 -0.109352745 -0.21628812 -0.16569674 -0.24176538 0.1993777 0.12502317 0.060319684 0.4630533 -0.08247232 -0.049268574 0.26958415 0.064289406 -0.44270656 0.33581272 0.08248156 -0.5564967 0.20260255 -0.16183273 0.21116626 -0.121406645 -0.38716105 -0.29268014 -0.23955382 0.5141337 -0.15808773 0.22789475 0.22200386 -0.27512908 0.22028987 0.0564283 0.25299647 0.10394034 -0.142614 0.032456934 0.3573674 -0.14938843 0.2583324 0.08911414 0.198958 0.004189513 -0.057625502 0.29306677 -0.07160371 0.37358072 0.54141295 0.24435298 -0.43986177 -0.43984485 -0.12180708 -0.8381128 -0.28087163 -0.16131291 -0.019283574 0.52364177 -0.20648059 -0.24594267 -0.0186515 0.39413995 0.13238733 0.031455345 0.09134304 0.4488737 0.109149575 0.20293182 0.028483402 -0.010863632 0.35088128 0.23720302 -0.14162101 0.5045681 0.07923853 -0.14818926 -0.3603507 0.5088663 0.3222049 0.04613466 -0.3071835 -0.097491525 -0.11836972 0.14522015 -0.101280585
sex 0.11521262 0.32480717 -0.6008822 -0.5136156 0.0111991055 -0.39905074 -0.14162257 0.13244753 0.20762125 -0.31097424 -0.65573525 0.40209064 0.22366615 0.39272803 -0.048657205 -0.47189507 0.43652382 -0.37066576 -0.51227474 -0.2389975 -0.2517052 0.1329315 0.2276056 0.23961139 -0.33623183 0.2309726 0.55693036 0.07175256 -0.028393218 0.20495662 -0.089958385 -0.31623548 0.065833315 -0.40974447 -0.5925975 0.45728725 0.11266214 -0.22289439 0.7161147 -0.12599981 -0.164708 0.72167236 0.11697627 -0.4695882 0.28802142 0.37902173 0.83043987 1.1389853 -0.15615293 -0.14324284 -0.054376964 -0.07600937 -0.48834932 0.34392664 -0.7599366 0.51662755 0.20878537 -0.3033343 -0.111103065 0.070848845 0.73444355 -0.32723713 0.037398003 -0.26781318 0.20892693 -0.31873 -0.06914627 -0.1266042 -0.47044477 -0.20233569 0.4114826 -0.022693994 0.20632695 0.17119153 -0.38650024 0.054173123 -0.1211614 0.47939146 0.03528556 0.094294176 -0.004922186 0.058286466 0.34363732 0.213631 -0.26081282 0.3077359 1.1998554 -0.34141913 0.32418168 -0.05207194 0.26614693 -0.036681704 -0.07580336 0.1258245 -0.5141524 -0.1969029 -0.07123326 0.010352373 0.012265551 -0.33114123
food 0.37832952 -0.032709904 -0.26703885 -0.42335516 0.35250765 -0.06851711 0.12515493 0.0473459 0.29503557 -0.62354404 -0.2358964 0.44986272 0.12114267 0.16262615 0.45809543 -0.88538563 0.009201936 -0.368626 -0.35900828 -0.2806857 -0.17687838 -0.09496816 0.48738894 -0.062049434 -0.054809343 -0.15614179 0.1570217 0.015253505 0.02412653 0.5241116 -0.5920036 0.48273835 0.28406462 0.112402245 0.12134769 -0.03861401 0.7298698 0.36117437 -0.34722322 -0.20068516 -0.30431926 0.065141745 0.52248013 0.24422581 0.26956546 -0.10299966 0.13300957 0.1124066 0.20701763 -0.10226335 0.36006463 -0.29208675 -0.1453439 0.06485126 0.1599645 0.12126936 -0.07332473 0.15485542 0.22236498 0.3287901 0.3450953 -0.120382056 0.6249601 -0.377378 0.21973836 -0.40770003 -0.30398396 -0.4614141 -0.2260888 0.17675692 0.53324866 -0.099068254 0.15541364 0.52296144 -0.19325384 0.24960311 0.005141879 0.33606642 0.008758014 0.7049974 0.7262068 0.61441547 -0.015767638 0.2942864 0.21416268 0.4187636 -0.39975834 -0.015164533 -0.23398097 0.29379022 -0.69495 -0.42930084 0.070411816 0.29454824 0.09854559 -0.27153566 0.03928605 -0.35589275 0.54998285 0.30413342
precedent -0.050735235 -0.028604545 0.1951849 -0.69651407 -0.3568309 0.29992777 -0.42109498 -0.032767277 0.049831003 -0.46170595 -0.17469187 -0.20289661 0.27357236 0.1697469 0.41215077 0.06577201 -0.20053956 -0.15834971 -0.06852895 0.52121747 -0.47467384 0.19836241 -0.22321202 0.109256834 0.16552632 0.040068403 0.3743003 -0.36186114 -0.17899542 0.18865004 0.055748165 -0.45371553 -0.16058299 0.05175635 -0.50651175 -0.2000761 -0.122879416 -0.2487686 -0.06451331 -0.4390815 -0.048683096 -0.16811855 0.22501326 -0.012778409 0.10601205 -0.32672366 0.003556859 0.465152 -0.37514582 0.13263726 0.14680754 -0.23809247 -0.167179 0.39311248 0.037159305 0.14887625 0.06734745 0.20841944 0.40383938 0.04665073 0.5816586 -0.18036479 0.2902777 0.04750145 0.18691052 -0.08022797 -0.44298923 -0.20809118 -0.70128137 -0.33380434 -0.31242484 -0.023749908 0.83865 -0.12872839 0.063197404 0.45868415 -0.3116866 0.42062163 0.026911614 0.19004409 -0.16425589 0.010315682 0.4910715 0.17294766 0.07545568 0.050215244 0.23353292 0.45847556 0.18770875 -0.2013649 0.089823216 -0.326164 -0.018271038 -0.04559002 0.30199665 -0.259204 0.24318147 -0.22513463 -0.15087359 -0.25888768
series -0.48942214 0.28946406 -0.2778946 0.27228048 0.09667786 0.16838574 -0.4171289 -0.23849322 -0.47837523 -0.11158545 0.3516702 0.020564465 -0.17952956 -0.081625685 0.23296092 -0.28734308 -0.29668605 -0.40485469 -0.13736539 0.4814685 -0.20226574 -0.3874229 -0.10867377 0.5788185 -0.37760872 -0.02911873 0.25641677 0.004348225 -0.123837374 -0.42185152 -0.10360783 -0.045020096 -0.0030052036 -0.47358373 -0.5505851 -0.40011716 -0.3903452 0.053076442 -0.12415512 0.15463057 0.06337307 0.6637646 0.2420948 0.10948779 0.10656542 0.08797849 0.29596782 0.20113203 0.23356499 -0.13569081 0.33193088 -0.7062034 0.00758567 0.25472188 -0.045783162 0.32769206 0.44674549 -0.3614493 0.5308474 -0.103497416 0.37639633 -0.41337314 0.5415053 0.25819692 0.53714263 -0.483694 0.119768016 0.070847206 -0.14744659 -0.6486655 -0.36660585 0.40228662 0.2662962 0.16554995 -0.6274707 0.22720982 -0.23311937 0.38459787 -0.2742126 -0.20343597 0.009581926 0.5776003 0.26335543 0.36567923 0.4735232 -0.0080145225 0.2011784 0.11141933 0.09703752 -0.23569709 0.21111393 0.13568056 -0.029796984 -0.23380466 -0.0053412914 -0.19784418 -0.035169307 -0.006772788 0.31338698 -0.09396949
kilometer -0.9788542 -0.41951373 0.26148888 0.1296833 0.60141337 -0.610829 -0.3422906 -0.10241293 0.5178582 -0.0068545453 -0.3123464 0.29729432 -0.25722843 0.3779401 -0.27188936 -0.21037498 0.23125666 -0.048824452 0.14324418 -0.49363238 -0.0063899467 -0.4341622 -0.4356242 -0.41400412 -0.47043836 -0.26343215 0.36971527 0.8921429 0.1299132 0.6800098 -0.42731193 0.50373334 -0.51458246 0.024819048 -1.0011915 -0.32616472 0.24925256 0.45906025 0.6923394 0.097764745 -0.6724056 -0.6222756 0.3510333 -0.47622877 0.5696542 0.022691326 0.08631629 0.6571993 -0.069788724 -0.98407596 0.42849848 -0.3343809 0.30409363 0.28105775 -0.7756956 -0.22725426 0.16224755 0.10412859 0.71186674 -0.41435483 0.27171606 0.7068463 0.3906991 -0.71565557 0.6105448 -0.796098 -0.7246163 0.7069733 0.644263 0.3034689 -0.46951616 -0.12587196 -0.45641157 -0.26035604 -0.49645817 0.18275051 0.24044457 0.2622723 0.20803086 -0.3364959 0.051344007 0.6069093 0.6085094 -0.5370079 -0.28026932 -0.3415791 0.27669606 1.6941959 0.47282425 -0.10911422 -0.8105079 -0.41760728 0.28201163 -0.24222247 -0.15851608 0.11668582 -0.88796115 0.13701831 -0.12530681 -0.2350373
grocery -0.12212774 -0.6680387 0.15030628 -0.22135125 0.17180875 0.023201698 0.19474542 -0.22839673 0.22540802 -0.69481605 -0.02851537 0.33075696 -0.13125752 -0.12602566 -0.183509 -0.8651566 0.32762802 -0.13966273 -0.8201358 -0.44159254 -0.04406191 0.0041683135 0.27317572 -0.035462756 -0.5638099 -0.40276894 0.5392618 0.19035837 -0.22709146 0.47064918 -0.16254126 0.51530975 0.44784397 0.17330623 0.104985744 -0.42478392 0.774066 0.36115083 -0.14110349 -0.60371274 -0.09101169 0.6936382 0.27560383 -0.090878 0.5101241 -0.0891727 0.22247492 0.36039883 0.011164038 -0.4828357 -0.4358515 0.25509617 -2.4288634E-4 0.24620716 -0.27323776 0.77168506 -0.01836333 0.11469734 -0.08706411 0.24611667 0.4287627 -0.29612786 0.51370233 0.021853834 0.015664032 -0.39053494 -0.032554224 -0.29660642 0.09840893 -0.4129079 0.5645234 -0.38882616 0.15887372 0.25098634 -0.21901049 0.19148265 0.2639215 0.40243965 -0.21654643 0.74981475 0.5606313 -0.24861774 -0.15145728 0.34965363 0.39260474 0.26363263 -1.0127879 0.32040256 0.0295441 0.32974678 -0.88504004 0.20127885 0.09804836 0.39618927 -0.013744018 -0.04588381 -0.35829216 -0.51414 0.7696777 0.17782864
wizard -0.42072624 0.27256158 0.10416319 0.5251405 -0.07487739 0.48368907 -0.4088092 0.16796753 -0.28858623 -0.2327996 -0.0020226918 0.31856674 0.08049637 0.18543078 0.1970185 -0.803363 -0.14898737 -0.6838614 0.22195336 0.032679334 -0.13650791 -0.30862722 -0.7569133 -0.21926479 -0.2766574 -0.18696642 0.25919765 -0.04945898 -0.23018603 0.35367042 0.30743974 -0.7680663 -0.42416698 -0.39357308 -0.24017309 0.30303833 -0.28672972 0.1846357 -0.04263213 -0.043330155 0.28051686 0.75773686 0.0016049759 -0.2795084 0.14445539 0.102301426 -0.18424807 0.6169484 -0.35846907 0.35360715 0.23413298 -0.166551 -0.16341308 0.18553928 0.04422336 0.0722799 0.15120885 -0.21303126 0.05166145 0.06500976 -0.39173073 -0.4040936 0.14060818 0.4429734 0.59086794 -0.015120201 -0.63767654 -0.5087636 -0.49752823 -0.28985158 0.32975253 0.27833346 0.05400595 0.13899769 -0.71098983 0.14336394 0.061570976 -0.041047 -0.18667163 0.10559885 0.47646293 -0.43161935 0.06191654 0.10211649 -0.13770089 -0.11354252 0.26849413 -0.114735864 0.5081417 0.19659887 -0.23792358 -0.6961419 0.14948659 0.2808884 -0.12904441 0.047578674 -0.4990412 -0.33711177 0.19294085 -0.20291772
information -0.08110199 0.108436376 0.08106805 -0.3521333 -0.33255062 0.38132358 0.06643051 0.20129067 0.16716206 -0.25200433 -0.5089375 0.35777518 -0.3550484 0.06844815 -0.07916139 -0.37228388 -0.021770595 -0.5378695 0.1351683 0.18684873 0.25877127 -0.3086298 0.26581138 0.43283927 -0.2029301 -0.6674635 0.72857815 0.48018533 0.12252606 -0.1959233 -0.408823 0.23879336 -0.23967105 0.8092246 -0.6711484 -0.37195975 0.19078259 0.10823299 0.37182355 -0.12451999 -0.32568952 -0.16127877 0.35658243 0.15535767 0.45910367 -0.094130225 0.048013028 0.2644597 -0.014026479 0.32734394 0.026132608 0.15772925 0.28873667 0.67551523 -0.089960635 0.045728 -0.05565506 -0.21730293 -0.4209627 0.05383583 0.7960463 0.008298469 0.2182476 0.2330551 0.66134053 0.27249002 -0.09782175 -0.18569057 -0.39427987 -0.55108905 -0.062742434 0.18691136 -0.39736187 0.3761126 -0.24054939 -0.014226138 -0.34483904 0.22928832 0.21484336 0.40929002 -0.05675472 -0.19174981 0.68241805 -0.58425885 -0.11577272 0.19995706 -0.48954147 -0.04783053 0.46489447 0.14355248 -0.3248648 -0.71208054 0.04151032 0.2959145 -0.020528773 -0.6315093 0.7414959 0.20699301 0.064405374 -0.053826053
Israel 0.37359333 0.6018816 -0.21715616 -0.64856327 -0.027116606 -0.36800432 -0.19410741 -0.53112686 -0.039698575 0.012713561 -0.48705488 -0.26326677 0.36088705 -0.28079712 0.14817363 -0.48981753 0.0852958 -0.17245592 -0.25193018 -0.05210362 -0.45312595 -0.0769133 0.35737967 -0.07866082 0.08838782 0.19204529 0.799057 -0.40136307 0.25884214 -0.11018124 -0.25667495 -0.2703418 -0.60006064 0.23981997 -0.2616778 -0.15093543 -0.2357942 0.44072032 -0.31177178 -0.14847264 0.26202995 0.03157214 0.22108595 -0.31475088 0.23048712 0.32047668 0.26241082 0.76057357 0.13083771 0.1816595 -0.8277718 -0.46751815 -0.2248406 -0.2897795 0.24115607 -0.004027787 0.4390562 0.81323206 -0.22668628 -0.6834651 1.0242736 -0.27158654 -0.31087828 -0.08299024 -0.13397649 -0.48498064 -0.38169953 0.3200998 -0.2661208 -0.45411682 -0.7883959 0.65773696 0.34568438 -0.069249414 -0.3583043 -0.0028787288 -0.10361345 0.1016588 0.32028928 0.5357803 -0.25066203 -0.07983166 0.8379279 0.6287542 0.4119275 0.26009426 -0.09660677 0.74015474 -0.4135859 -0.50088716 -0.115602344 -0.4481625 0.4734585 0.8726942 -0.45626074 0.21015978 -0.034926865 -0.4517874 0.32368115 -0.4250923
brandy 0.03562958 -0.20100349 0.0077767763 -0.16511413 0.07328546 0.15703738 0.081613526 0.05193179 0.21151201 -0.23218533 -0.020162271 0.30717742 0.002025995 0.18877909 0.1772365 -0.63615716 0.5805787 -0.2158415 -0.61327267 -0.27827403 -0.020379504 0.22440554 -0.43877712 -0.17110182 -0.24479043 -0.50999284 0.22583997 -0.06491392 -0.15505889 0.71906257 0.031295218 -0.098216176 -0.067559704 0.11786521 0.073612414 -0.18798713 0.5956976 0.026912607 -0.08956474 -0.3325615 -0.5312411 0.33805445 0.2799538 -0.096556716 0.052869797 0.14001271 0.07766776 0.01254615 -0.09292254 -0.5042125 0.17264669 0.19821402 0.057600178 -0.19315183 0.016139673 0.2256115 0.22324136 -0.14193434 0.16068316 0.6243661 0.48796037 0.12685813 0.10734775 0.69233876 -0.09412487 -0.27919447 -0.0015782345 0.036495183 -0.29671264 -0.30797833 0.07229589 -0.19090165 0.2874945 0.23632996 -0.28401515 0.16821961 0.2248955 0.225944 -0.22944762 0.1303327 0.39614898 -0.33647835 0.32397693 0.4201604 0.47558403 0.47754595 0.04031725 -0.32692906 0.044075064 -0.12083809 -0.4666065 -0.45530877 0.33257955 0.17014554 0.11468108 -0.3181373 -0.3082171 -0.14216301 0.15364334 0.20646335
interview -0.3862297 0.094640024 0.4388223 0.07378447 -0.0017708963 0.21280795 0.12553272 0.2887319 -0.0022074084 -0.027540201 -0.053995386 -0.18022043 -0.30804944 0.21950106 0.37031987 0.43012846 -0.20157962 -0.5377516 0.1104495 -0.54945004 -0.06168709 0.119041406 -0.26386863 0.011098959 -0.22835435 -0.35207203 0.40146527 0.2297462 -0.08838485 -0.1103238 -0.20538165 -0.12366365 -0.096009 -0.12282071 -0.78302693 -0.28933933 -0.011998301 0.77977484 0.009862746 -0.5708835 -0.12864934 0.5158263 0.18430519 -0.33734632 -0.3501643 -0.22631922 0.5069513 -0.03341445 0.36386788 -0.17209412 0.37140808 -0.7715126 0.08879877 0.17061539 -0.22197297 0.06244916 -0.103330046 0.20578617 0.009558001 0.31370082 0.71695775 -0.7703828 0.33332893 0.19291665 0.31908363 -0.080058835 -0.17062956 0.5338433 -0.029429901 0.20192164 0.22054394 0.1712933 0.35508776 0.1078656 -0.118519865 -0.46830708 -0.06546013 0.36279562 0.03283615 0.20703751 -0.14040084 -0.23857991 0.37977034 0.17802289 0.06729162 0.33730468 0.21595645 0.17214628 0.52235967 -0.4231794 0.6332112 -0.3671283 0.15553476 0.24307612 -0.03551239 -0.22642648 0.11385707 -0.13056938 0.708707 -0.85782075
prominence 0.015649667 0.00813812 0.12948729 -0.025230955 0.2574495 0.41229418 -0.12872367 0.03332985 -0.18297559 -0.24869853 -0.49010953 -0.16753475 -0.21968727 0.019774644 0.28800347 -0.77491546 0.2501424 -0.042093217 -0.04317845 -0.51400906 -0.15959977 -0.020034019 -0.5838665 0.34085315 -0.4511409 -0.41719246 0.24819314 0.4866435 0.3298334 -0.29718894 -0.15603016 -0.23561767 0.07933593 -0.18579258 -0.2546766 -0.06000522 -0.20370685 -0.39288434 0.25511202 -0.57788193 -0.046709273 0.004169763 -0.20086572 0.038121026 -0.13878524 -0.09450753 -0.01640993 0.40058124 0.023237478 0.13024245 0.3502017 -0.14289501 -0.19147414 0.34206942 0.1824775 -0.051449083 -0.21344179 -0.35751265 -0.09784654 0.13188812 0.20436579 -0.09768387 0.20555402 -0.2719973 0.30011216 -0.47414386 0.059744775 -0.05025353 -0.15106 -0.55438715 0.20939389 0.3717366 0.35991946 -0.18016675 -0.021757195 -0.014840744 0.3076441 0.59874636 -0.26147142 0.04098866 0.2671856 -0.027160894 0.095793374 0.35811767 0.3191851 0.1964175 -0.2031993 -0.005986499 0.06439854 -0.33452702 0.4055575 -0.27371138 -0.06088466 0.38678637 -0.033479124 0.043058805 0.20318772 -0.45705953 -0.08366118 0.00785565
bed 0.27123722 0.04996277 0.55958605 0.4266221 0.22548053 -0.33533847 -0.04846383 -0.12181976 0.39151794 0.13622104 0.09729401 -0.049648065 0.44739082 0.06401296 0.095822 -0.3151608 -8.4481924E-4 -0.82265544 -0.43038076 -0.24850436 -0.017348971 0.059910197 -0.047054615 -0.10171836 0.4601292 -0.15188964 0.23780751 0.42754903 -0.020184007 0.62675405 -0.030877788 0.08193357 0.47240347 0.05811511 -0.8236035 0.6081152 0.58139324 0.36666292 -0.09624393 -0.4410448 0.15137237 0.3002615 0.50440866 -0.520995 -0.034982443 0.50039697 0.14030407 0.38790414 0.0905725 0.25908917 0.27948296 0.3252343 0.32424706 0.22450823 -0.4080412 0.13632874 -0.05629024 0.44607002 0.318802 0.26121908 0.4972309 0.07147932 0.30882072 0.083837345 0.36955765 -0.5596325 -0.11480945 -0.19925502 0.17792124 0.19671032 0.17420079 0.23741567 0.23341045 0.010393654 -0.23860133 0.14409882 0.05124748 0.35381046 -0.17667176 0.16438983 0.7188841 -0.10926435 0.17515701 0.2050258 -0.2203325 0.03261479 -0.033726692 -0.33105212 -0.15938358 0.41449752 -0.022008402 -0.16980635 0.30162 0.18605536 -0.43828258 -0.13888085 -0.38320357 -0.072073735 0.6252758 -0.3160797
furnace -0.035696942 -0.18935771 0.09500026 0.015510533 -0.26185572 -0.40553924 -0.33110216 -0.14441489 0.27161005 0.044620454 -0.15891431 -0.09755166 0.538492 0.19672461 0.2489625 -0.82384545 -0.35164028 -0.4372511 -0.7071472 -0.368268 -0.20808573 -0.6191785 0.31290177 -0.22393687 0.091758214 -0.43306056 0.12794173 0.23656319 -0.06422358 0.34757525 -0.01741175 0.42139876 -0.24036047 -0.02780735 -0.43061712 0.55537057 0.7733461 0.036448944 -0.3771486 -0.10510629 -0.01245145 -0.3341339 0.23782612 -0.32257235 0.32741824 0.33302107 -0.02100061 0.239353 -0.047899902 -0.34517646 0.29353595 0.13240921 0.034645233 -0.41753468 -0.033744555 -0.02036034 -0.019796992 0.0110228425 0.27594584 0.073311225 0.7983127 0.20817088 0.5787523 0.21032661 -0.27727592 -0.6548948 -0.44232708 -0.2663957 0.1486431 -0.51573074 -0.2176874 0.047453653 -0.1241758 -0.08759515 -0.5829591 0.14931971 0.0032674645 0.28254673 0.024616016 0.11458271 0.08643015 0.3819368 0.2423006 0.40583077 0.1963253 0.4129828 -0.57943237 -0.10866702 -0.063910805 0.55628467 -0.1465923 -0.6631069 0.006681975 -0.16806367 0.2647861 -0.15589286 -0.29540598 0.4437967 0.3421402 0.32332572
evidence 0.072199926 0.041453246 0.06963524 -0.18968129 0.12719764 -0.093556404 0.23962258 0.13221443 0.22687617 0.09936298 -0.22702849 0.02954174 -0.02018357 0.057678428 0.6838162 -0.4212002 -0.5531841 -0.44947058 0.3103251 -0.23600213 -0.24696337 -0.31458583 0.31484845 0.1541767 0.08808249 -0.35328305 0.62912744 0.17279415 -0.37544066 -0.07330021 -0.07722886 -0.4408159 -0.38173133 -0.24404633 -0.52070576 -0.29539424 0.2751958 -0.40312082 0.12981322 -0.68443835 -0.21091199 -0.21340138 0.09786344 0.32066226 0.4218079 -0.22338577 -0.28065893 0.2886619 -0.061362952 0.42529193 -0.011209346 -0.10886494 0.0017684676 0.7887161 -0.11754803 0.15770502 -0.16253355 0.21674378 0.27591813 0.23305646 0.453799 -0.063301705 0.015225781 -0.19079615 0.5107281 -0.8331889 0.013198043 -0.18563792 -0.79043305 0.063399605 0.020121152 0.4745689 0.4282077 0.033512324 -0.18969317 0.18811227 -0.36270827 0.54298234 0.31920695 0.82474613 -0.090548426 0.09246688 0.45123392 -0.48649168 -0.23233168 0.19397405 0.3340633 -0.12119044 0.42395803 -0.07048531 -0.04380586 -0.60772574 -0.5403754 0.21259345 0.106105834 -0.64748335 0.12850639 0.17749557 0.21558017 -0.012576258
sprint -0.68161136 -0.2398241 -0.0740336 -0.08790825 -0.32826114 -0.3691215 0.230336 -0.61172235 -0.14991431 0.15617898 -0.05276469 -0.2823295 -0.44419596 -0.014512567 0.182549 0.16185988 0.115397304 -0.6867482 -0.2621418 -0.08204687 -0.6253666 -0.4073513 -0.8539678 -0.20546313 -0.0068507753 -0.48999858 -0.05508049 -0.02434775 -0.16509339 0.92251277 -0.6372782 0.12719142 0.39310506 -0.7418274 -0.17598544 -0.31596512 -0.18706597 -0.17570987 -0.17596775 -0.48483336 -0.9949925 -0.365077 -0.22391751 0.108845696 0.08904354 -0.54379183 0.11622438 0.4460127 -0.3615423 -0.024492051 0.5263865 -0.36589313 -0.0701092 0.005475264 -0.12857892 -0.3971048 -0.09908566 -0.5416302 0.035269227 0.07543131 -0.06725715 0.13417995 0.44571626 0.29795152 0.008207101 -0.48107332 0.14323293 -0.18706493 0.014346264 0.081686385 0.15519744 -0.2537241 0.16174863 -0.059079997 -0.49365482 -0.25261775 0.17403835 0.64499146 0.22964613 0.21492529 0.25486523 -0.025993617 0.6336632 0.31892642 -0.11233596 0.5770501 0.29626733 0.5097175 0.52407926 -0.2794272 -0.1422013 -0.46751896 0.005138493 -0.14995372 -0.13919912 -0.48588413 -0.48988122 -0.30604625 -0.5167942 -0.021194527
emergency -0.28650606 0.068449534 0.44939905 0.1305953 0.07844413 -0.068874724 -0.48334903 0.24657142 0.10721704 -0.0024958425 -0.602648 -0.23169692 0.04729583 0.15291984 0.1736308 0.21118708 0.19561134 -0.30843648 -0.38140568 0.21212623 -0.07026479 0.11154684 -0.14410517 0.27775446 0.27864483 -0.18532898 0.22666858 0.2160075 0.3971962 0.14520241 -0.44819653 0.4527297 -0.33262327 0.3209314 -0.51068306 -0.22020526 1.0087695 0.5596643 -0.62282 0.27427667 0.28175086 0.09427752 0.94673336 0.39469936 -0.01119018 -0.24937418 0.5604793 0.24363941 0.2628977 0.5661724 0.14022107 -0.63767076 -0.5741504 0.18509348 -0.14167923 -0.47593668 0.20847647 0.24188916 0.36722744 0.3066728 0.67813146 0.2767942 -0.17801985 0.05756092 0.026531633 0.018851902 -0.04499883 -0.11105008 -0.21351486 0.044644333 0.2757978 -0.09131308 0.19606264 -0.16214311 0.27885985 0.4442784 -0.060496945 0.40423146 0.009225472 0.4446722 0.07275072 0.34160814 0.26752898 0.2653526 -0.30408612 -0.56740355 -0.51950467 0.24649328 -0.3593797 0.16307692 0.06993214 -0.59645385 0.15701997 -0.1421037 0.13822734 -0.010817659 0.35646418 -0.46003553 0.6222659 0.046644088
Jackson -0.28515247 -0.08501561 0.04814691 -0.3181292 0.080021806 0.035845056 -0.38891628 -0.030509502 -0.09095573 0.18326789 0.43500683 -0.21075922 -0.60461843 0.19544981 -0.3591599 -0.14796388 0.20728087 -0.28860918 -0.23834722 -0.0486749 0.08135994 0.5167253 -0.26332104 -0.33156475 0.11481816 -0.20014052 0.6719865 -0.029394884 0.0669686 0.10555367 -0.37861875 -0.124128714 -0.028789371 -0.0084255515 -0.5954302 0.8078956 0.21764585 0.010845584 -0.51558363 -0.18010244 -0.2144715 0.52291846 0.24005792 0.17156419 0.16107859 -0.27545017 0.10054433 0.20111635 0.44523463 0.94286877 0.32876024 -0.8458949 -0.15793297 0.6582654 0.3651428 -0.2035073 0.12675315 -0.18523672 -0.30343992 0.2103128 0.44715315 -0.13085231 -0.50343144 -0.24179685 0.43806887 -0.8082906 0.013324401 -0.17355758 -0.07993674 -0.45828456 0.5492206 0.48631158 0.6280541 0.24374034 -0.22007713 -0.17710641 -0.15883474 -0.044165082 0.16486184 -0.09545566 -0.24753962 -0.1886602 0.6561784 0.20611173 0.23854123 0.04757354 -0.11231194 -0.26318434 -0.26884493 -0.3151607 -0.4804218 -0.54573256 -0.6792924 -0.06313443 -0.19347101 0.39660633 -0.6133332 -0.76243997 0.05178045 -0.3073983
institution -0.8060857 -0.4194561 -0.03398564 -0.25518858 0.045352895 0.066733964 -0.2547245 -0.19396079 0.054248072 -0.43049428 -0.95611113 -0.21138728 0.2717986 0.08267185 0.29345232 -0.3789992 0.09702145 -0.38932204 -0.0067065144 -0.21294254 -3.7036033E-4 0.48266914 -0.15962154 -0.3486333 -0.08575659 -0.048756406 0.43268204 -0.09579613 -0.3029891 0.5014445 0.26215547 -0.24359797 -0.03275874 0.18649527 -0.416036 -0.24760132 7.8675227E-4 -0.1676672 0.12364952 0.15759486 0.41564405 0.3508805 0.41029233 -0.2804809 0.345758 -0.42246217 0.09729629 0.6495961 -0.2109734 0.3852141 0.3891827 -0.034302063 -0.30923465 0.2679755 -0.1304043 0.08640339 0.009353695 0.10945015 -0.18639502 0.2199029 0.53767645 0.06500473 0.036584117 0.06116148 0.2663334 0.2528686 -0.34578398 -0.061575342 -0.24848391 0.027558077 0.070770174 0.06278158 0.37448514 -0.20053351 0.086971566 0.5614002 -0.24859133 0.29530722 0.03986792 -0.36539784 -0.07004697 0.21780053 0.11897755 -0.13968217 0.011936305 0.15009847 -0.24800415 0.08903525 0.02760326 -0.25298166 0.12804922 -0.34556887 0.19739765 0.16201377 -0.10152048 0.36356115 0.5877099 -0.42657697 0.17941697 0.3974003
bird 0.23480551 -0.20188011 0.41307828 0.07144559 0.1814023 -0.70365036 -0.055360638 0.15685236 -0.35165834 -0.1997637 -1.1286885 -0.089533396 -0.026430368 0.52676135 -0.30333945 -0.3084838 0.30446368 -0.519641 -0.45292133 0.12559041 -0.976819 -0.5300263 -0.12651657 0.13691035 0.13412116 -0.014711635 0.07158544 -0.20783381 0.46349493 0.23287956 -0.067759335 0.23901026 -0.26304212 -0.12937246 -0.32770118 0.0054325354 -0.10665013 -0.04737985 -0.5899544 -0.43405837 -0.32917398 0.6001266 0.6085115 0.26523095 0.042237233 0.28315347 -0.15689023 0.18553594 0.12963195 -0.64804125 -0.18087883 -0.16744967 0.3264117 0.59956384 -0.29699725 0.2629431 -0.07613754 -0.3758925 0.6177751 0.22834156 0.14503431 -0.10681207 0.76553565 0.15109849 0.29962793 -0.2883492 -0.0108959405 0.0093227895 -0.1179969 0.07235175 -0.43976006 0.18244939 -0.49797732 -0.13564305 -0.47038582 0.29631427 0.13938333 0.731263 0.24211149 0.39512536 0.057745766 -0.3746842 0.4809948 0.02980244 -0.065379515 -0.021683136 0.17763157 -0.5052322 0.59718716 0.63096374 -0.5420655 -0.8980485 0.16081546 0.46935916 0.1760167 0.4157622 -0.39872336 -0.44423184 -0.07597493 -0.09900832
Brazil -0.113008864 0.27377602 0.0023035533 -0.014438146 0.6603452 -0.39308298 -0.9144076 -0.17061186 -0.43039694 -0.45077485 -0.5233792 -0.12486783 -0.2513113 0.34343022 0.49622244 -0.24232773 0.046897184 -0.107458316 -0.06897085 -0.26991332 -0.4009562 0.71706015 -0.73401874 0.0128708575 0.51870066 0.037804868 -0.30115613 0.3058533 -0.3614305 -0.19450563 -0.6166093 0.5545348 0.05654027 -0.078076154 -0.18682832 0.33976883 -0.12338804 0.031156842 0.26165655 0.16465797 -0.37853375 -0.33932197 -0.087467276 0.23876537 -0.4022414 0.051282298 0.23923053 0.19106784 0.014614902 0.038958702 0.20484634 -0.14438769 -0.06673097 0.41915524 -0.064191476 0.107874334 0.045508772 0.43515527 -0.31526423 0.16218446 0.642304 0.06886517 0.052117318 -0.026800688 0.10448943 -0.5486051 -0.25263566 0.18917656 0.08211382 -0.4378563 0.17529224 0.012183669 0.0822838 0.37179154 -0.6404661 -0.4736945 0.44150293 0.57272726 0.26006535 0.21333684 -0.31006998 -0.09596253 -0.2552543 0.027891075 0.2210802 0.720036 -0.12136093 0.7696353 0.09322185 -0.46357924 0.14229298 -0.8136573 0.17864169 0.043639574 0.30461115 -0.22556217 -0.2070054 -0.4315515 -0.22256693 -0.008438424
warning -0.28071463 0.34559855 0.2790673 0.20396061 -0.6624986 0.17061052 0.29828846 -0.119342186 0.17937824 0.16049296 -0.048276942 0.3039027 0.253036 0.42718327 0.47710383 0.06809897 -0.10300863 -0.18947056 0.049080145 0.015366135 -0.44493994 0.110086225 0.056499317 0.022672243 0.1703668 -0.18632062 0.53501356 0.3752119 0.16184479 -0.078302674 0.029684057 0.16032802 -0.5192001 -0.1877694 -0.1411334 0.12580514 0.33302128 0.07928197 -0.22524635 0.0996481 0.11065988 0.38802135 0.44254023 0.18057553 -0.53944755 -0.063602775 -0.08357511 0.30730727 0.20824051 0.03504519 0.21664742 0.12279197 -0.6947367 0.2953821 -0.13590318 -0.24089257 0.0022234218 0.42464384 0.45590216 0.10922005 0.48809513 -0.41487074 0.41128266 0.06772707 -0.043171693 0.12932558 -0.25683573 0.08530838 -0.28496167 -0.38669202 -0.46012345 0.119727105 -0.13634157 -0.22850683 0.06430244 0.71657693 -0.007861176 0.48958182 -0.27471673 0.88595873 0.28652814 0.09842771 0.19864859 0.08636298 0.1659611 -0.017443642 -0.05793584 0.37507275 0.6822497 -0.16750917 -0.6168955 -0.3682275 0.43448108 0.4093682 0.38375938 -0.5388361 0.4633718 -0.15581608 0.17389268 -0.114531174
implement -0.16948697 -0.22287835 0.23632133 -0.40477777 0.012597278 0.46987286 -0.30101937 0.02193132 0.43983796 0.126935 -0.39027786 -0.27170107 0.070970826 0.052293114 0.8716591 -0.37624806 -0.24811289 -0.23783961 -0.13929825 0.33144572 0.66281086 0.19840787 -0.019647693 0.42521077 0.45191342 0.017361319 0.122578986 -0.5970521 -0.018681176 0.3592134 -0.21599078 0.5477483 0.16181104 0.66040105 -0.2305634 -0.24869928 -0.1762672 -6.619192E-4 -0.15983486 -0.10689282 -0.118848614 0.18584156 0.5520814 -0.2369465 0.4933211 -0.1462476 0.0045248307 0.30561167 -0.35042226 -0.4244322 0.02986806 -0.5488065 -0.12515461 0.14043568 -0.13203415 -0.22442898 0.18612632 -0.26583594 0.29843533 -0.15083703 0.5255603 -0.35016635 -0.3892472 0.42262244 -0.13925901 0.29554516 -0.66705555 0.09956687 -0.40737584 -0.23257484 -0.271038 0.036343027 0.5130805 0.07309512 0.035791792 0.07040799 0.48858145 0.65127456 -0.25620207 0.46845937 -0.06598629 0.5617726 0.3172247 0.314544 -0.38132834 -0.0911811 -0.21073572 0.35278356 0.4024999 -0.1604577 -0.03379637 -0.26618835 0.1589023 -0.17171009 0.26778734 -0.030824007 0.37071523 -0.2729355 0.2752547 -0.20735805
train -0.44222984 0.19916268 0.59346426 0.43794686 -0.008805164 -0.14065371 0.10845896 -0.5111155 0.32207382 0.12478958 -0.22897592 0.54777575 -0.23329611 -0.043001305 0.084064126 -0.089961626 -0.17625143 -0.8543036 -0.7317583 -0.4633584 -0.15262881 -0.22416247 -0.27887318 0.036858395 -0.015494041 0.09699155 0.21065222 0.80322605 0.6931214 0.1578339 -0.25679868 0.33086655 0.28913027 -0.5008815 -0.32813543 -0.5037182 0.29210618 0.25522116 -0.29428065 0.30217576 -0.19524282 -0.027550595 0.61773187 -0.08899183 0.5121054 0.37762415 0.65712 0.19360405 -0.7099317 -0.14843518 -0.1551742 0.2005693 -0.034625456 -0.26277688 -0.051702023 -0.1857689 0.11963767 -0.3386434 -0.264445 0.26466957 0.4310134 -0.051096424 0.043121196 -0.060155436 0.4408413 -0.10846496 0.25426373 -0.14528121 0.14133725 -0.17961235 -0.16323905 0.036492165 0.5053932 -0.16101544 0.006149213 0.6173508 0.0882024 0.24296519 0.11672084 0.23280318 0.16906334 0.48625433 0.1913871 -0.36975583 -0.29632556 0.1593233 -0.32716578 0.62009674 0.45026574 -0.2845749 0.009407243 -0.32714516 0.3194274 -0.12880358 0.27287036 0.0068301633 -0.27116796 -0.04235823 0.04079811 -0.30880448
area -0.6751208 -0.28484726 0.28665957 -0.09341054 -0.14415082 -0.20974779 -0.4387158 -0.10749209 -0.040627852 0.096449696 -0.43459958 0.23663925 -0.124299526 0.14405526 0.15208912 -0.38365096 -0.31160125 -0.28186437 -0.601959 -0.35312268 -0.14987493 0.024146914 0.16929182 0.32488045 -0.038643643 -0.3463358 0.049669128 -0.104288995 -0.023189783 0.17344108 -0.42386112 0.048599515 -0.045317154 0.05267417 -0.66613007 0.14267494 0.23301895 0.17006479 -0.14761847 -0.08117597 -0.33980417 0.29960924 0.40339652 0.2403345 0.19827497 0.09358454 -0.02662953 -0.119125046 -0.5178652 -0.47417617 0.09343569 0.23496802 0.19459264 0.6386353 -0.49004963 0.15047295 -0.37570742 0.28526506 0.058739323 -0.021187812 0.411948 0.26510084 0.13590759 -0.36280823 0.32693106 -0.27315852 0.03285271 0.05336041 -0.1348702 -0.037916172 0.07693924 0.26812857 -0.07885716 -0.28088042 0.3175176 0.1483436 -0.12688226 0.45592198 0.26985538 0.09675247 0.102681145 0.15626864 0.2939336 -0.137076 0.4110833 -0.4106963 -0.3673286 0.17071782 0.17088409 -0.2203738 -0.30387163 -0.24732344 0.12103235 -0.15076205 0.14002924 0.05879771 -0.31603783 -0.29415917 0.2007498 -0.024890553
image 0.03836817 -0.014335502 0.10082715 -0.12579542 -0.59616846 -0.06727162 0.1492532 0.050342582 -0.25733343 0.034308244 -0.79931045 -0.648615 0.29166517 0.49046278 0.36421618 -0.096354716 -0.10687131 -0.08575071 -0.52002585 -0.22463153 -0.201479 0.09760937 -0.024166211 0.27754602 -0.2640401 -0.2713373 0.4510151 0.71592003 -0.218524 0.44343224 0.22979699 -0.4887724 -0.4490648 0.39371973 -0.19180013 -0.423878 -0.35624412 -0.16441263 -0.16062464 0.034119673 -0.47021988 0.5175915 0.26560134 -0.296756 0.010806601 0.17917593 -0.20322825 0.15063964 -0.3199268 -0.24058655 0.55596906 0.16214076 0.069157 0.2756744 0.21464285 -0.013473084 0.26085255 -0.17029272 0.060282815 0.4200567 0.52936566 -0.12936962 0.23738189 0.106143825 0.20253646 -0.019330248 -0.48143536 0.11168658 -0.4933145 -0.13368255 0.3233088 0.38599887 -0.024573946 0.14736855 -0.5332248 0.18775564 0.58356154 0.15052944 -0.152 -0.2344918 0.24034528 -0.23385215 0.49703848 0.2653459 0.17661692 0.21372074 -0.053033445 0.01009881 0.5817453 -0.0029062312 0.16490977 -0.27688116 0.27805156 0.2708701 0.2019372 -0.36704573 -0.32612014 -0.105593495 0.21933515 -0.005887741
murder -0.5564365 0.07929824 -0.05818952 -0.04622118 0.046121337 -0.32336944 -0.26660135 0.15520884 0.77768695 0.06462799 -0.35151747 0.1793354 -0.008119044 0.0469682 0.67385 -0.60318667 -0.0753214 0.18342939 -0.6435145 -0.47614434 0.46949342 -0.19085798 -0.60903436 -0.08677199 -0.6817135 0.3036805 0.6802958 0.20527138 -0.37097907 0.075004205 0.109231815 -0.119089074 0.1720418 0.015197406 -0.9784494 -0.25287974 0.21365023 -0.3470991 -0.30056837 -0.27877045 -0.18221702 0.50944316 -0.046750743 0.35014737 0.113850065 -0.24829641 0.17518742 0.71489656 -0.3227802 0.7732131 -0.82682884 -0.04901974 0.39516166 -0.17219782 -0.58919644 -0.015956298 -0.3454594 -0.094270535 -0.042961564 0.19192533 0.6927277 0.10412111 0.48867813 0.028284995 0.37515643 -0.22805528 0.58221775 0.47004193 -0.2133865 -0.20828468 0.5648748 0.20525539 0.75013065 -0.20202579 -0.75129974 0.38901958 -0.68084294 0.7403843 0.20224397 -0.014171955 -0.14567426 -0.2224325 0.36604536 0.22842984 -0.4083152 0.24246542 0.6971185 -0.029436193 0.44284645 -0.3413139 0.053975854 -0.1038914 -0.31322291 0.22602738 0.7048652 0.060629185 -0.51594144 0.05894815 0.48212102 -0.051687375
journey -0.14767693 -0.114012614 0.025832804 -0.008265848 0.035755787 0.029821485 -0.00485885 -0.15140666 0.4433759 0.031808797 0.12508614 0.14745398 -0.21284494 -0.02501438 0.14834414 0.011567006 0.22736113 -0.6077633 -0.28928986 0.10386954 -0.33551377 -0.20905972 -0.6930159 0.43882868 -0.7446463 0.088788934 0.347844 0.79116964 0.24450524 0.4009523 -0.31824192 0.33024946 0.2669942 -0.16018912 -0.5931474 -0.18135202 -0.094678394 0.18976746 -0.502957 -0.113488376 -0.26919833 0.22316681 0.18568641 -0.05333105 0.44413117 0.52985007 0.30645615 0.506856 -0.016566614 -0.01187853 0.6422136 -0.23472439 0.56184566 -0.04163146 -0.2618135 0.010701576 -0.19449928 0.08633625 -0.4230424 -0.20333974 0.51624775 0.2211157 0.1829097 0.020421976 0.3570833 0.26675758 -0.480305 0.07403944 0.051733952 0.20119108 -0.26757652 0.11385073 0.17591724 0.47422633 -0.09418196 0.5809622 0.15783247 0.34059277 0.17642878 -0.06834529 0.31651312 0.5685642 0.4889247 0.122572385 -0.20554195 0.48975325 -0.13429694 0.30759117 0.32299128 -0.25499827 -0.21876705 0.02001891 0.42717177 -0.1985848 0.8425053 -0.13048461 -0.9111037 0.23119617 -0.0090469485 -0.49197185
minister 0.39452744 -0.44501597 -0.16444841 -0.12375735 0.866034 -0.31036288 0.27315485 -0.14595442 0.39731807 0.1232992 -0.55099434 -0.2868995 -0.3476861 0.8886443 0.52979136 -0.30888364 0.033832066 0.117684916 -0.3592413 -0.3945051 0.15536718 -0.18489325 -0.38961205 -0.1276948 -0.11851078 -0.20945059 0.39863703 -0.2401098 0.25264856 0.091514714 -0.66132283 0.13682155 -0.18777467 0.37698603 -0.8700404 -0.084277846 -0.47114956 0.06854161 0.39851266 -0.22904731 0.7152496 0.0857658 0.08842708 -0.21006122 -0.49700642 -0.33821192 0.6942882 0.60513127 -0.16322906 -0.05429651 -0.5572863 -0.3333858 0.04038165 0.056665458 0.3445316 -0.4046967 0.117132984 0.6844563 0.24260587 -0.08367679 0.2441748 -0.22360553 0.08744575 -0.0696071 0.06657349 0.052573375 -0.5288435 -0.13323504 -0.47029662 -0.79964745 0.027900267 1.2714056 0.2685516 0.01117744 -0.16787755 -0.21802606 -0.64771736 0.9997956 0.1425399 0.21428965 0.55610037 0.37155536 -0.1747345 0.38453075 0.08820447 -0.09302789 -0.13782929 0.13241993 -0.07012961 0.005185406 0.20921385 -0.21464111 0.27060574 -0.32135466 -0.21050672 -0.53287923 0.26264694 -0.18682729 0.15912357 -0.2527575
planet 0.60528547 0.48243898 0.38595244 -0.26649478 0.23570988 -0.25547576 -0.17062594 -0.067180514 -0.4461436 0.05114924 -0.5975782 -0.103511155 0.18871747 -0.22875115 0.2895935 -0.2192433 -0.4782866 -0.6761197 -0.257011 -0.13716523 -0.3365311 -0.11457672 -0.39557427 0.20476191 -0.33498284 -0.4493456 0.5593906 -0.13565537 -0.5732627 0.45983928 0.23654369 0.39255646 -0.108831696 -0.24973187 -0.22372833 0.4266234 -0.12969135 -0.5503421 -0.14827633 -0.2690856 0.016867375 -0.4156427 0.7223361 0.16605876 0.20938884 0.36900008 -0.04921184 0.75570476 -0.36141703 -0.10308477 0.2117411 -0.038386624 0.07219516 0.89278334 -0.06318454 0.06120294 0.23193803 0.31115127 0.15889326 0.09000309 0.35195914 0.21658361 0.47190922 -0.08987361 0.25374463 -0.101175286 -0.592313 -0.18812272 -0.11248777 0.22631532 -5.207815E-4 0.44532877 0.21186721 0.6189886 -0.51670706 0.2954312 -0.118747674 -0.154381 0.08790833 -0.4302068 0.40189663 0.17194675 0.05933568 -0.10381623 0.0751802 0.43248537 0.2724809 0.26001677 0.7596358 0.3671062 -0.20903195 -0.676898 0.71631444 -0.30051097 0.3577064 0.34140596 -0.6536101 -0.2990823 -0.06440109 0.009667814
article -0.20623915 -0.030002674 0.274573 -0.45158917 -0.06753121 0.75935805 0.29263335 0.010517131 -0.5000651 0.16240457 -0.20541814 0.28380308 -0.0933475 0.11820615 0.5229238 0.0088605415 -0.18491177 -0.9712007 -0.414564 -0.40124723 -0.11744824 0.36753145 -0.71213204 -0.22948056 -0.017203676 -0.057995968 0.98710686 0.032530807 -0.08604399 0.15395766 0.65539056 0.5438195 -0.9761032 0.25433215 -0.7140211 -0.19413774 -0.094479896 -0.09884264 -0.474333 -0.43577847 0.09332834 0.13647138 -0.2801145 -0.5427293 0.44496173 -0.49601862 -0.0982416 0.35203865 0.4433677 -0.20237459 -0.08393057 0.37866154 0.15136118 -0.07079687 -0.45669624 0.105686 -1.1474613 -1.0643266 -0.12942608 0.8125826 0.6228159 -0.5273826 1.066636 0.37733212 0.75262475 -0.17529169 -0.6426412 0.19280249 0.21080126 0.6645789 -0.296123 0.22221771 -0.07930419 0.10879307 -0.7909727 -0.030648641 -0.4024932 0.51242226 0.57314056 0.15499382 0.04809542 0.2662875 0.52293867 0.277316 0.12570104 -0.56768113 0.1756557 0.09879729 0.5771285 -0.3370482 0.7532599 0.09047813 -0.0031542452 0.07333079 0.055543963 0.077902555 0.34493887 -0.58461607 0.30778977 -0.48816997
anxiety 0.11956847 0.12165191 -0.2799066 -0.18711491 0.13146554 -0.3832305 0.5179133 0.1274521 0.04365245 -0.05171487 -0.33526623 0.53795046 0.0644818 -0.32757634 0.40657473 -0.47138935 0.5365731 -0.7093254 -0.36101517 -0.3030155 -0.4295605 -0.052193124 0.5617015 0.157096 0.04899053 0.4961381 0.5369009 0.57530606 -0.080411725 -0.1001504 -0.19900855 0.0060402025 -0.27144745 0.37075487 -0.56437594 0.0075732106 -0.06992269 -0.030270716 0.005553209 -0.035973605 0.0782865 0.10459798 0.11366306 -0.5119075 -0.03108679 -0.025119228 -0.4587826 0.119164936 0.5656011 0.679207 0.9657785 0.19761513 -0.2375834 0.34897912 -0.1665036 0.3196722 0.19583361 -0.18347123 0.60309035 -0.21239868 0.6265023 0.08325908 -0.041854765 -0.080339804 0.46363574 -0.5920627 0.14015982 -0.59530145 -0.4825787 -0.4699279 0.25388438 0.19163315 0.36267298 -0.39592084 0.49110472 0.24177776 -0.053111997 0.35030794 0.35077822 0.35326847 0.48640302 0.285778 0.16222742 0.07202914 0.16067347 0.27957895 0.079587035 -0.009777188 0.60795766 -0.35871783 0.0026350643 -0.25103346 0.6006008 0.3765645 -0.04654215 -0.11507412 -0.09700467 -0.48744795 -0.06632047 -0.20626326
month -0.23690021 -0.33711025 -0.10630249 -0.114891954 -0.15273893 0.2705044 -0.006539341 -0.0070834006 0.060656194 -0.30890292 -0.15461458 -0.17441998 0.0821384 0.0096911155 0.16253388 0.1096307 0.060914148 0.07923392 0.077511266 -0.462158 -0.07881435 -0.21046185 -0.39475018 0.21801744 0.0015648763 -0.34825614 0.30040032 0.10084817 -0.04532429 -0.2826537 0.17554657 0.6986467 0.32820156 -0.17500693 -0.3613179 -0.07689286 0.24499404 -0.06977923 -0.013785689 0.08302586 -0.5056408 0.40897176 0.15688884 -0.21306904 0.02045031 -0.34529734 -0.13041887 0.5034684 0.3877286 -0.21450756 0.24666256 -0.19508755 3.097137E-4 0.24314255 -0.06405701 0.3263833 0.19889486 0.45059308 0.4180759 0.4861416 0.0967628 0.2512445 0.5558382 -0.03640265 0.15017007 -0.026920503 -0.08794705 0.20379405 -0.40780967 -0.39997122 -0.022030992 0.4710976 0.13917841 -0.2379631 -0.14190403 0.23596318 -0.108153075 0.42284733 -0.05200601 0.5941174 -0.062413193 0.039349407 0.12631448 -0.09493674 0.13277966 0.033613406 -0.29887605 0.9749274 -0.14216287 0.09910194 -0.1866832 0.024769196 0.048162755 -0.0674465 -0.23837028 0.16339955 0.19235711 -0.47446215 0.20364074 -0.70736074
carnivore 0.15031587 -0.03381737 0.063205995 -0.055351708 0.097531185 -0.30606022 -0.2002843 -0.17789441 0.1038036 -0.3512469 -0.5289532 0.048204705 0.09590813 0.3498944 0.09426805 -0.8307147 0.087811984 -0.03160238 -0.11786629 -0.37841773 -0.5465818 -0.05269824 -0.3706927 0.10609259 -0.23120628 0.32050568 0.38548455 0.032835014 0.01871047 0.28937885 -9.74832E-4 0.1138155 -0.2157139 -0.16200094 -0.15775444 0.34124276 0.30721667 -0.42423612 -0.26607683 -0.2221203 -0.28545633 0.34713084 0.19268227 -0.24924493 0.21838388 0.27759084 -0.10805165 0.12557401 -0.012695282 -0.18524131 0.21493307 -0.04035204 -0.067414 0.509849 -0.07941033 0.2597339 0.18274797 -0.19294377 0.287694 0.20985138 0.41626722 -0.047450334 0.37458327 0.01951177 0.48158646 -0.45850202 -0.16250665 -0.43899918 -0.1206585 -0.2024567 0.08249194 -0.030635979 0.34720632 0.463778 -0.28647363 0.24009104 0.23400941 0.45659408 0.1480194 -0.16571651 0.12472014 -0.22731408 0.10292045 -0.19102727 0.22094023 0.024777912 0.03521283 0.07847271 0.46712452 0.046966616 -0.32982355 -0.6675509 0.18220446 0.49689338 0.28240556 -0.07050585 -0.49117362 -0.13465105 -0.0018334773 0.34943444
party -0.023208985 -0.45116982 -0.107200615 0.023226095 0.06581996 -0.081759386 0.41540283 -0.5683392 0.30994698 -0.12980996 -0.25671235 -0.49149987 0.038329545 -0.12448292 0.13195446 -0.16391855 0.16002691 0.2305216 -0.555553 -0.49281004 -0.039398916 0.019014636 -0.28589144 0.56034684 -0.0074019954 0.11963828 0.90705633 -0.3656763 0.27815354 0.43952432 -0.37491226 0.48597372 -0.026825836 0.03288852 -1.0485146 -0.6531663 -0.06855304 -0.4090679 0.019462468 -0.34541884 -0.19317666 -0.043595944 0.095758356 -0.35555357 -0.0013564349 0.25410628 0.34625748 0.23934752 -0.021957215 -0.23133454 -0.03414235 -0.04259186 -0.46762034 0.52085584 -0.1336801 -0.08143167 0.117810674 0.07572415 -0.34330204 0.018114917 0.06093309 -0.04192535 -0.15488777 0.10198185 0.07996899 -0.015682478 -0.0047753076 -0.07703492 -0.15463854 -0.5605722 0.28171238 0.23768836 0.5661957 -0.13675816 -0.4032903 0.20452578 -0.20108701 0.4155712 0.16466923 -0.2672962 0.34957108 -0.12810135 -0.5695006 0.09140066 0.16418354 0.13487731 -0.2275578 0.09452865 -0.2660925 0.2732203 0.16578823 -0.2743887 0.2954319 0.07189694 -0.09844579 -0.51875126 0.21206522 -0.4221387 0.4585505 -0.082401074
production -0.111911885 -0.23269485 0.18197659 -0.12366461 0.25118476 -0.23930672 -0.584668 -0.5362502 0.23788011 -0.70362157 0.17610946 0.4491653 -0.23355629 -0.23989806 0.1019502 -1.0124211 -0.53508794 -0.20365623 0.2020504 -0.7595743 -0.20557089 -0.18300408 -0.048932165 0.28087416 -0.21441083 0.12661363 0.03701561 -0.09589875 -0.338143 0.07227725 -0.09667675 0.44748273 0.07595224 -2.7889226E-4 0.11508304 0.056865677 0.22826357 -0.01924403 0.014057573 -0.3285395 -0.1442312 0.015758114 0.06494946 0.00600294 -0.3335963 -0.075847186 -0.034404404 0.45269725 -0.22479157 0.1404077 0.20139179 -0.18835902 -0.033518992 -0.12851645 0.44308904 -0.22136235 0.33285794 -0.5248817 0.5133378 0.15153567 0.52917916 -0.2834939 0.01302706 -0.10422539 0.19300598 -0.053869057 -0.47329402 0.27993533 -0.33119902 -0.21501529 -0.14917234 0.059167508 -0.32784688 -0.18085313 -0.7189164 -0.077314645 0.13893157 0.24493593 -0.5000421 0.44819868 0.04835688 0.65003175 0.25775388 0.39479092 0.30834013 0.40549812 -0.63755643 -0.099181235 -0.093302675 -0.027410412 0.19337116 -0.4005822 -0.06460158 -0.07815485 0.39483404 0.021176642 -0.8111552 0.098419175 0.09299065 -0.7715595
importance 0.031705353 -0.27941522 0.25225598 -0.330405 0.5670925 0.13837823 0.20605865 -0.091401346 -0.029984338 -0.33819348 -0.751882 -0.0870005 0.06248915 0.2401283 0.35906368 -0.22784205 -0.100838624 -0.30596858 0.21814387 -0.2095466 -0.18503095 0.011003658 -0.08616375 0.33263904 -0.2802342 -0.05706094 0.61684173 -0.035786696 -0.3769678 0.25038192 -0.39295 -0.37383106 -0.24742682 0.3066923 -0.13962558 -0.32655832 -0.48612234 -6.1780727E-4 -0.16191481 0.040719658 -0.034215696 0.26341012 0.1301439 0.18437181 0.24909365 0.15634607 -0.26086816 0.038983095 0.39875552 0.15548193 0.59146166 0.18627393 0.08865206 0.4548536 -0.17509772 0.12818182 -0.48797214 -0.15888615 -0.05929554 -0.10621107 0.6480609 -0.39149904 0.18768768 -0.09351292 0.06121354 -0.2717204 -0.400238 -0.13104759 -0.73422146 -0.42098752 0.05362718 0.2023231 0.40410104 -0.105206825 0.14297295 -0.07137785 0.52247447 0.48300216 0.07096501 0.007385637 0.08220456 0.7015159 0.40967864 -0.33261785 0.24233407 0.12062821 0.014231367 0.16224101 0.20831686 -0.045574524 0.27620226 -0.4459965 0.29154614 0.015796036 -0.009224965 -0.29849973 0.3537786 -0.031848732 -0.13328272 -0.24211127
inmate -0.546226 0.19438046 0.12991783 -0.12258862 -0.09716386 -0.5001209 0.13855907 -0.15055484 1.002035 -0.59297264 -0.45001382 0.009116697 -0.05659316 0.275288 -0.43779907 -0.16676612 -0.22242956 -0.26125923 -0.12721415 0.06716986 -0.019510591 -0.37180468 -0.10447365 -0.50956154 -0.1124829 -0.34713086 0.49660528 0.15231755 -0.076211326 0.3153233 0.16205329 -0.103562824 -0.014216705 0.10896807 -0.58564365 0.44347778 0.29211056 -0.26893383 -0.46771958 -0.30346292 -0.3042653 0.54159373 -0.34477562 -0.05035533 -0.004825027 -0.45207304 0.3983521 0.9381482 0.07191785 0.86153454 -0.6393482 -0.07198348 -0.33987722 -0.1472953 -0.7254705 0.0063069165 0.14322644 -0.30577198 0.2751531 0.10246179 0.7230908 0.34107792 -0.052894667 -0.45578796 0.5395107 0.17517322 0.016400171 -0.11930702 -0.040690575 -0.13722648 0.2890192 0.46963993 -0.0026826733 0.07939323 -0.24278013 0.031226378 -0.19146673 0.7697027 0.025140401 0.34091747 -0.16091472 -0.59319437 0.5953549 0.20459469 -0.09787904 -0.5008206 0.38844275 -0.15638594 -0.19346747 -0.13920914 0.36531663 -0.101496466 0.37690157 0.11854345 -0.1339423 0.14632061 -0.61005163 -0.8665588 0.6066833 -0.09830517
Harvard -0.3918603 0.4030932 -0.18061699 0.083002746 0.73114264 0.31586054 0.8060493 -0.18224634 0.061446182 -0.1608279 -0.7712973 0.030804334 -0.35446772 0.22894864 0.05247782 -0.8779001 0.33623448 -0.70889103 0.27236816 -0.03192343 -0.13752894 0.0076753097 -0.43885815 -0.35488585 0.03897501 -0.4594647 0.4834414 0.35461432 -0.50029945 -0.39933464 -0.17187509 -0.45637348 0.17149805 0.33360472 -0.6851212 0.03516904 -0.29842648 -0.101830296 -0.16054273 -0.22259365 0.14183305 0.2961329 0.10468847 -0.18942285 0.3941476 -0.77694505 0.4283605 1.0549912 0.31114715 0.6699504 -0.21316522 -0.12809555 -0.55155325 -0.14143144 -0.21029477 -0.27312392 -0.20217815 -0.23266074 -0.10560517 0.25515255 0.13090356 -0.7634367 0.48278412 0.2377598 -0.018214326 -0.097841196 -0.1979095 0.12355927 0.16966428 0.047033582 -0.15948953 0.02107501 0.49407095 -0.14494494 0.21228293 0.36145484 -0.23091835 -0.3306238 0.37778622 -0.09335793 -0.00823823 0.05887292 -0.09378712 -0.1277727 0.27371123 -0.37909567 -0.3204464 0.018232847 0.36105835 -0.1709854 0.27401432 -0.31550243 -0.07622438 -0.31101543 -0.23175362 0.07923735 -0.59686345 -1.0995369 -0.087205514 0.41766143
psychology -0.4601605 -0.039711088 -0.3885492 -0.4700112 0.41149634 0.1407143 0.66857404 0.14434886 0.7512783 -0.18604958 -0.6015887 0.29445517 -0.4503752 0.034937922 0.03214039 -0.79435307 -0.20743929 -0.8609724 0.23228016 0.010712383 -0.13372518 -0.23500647 -0.13921411 -0.1288275 -0.22514984 0.0376506 0.18819761 0.08942225 -0.24184634 0.15124041 -0.13704935 -0.6116511 -0.2858826 0.28308904 -0.5279594 0.20244546 -0.26519057 -0.055610843 0.2499542 -0.602445 0.47371057 0.56788164 0.098645836 -0.50891995 0.56642175 -0.39523658 0.31389534 0.7998897 -0.16346164 1.0025656 0.6764895 -0.15767604 -0.41694286 0.08016754 -0.2337264 0.38027903 -0.22298327 -0.06773102 0.6031419 0.29470497 0.2684269 -0.30247146 0.06329933 -0.05203624 0.60613346 -0.41628665 -0.18526436 -0.117276765 -0.30684456 0.2768041 0.16159414 0.26915982 0.48198706 -0.26507518 0.10323957 0.1126394 -0.2081933 -0.41194743 0.25936967 0.027514666 0.29360613 0.19981658 0.4983979 0.032988716 0.21466118 -0.26854372 0.12669931 0.0913319 0.52878344 -0.52181005 0.055589944 -0.20188528 0.097723 0.78846526 0.10073336 -0.12737542 -0.40157735 -0.6509221 -0.26566583 0.30706483
medal -0.30446592 0.038237847 -0.049008723 -0.28898057 -0.7635849 -0.48388568 -0.006975802 -0.73976266 0.07112041 0.0070496723 -0.40020052 -0.4963198 -0.33375037 0.43574327 0.74544454 -0.11534021 0.11202876 -0.43280804 -0.38666257 -0.72619766 0.10731367 0.05561733 -1.084449 0.2600844 0.06788061 -0.45555353 0.23848037 -0.17784275 0.458865 1.0832049 -1.2045764 0.018395703 0.32398546 -0.41552603 0.009684357 -0.39473686 -0.63838214 -0.056789268 -0.8708214 -0.19855738 -0.71392125 -0.57593167 -0.5347498 -0.15503374 0.104143485 -0.8674894 0.3897449 1.0357771 0.25539345 0.6433209 0.6026934 0.18890443 0.1464434 0.17681447 0.5676512 -0.16409822 -0.4488623 -0.7101235 0.23406678 -0.5103354 0.29547992 -0.3922895 0.7321227 -0.22269851 0.13076459 -1.018081 0.21508601 0.35952964 -0.27248964 0.35086894 0.051371958 -0.4699792 0.124937505 -0.01121262 0.038457528 0.2200184 -0.24369676 0.6201192 0.6182771 -0.07439953 0.2123425 0.059675127 0.37282252 -0.277512 -0.15156718 0.8519857 0.41714174 0.6461398 0.48380002 0.4428378 -0.6826918 -0.55927277 0.17100286 -0.37566733 -0.7920536 -0.86771846 -0.65818447 -0.059592463 -0.4072463 0.40838608
company -0.4467339 -0.43032154 0.59715325 -0.24386849 -0.18969055 0.36031267 -0.14742474 -0.18922952 -0.12890904 -0.7383573 -0.17633168 0.19387116 -0.48332724 0.32571152 0.20801136 -0.35876504 -0.20003186 -0.21253777 -0.22697155 -0.54774106 -0.025845783 -0.17478962 -0.16040787 -0.14705719 0.2770371 -0.5007339 0.55416894 0.21332252 -0.21781148 0.23407656 0.0035848243 0.71164423 0.02420848 0.0039756326 -0.29785898 -0.20381427 -0.1687213 0.025194861 0.32484362 -0.37627113 0.2464022 0.23562847 -0.121761106 0.06731941 0.2830505 -0.07283667 0.12745284 0.123136096 0.17360592 0.27031705 -0.14751258 -0.18587542 -0.24181482 -0.08447875 0.106681 0.14030106 0.24030097 -0.026279734 0.039825797 0.19780031 0.45640558 -0.13981727 -0.22604662 0.28922138 -0.05520655 0.02308135 -0.17434743 -0.25603548 -0.089463204 -0.37521327 -0.28770655 -0.25454706 -0.3635485 0.18762498 -0.16629784 0.24610265 -0.09784327 0.29801086 -0.087429516 0.06698422 -0.06734888 0.21428567 0.15402633 0.14747299 0.19787718 0.4899277 -0.37477896 0.06375392 0.044995278 0.26654494 0.0108226985 -0.60062015 -0.080924265 0.029347658 0.2556021 0.100510456 -0.23350517 -0.15959063 0.23810455 -0.19910143
live -0.44462723 -0.13340949 0.15901545 -0.23023918 -0.07820973 -0.20166023 -0.55570155 0.47412708 0.18484806 -0.15347789 0.014646127 0.13924961 -0.11745478 0.12275793 -0.1710947 -0.42912287 -0.09223656 -8.02414E-4 -0.19029121 -0.13591222 -0.27487817 -0.07654654 0.11711683 0.12901083 0.23195246 0.1265552 0.14978322 -0.100730084 0.21936023 0.19057286 0.1120861 0.49440524 0.53353465 0.10239059 -0.5974607 0.17018557 -0.25173667 0.1818253 -0.4386808 -0.29635772 -0.024792949 0.2582085 0.71011406 -0.34969157 0.107082486 0.44413105 0.6401232 0.3221368 -0.19101313 0.011870016 0.42026278 0.054852948 0.29874444 0.6104412 -0.06565769 0.033125337 0.45373386 0.3546046 -0.04616537 -0.42217073 0.55862564 -0.33511668 0.68679804 -0.25923726 0.1911134 0.11196691 0.023932079 0.07616765 0.1262943 -0.09353131 0.15995249 0.30558392 0.3089591 0.25199533 -0.40453228 -0.2685306 0.21776222 0.30674702 0.033011746 0.015051757 -0.046296712 -0.07635408 0.61806303 -0.3870428 0.044862557 0.5045339 0.0039086775 -0.23396294 0.016043013 -0.36147258 0.2924821 -0.36901364 0.44378647 0.254443 -0.18087277 0.06769766 -0.4031652 -0.0381245 -0.018211 -0.32551628
holy 0.30748963 0.385239 -0.1716025 -0.4535641 0.09838458 0.055352684 -0.19307458 0.44007158 0.4359963 -0.021749577 -0.31866822 -0.09306552 0.70180035 0.010161465 0.09025083 -0.48556772 0.18884127 -0.23902051 -0.08679096 -1.2997637 -0.36374092 -0.21156786 -0.64804035 -0.18288912 -0.13607354 -0.18943234 0.5922517 -0.4012939 0.06324424 0.7549573 -0.08205547 -0.19432019 0.03236553 0.16551411 -0.041981157 -0.4360873 0.3500115 0.23882246 -0.5546756 -0.046787355 0.037300784 -0.44461235 0.12515962 -0.21878456 0.7715785 0.5088586 0.38631806 0.39855623 -0.2807781 0.013816639 -0.31067207 -0.59888303 0.3138537 -0.08694393 -0.09149287 0.5537133 0.19672778 0.6887005 0.043301187 -0.51120895 0.5921593 -0.028111633 0.8493545 -0.20795953 0.120428786 -0.65231025 0.15242666 0.08693156 0.51079744 -0.32268453 -0.20476626 0.28871927 0.71465474 0.16028434 -0.25644082 0.78543067 0.0054998184 0.5770009 0.4297072 -0.0679734 0.68183434 -0.3216353 0.77687645 -0.42164007 0.07558171 -0.170999 -0.61736566 0.8491863 0.23418559 -1.1838019 -0.47646347 0.14011167 0.43866765 0.2734243 -0.08899218 -0.26717362 -0.06477864 -0.51943964 0.11716455 -0.49598444
ticket -0.5970854 -0.17769936 0.018480474 -0.7541356 -0.39481232 0.35698584 -0.10061219 -0.8752297 0.19160435 0.02109434 0.09359337 -0.37890446 0.034401 -0.3653653 -0.09568488 0.3021957 0.49154603 -0.28971455 -0.29973558 -0.3053621 -0.068168394 0.37350824 0.26987597 0.3325911 -0.16422023 -0.47816277 0.745837 0.44194227 0.51302433 -0.40897912 -0.39229688 0.47179815 0.3647214 0.262749 -0.20534144 -0.5812918 0.4488301 -0.06361546 -0.046409965 -0.1374274 -0.7125169 0.08841497 0.49829796 0.026331631 0.18116128 0.1639603 0.45601934 0.48976973 0.098064005 -0.40057215 -0.18504691 0.22461475 -0.08792029 0.040424503 0.5154407 -0.037602138 0.3149457 -0.20241542 -0.53815377 0.18525049 0.20625654 -0.25640026 0.22076288 0.15739405 0.2914733 -0.5655574 0.058315787 -0.6719188 0.1225829 0.092792556 0.30147627 0.009602917 0.40105844 0.06856047 -0.17876841 0.3771748 0.07767843 -0.19343786 -0.29846326 0.32478836 0.40332806 0.11545331 0.10585728 0.012514316 0.6689406 0.21442029 -0.02736603 0.5085259 0.3805168 0.50007045 -0.2613975 -0.25324643 0.23716661 0.2905438 -0.13948293 -0.40629634 -0.504966 -0.44015342 0.21515465 -0.5333273
