432 100
plane 0.119026 -1.57981 -1.1582 0.193874 0.917232 -1.96313 -1.56962 1.77587 1.74073 1.46679 -1.42662 1.64359 1.51069 1.49662 -0.0759818 -0.986828 1.36356 1.72299 -1.04904 0.798119 -1.00632 -0.503839 1.19815 -1.34537 0.786065 -4.07696 -2.41838 -1.14755 -0.549956 1.44089 -1.15413 0.328276 -1.51176 -1.12681 3.2537 -0.149484 -2.12156 -0.116062 0.455103 0.502259 1.4539 -0.272032 -1.08474 -0.145588 -0.499001 1.19106 -0.341434 -1.78373 3.94102 -2.91044 0.531796 0.480432 -1.94853 -1.58284 2.54326 -0.459391 -1.65942 0.276979 -0.267634 1.38991 2.08518 -0.514561 1.43987 1.22166 0.00153621 1.13952 0.405976 -0.855325 1.07057 -2.32415 0.0339378 0.823722 -2.08599 0.52562 1.9573 -0.656884 2.86784 -0.0523719 9.33087E-4 -2.28042 0.775978 2.34584 3.01034 0.413016 2.38696 -1.05546 0.53358 0.678669 -0.937705 0.873064 1.3 0.726038 -2.51307 -1.60037 0.962356 -2.09404 -1.09497 0.214646 -1.08971 -1.80658
stupid 0.933218 0.330294 0.765964 -0.63951 -0.00718656 0.497075 0.282814 0.0924809 0.323233 0.0331139 0.128726 0.700819 -1.17562 -1.04904 -0.486573 -0.4317 0.690145 -0.44311 0.429574 -0.871152 1.44339 -0.506973 -0.466817 0.321233 -0.316335 0.657308 0.954187 -0.22909 0.00625549 -0.802173 0.0746052 -0.0213546 0.978197 1.50661 -1.95624 0.325966 0.166693 -2.0434 -1.14291 1.41687 0.720835 -0.205566 -0.110395 -0.772515 0.44588 1.81005 -0.00690141 -1.56648 1.61128 0.813638 -0.0320637 -0.567018 -0.352982 0.842287 0.258009 1.03492 0.327424 -1.71076 0.570136 -0.93309 -0.375418 0.295201 -1.81976 0.22999 -1.8898 -1.27141 0.934733 -1.32851 -1.34444 -0.273369 0.413315 1.06668 0.118848 0.591594 0.760046 -0.475081 -0.505281 0.692375 1.32865 -0.232705 -0.233905 0.147607 -0.998718 -0.254026 -0.257273 -0.520737 -0.340272 -0.807632 -0.469455 0.187205 -0.618676 -0.574834 -0.29265 -0.21686 -0.0322511 -0.0763386 -0.651074 -0.207781 0.89331 0.214196
egg 1.28949 -0.6829 0.512252 -0.122677 0.575008 -1.20531 1.02375 -0.559856 -0.298812 0.0036517 -0.810821 1.21012 1.01339 0.127431 0.971851 0.33139 -0.53783 -1.21134 -0.421428 -0.12927 -0.748508 0.599893 0.0344294 0.23923 0.278496 -0.16935 -0.0778194 -0.429505 0.514051 -0.159418 0.0275015 0.605422 -0.300997 -0.501541 0.453282 0.637492 -0.341995 0.381066 -0.0203514 -0.456681 -0.260532 -0.483273 0.370438 -0.374957 0.153767 0.355915 0.246384 -0.965426 1.52482 0.474242 1.10643 -0.940269 -0.140488 0.0233664 -0.288412 -1.22614 0.139109 -0.430078 0.436144 0.77129 -0.44122 0.919817 -0.2855 0.0207203 -1.26675 -0.762199 1.27293 -0.191875 0.115116 0.149729 -0.591262 -0.0173657 0.0160493 0.751126 0.716542 -0.676821 0.333673 -1.11392 -0.116311 -1.16404 -1.81868 -0.238388 0.4992 0.79028 0.454922 -0.942988 0.77531 -0.151087 -0.449114 -0.657381 -0.120496 0.19178 -1.01731 0.738173 1.3934 -0.0621744 -1.00524 0.719682 0.939555 -1.51841
year 1.2613 3.20545 -1.28158 2.96421 3.54945 -1.23431 1.9817 -0.166893 -1.6943 -0.616699 5.00542 -2.19538 4.31206 0.905089 -1.65417 0.44878 0.74251 -0.870175 -1.18071 -0.139051 -0.764446 0.761065 0.0209719 0.545372 0.318991 1.2425 2.82076 -1.0472 -1.68332 2.37225 -2.15886 2.87471 -0.60819 -2.85979 -4.72258 0.889745 -4.35771 0.434408 -3.65094 4.63398 -1.19846 -1.21653 -2.71062 1.29304 -1.0414 2.10857 3.92857 -2.72086 -2.33519 -1.23831 0.82695 -2.69333 2.98835 -0.796084 0.307872 -1.1216 1.3279 3.10455 -2.60161 1.16308 2.61443 -0.768114 -0.165061 -1.25059 -0.90107 1.18834 -2.36347 5.4419 0.315771 -3.21347 0.075031 -1.02066 -1.16786 1.25912 2.67047 -1.39001 3.20114 -3.4134 -1.69009 -3.72108 -0.992752 -2.42291 3.96911 1.29356 -0.968733 -1.27968 1.55083 -0.811321 -1.74871 3.63995 1.81339 3.72005 1.73065 -0.364226 -4.11716 0.962979 -1.5809 4.72639 -2.83449 0.682305
psychiatry -0.382847 -0.0819049 -0.0888539 -0.011329 -0.667336 -0.788252 0.326523 -0.0874729 0.0808783 0.16097 -0.373466 0.261925 0.156436 -0.0567654 -0.199927 -0.14313 0.018615 -0.606825 -0.0177911 -0.00742342 0.0234932 -0.204825 -0.19458 -0.0570462 -0.115165 0.0892824 0.181435 0.317578 -0.20938 0.0670806 0.66328 0.196778 0.212317 0.332763 0.0635726 0.215655 0.226585 -0.128237 0.00310637 0.0726912 -0.134842 0.144733 -0.00588416 -0.137672 -0.360962 -0.149815 0.0973041 -0.335458 0.092218 0.020446 -0.250025 0.23262 0.208198 -0.196183 -0.349642 -0.565659 0.20307 -0.00402142 0.109883 -0.0753668 0.154757 -0.0328125 -0.36365 0.177135 0.348113 0.0595281 -0.255662 -0.0276376 -0.0792742 0.245395 0.243899 -0.167929 0.343124 0.0952467 -0.0421968 -0.0233579 -0.115076 0.289681 -0.474778 0.11414 -0.203494 -0.0881371 0.110872 -0.641955 -0.352569 -0.52341 0.155628 -0.113427 0.211913 -0.304763 0.125422 0.116812 -0.102073 0.10806 -0.240682 0.186488 -0.171992 -0.1234 0.220758 -0.439153
asylum -0.237953 0.503686 -0.807154 0.600756 -1.0465 -0.189849 0.982409 0.532646 -0.225295 0.540881 -0.613954 -0.27724 0.480693 0.620731 -0.154303 -0.359129 0.498903 1.45359 -0.76081 -0.734539 0.917949 -0.508049 0.496145 -0.0980255 0.138664 -0.0645675 -0.538646 0.50621 0.508485 0.549125 0.250323 -0.226228 -1.21197 -0.882836 -0.490356 -0.246936 -0.750865 -0.252511 0.810671 -0.203176 -0.461259 -0.313428 1.19675 0.290922 1.21863 -0.725383 0.033706 0.483098 0.25426 0.242665 -0.521197 -1.06091 0.454003 -0.548471 0.274452 0.382046 0.163487 0.0195913 -0.710716 -0.719778 0.430799 -1.37975 -0.488131 -0.774526 0.326751 0.265484 0.590682 1.56123 -0.257396 -0.559592 0.633816 0.0109886 -0.104764 -1.1551 -0.59661 -0.661016 0.319702 -0.433161 -0.194317 1.17092 -1.82361 -0.0919452 0.5365 -0.16226 0.148451 0.228851 -0.378429 -0.305895 0.86801 -1.23238 -0.0505863 -0.490605 -0.00868576 -0.836559 0.204064 -1.13283 -0.0350858 0.703805 0.755462 -0.420273
manslaughter -1.03351 2.02027 -1.25961 -0.153196 -1.44171 -1.2351 1.00791 -1.31459 0.960835 0.470635 -1.54878 -0.833083 0.888293 -0.835953 -1.36655 0.239361 1.10145 1.04535 -1.23829 0.705667 0.547349 0.416177 0.639299 -1.75594 1.06903 0.204214 -0.251187 1.02753 0.361385 -0.0767686 -0.856791 0.847768 -1.94699 0.330741 0.681069 -1.09469 -0.00490789 0.346163 1.13398 2.70272 0.398857 0.254199 1.31871 -0.120501 -0.891291 -0.861392 1.05044 -0.655201 1.03621 0.345355 1.235 -1.53763 -0.647131 -0.472047 1.08266 -0.876171 0.651242 -0.0411982 0.095494 0.852925 -0.830825 -1.01331 -0.588145 0.203718 1.15104 -0.306329 0.730319 1.59728 1.7404 -0.920473 0.60415 -0.731585 1.12997 -0.439103 -0.0197273 0.016009 -0.0845613 1.25671 -1.56395 1.35255 -0.149116 -0.0365904 0.32548 -1.31631 -1.44868 -0.322021 0.758051 -0.390033 0.88119 -0.210132 -1.27048 -0.169845 -0.371603 -0.430259 -0.12107 0.860859 -1.51418 1.02247 -0.718035 0.216463
music 0.450116 -3.16862 -0.00165502 1.84659 2.15259 0.182212 -0.371883 -0.283235 0.364667 -1.64591 -0.405245 0.236597 1.44971 -0.0830706 -1.57999 -0.458189 -0.994077 -0.839362 -0.834256 -0.44694 -1.89225 0.613204 -2.15103 1.62817 -0.656147 -1.55402 1.84995 -4.00308 -0.0831807 0.372083 1.64754 3.28241 -0.453888 -0.313982 -1.83034 4.0186 0.416085 0.302316 -0.334999 -0.971461 1.03577 0.926731 -0.0527366 3.65375 0.793868 0.828551 -0.991881 -0.588279 0.71944 2.84475 -1.01468 0.135999 -1.93356 -0.271465 -0.852107 -1.67944 0.319425 -0.890275 0.283711 0.279969 0.368334 1.35047 -0.386707 -0.937551 -1.20403 -0.037449 1.03342 -0.608269 0.990386 0.409221 1.1648 0.484959 2.24136 0.465045 3.68507 -1.67934 -1.59141 0.179922 2.39179 -0.344926 -0.724603 2.1115 -0.320337 -1.4545 -0.60161 0.717583 -1.31916 0.261615 -1.21938 -1.38112 0.568309 0.559019 1.69322 -1.01012 0.987421 1.12911 0.149269 3.36685 -0.491868 -3.61602
record 2.16898 -2.81052 0.65619 2.38857 0.248399 2.34437 3.26837 -0.654527 0.83086 -1.19248 2.19795 -4.03205 0.945298 0.103634 0.650165 1.18889 -1.49764 1.52141 0.152273 0.0731558 -0.887264 -1.18841 -0.722348 -2.00178 -0.239352 -0.385788 1.6593 -1.22174 -1.1276 1.43091 -0.0101445 2.36928 -0.066375 -1.90628 0.0174872 2.67137 0.659255 1.28743 -1.25528 2.11603 -0.396127 -0.629918 1.69731 1.43552 -0.574483 -0.352593 -0.735383 -1.11667 -2.0521 1.8438 -2.2182 -3.98143 -0.0767182 0.0926051 -2.27834 -0.697659 0.36057 0.628163 -0.020237 2.61476 -0.782952 -0.563361 0.798022 -0.101672 -1.21712 0.518205 -1.72178 1.74515 1.86051 -0.565583 1.30857 -0.213129 -0.878628 2.11133 1.52847 -2.39793 0.758188 -1.42505 -2.52605 2.05782 1.42842 -0.58033 1.53899 1.46886 1.4896 2.62588 -0.413738 1.75492 1.70214 0.0330744 -0.60601 2.34737 -0.827426 0.269428 3.11963 0.0625189 -2.04981 0.0244341 -0.964144 -0.26771
energy 2.21416 2.39359 1.81359 1.80971 2.47271 0.722405 2.71168 -0.410621 2.76983 -2.00196 3.44389 1.95868 0.386316 0.480719 1.74213 -0.120085 0.854776 0.874706 -1.62042 0.508588 -2.03776 -0.442394 0.165036 1.5359 -0.856259 1.57792 1.74582 -0.718322 1.34039 -0.704677 1.47134 -0.366989 -0.575804 1.11775 -1.11988 -0.035382 0.63725 0.956779 -1.12553 -0.867979 -0.782239 0.177823 2.23324 0.225995 2.58305 0.801255 -2.79823 -0.939434 0.559649 -0.702382 -0.584818 -2.05367 3.46787 -2.36827 -1.60912 -2.03398 -3.0324 2.65833 -1.64362 0.251095 -0.0297322 2.13334 0.0973819 0.448397 -3.05617 -1.26915 -2.69411 -1.10126 0.264789 1.86782 0.342462 0.717545 1.77873 -1.47641 1.06002 -1.41881 0.365325 -1.06388 -0.119662 2.41683 -2.74197 -0.119842 1.27636 -0.664059 0.852403 -2.44505 -0.191709 2.71687 -1.086 -2.1314 4.47539 1.34701 -0.908772 0.995712 -0.615553 -2.78965 -0.616315 2.05157 1.19386 -0.70443
announcement 0.508262 -1.95009 -0.0231226 -2.2154 2.7919 -1.61694 -1.05448 -1.04186 3.52268 -0.580288 -0.750344 -3.96875 -1.10877 -0.923443 0.460474 -1.97613 0.0197675 5.14516 1.0029 0.0427084 -0.960863 -0.49292 2.31016 0.0815885 2.10224 -0.877036 -1.12924 -1.03101 0.0852808 0.88278 -0.356969 -0.974964 -2.91369 0.748857 -1.80063 -0.145965 -1.54944 2.6584 -1.82729 -1.11422 0.576 -1.56075 -2.4884 0.0736228 -0.33062 2.07599 0.709903 -0.168629 0.579021 -2.32946 -0.954136 -1.16649 1.88581 -2.34216 2.69648 -1.58155 -2.34656 0.23403 0.31419 -1.16411 -0.161601 -0.474603 -0.366572 0.485457 0.995738 -2.33813 -1.49503 -0.228553 -0.395185 -0.78432 1.26068 -1.41663 0.0249344 1.40025 0.215736 -0.35103 0.0725064 -0.424874 -1.50534 0.480113 -0.627008 -2.15562 2.45331 -0.780453 3.05005 1.04902 -2.13324 2.11773 0.383778 1.06723 -1.05063 1.98712 0.519237 -2.62079 -1.16807 -0.467792 0.334209 0.482376 -2.30294 -0.132609
mile 1.14122 -0.753084 0.907508 0.0504201 2.34969 0.208948 -1.37867 0.262817 0.767949 -0.200559 1.7299 1.46861 1.36849 0.393663 1.79297 0.896314 -0.802131 -2.05765 1.33228 0.0200718 0.508413 -0.522291 0.0547123 -0.452677 0.234635 -0.200512 -1.02813 0.303513 -1.37288 0.0179551 0.317024 0.763273 -1.24986 -2.01184 0.715839 -0.350455 -1.45935 -0.78957 -0.747506 0.290053 0.91047 0.0802281 -2.30742 0.891806 -0.734122 -0.447179 0.670263 -2.61426 1.67754 -0.421868 0.61137 -1.01892 -0.0141684 -0.181485 -1.11473 -1.43446 0.113939 0.393503 -1.48433 1.34034 -0.931466 -0.127451 0.665121 0.382005 -1.2883 2.08623 1.02944 0.64205 0.423573 -0.47394 0.21086 -0.156686 -2.40893 -1.23761 2.5635 -1.45806 1.54818 -1.23039 -2.30624 -2.39604 -0.29828 0.614426 0.526363 -0.744214 0.469006 -0.303124 1.98947 0.111981 -1.05202 0.478076 0.605474 0.226516 -0.900053 4.02776 0.778581 -0.411531 -1.59988 -0.910818 -2.70991 -1.6407
airport 1.83557 -0.37635 -1.54244 -0.255459 1.96073 -1.46277 -1.51936 -0.101808 2.48236 -0.791014 -0.809815 1.83888 0.731435 2.00476 0.396173 -0.577363 1.92726 2.61084 1.30552 2.14393 0.117365 0.165706 -1.0961 -1.87245 -0.865383 -1.90212 -2.08873 -1.60988 -2.25892 1.76012 1.71583 0.802205 -3.77608 1.24815 1.23366 -0.576051 -2.10349 0.186612 0.38974 0.254979 -0.111983 -1.94586 -0.763675 0.0396913 1.31324 -1.96102 0.257896 -1.03413 2.05387 -1.95338 0.400962 -0.222949 -1.20679 -2.31218 1.08004 -0.220656 -1.54006 1.00056 0.457808 0.662488 2.48008 -0.626648 1.36859 1.3782 0.516299 2.23546 -0.695957 2.09203 1.19267 -2.40702 -1.42414 1.10365 -1.74178 0.247053 0.765303 -0.143654 1.10176 -0.74299 -1.10487 -3.87309 -1.56799 0.725529 1.73412 -1.09178 0.617009 0.23443 -0.930934 2.0672 -0.213542 -1.76859 1.08886 0.754914 -2.23912 -0.858591 0.613424 -0.0661807 -0.337666 -1.49764 0.124047 -2.33062
population 0.734429 -0.29602 0.932577 2.38838 -1.39362 0.468943 2.98085 1.28485 2.32839 1.11574 2.31978 4.6729 0.10931 -0.260227 -0.289383 0.489487 -1.27462 -2.56776 -2.93616 -0.0965512 1.9434 -0.18405 0.961244 0.710539 0.50948 -1.65328 1.24154 -2.25823 -1.33007 -0.289018 -0.217197 1.49644 -2.95597 -2.71857 -1.71746 0.086691 -2.46945 0.353843 -1.83609 1.45896 -1.03433 1.5816 1.12935 0.0111476 1.37955 -2.29734 3.23478 -3.86406 1.90396 -0.260405 -2.85085 -0.205437 5.04588 0.747144 -0.878401 -0.0997855 -0.546492 2.06361 -0.812377 0.201586 -0.555328 -2.52474 -0.139272 -3.54782 -2.72265 -0.164036 -0.275669 1.78267 2.39266 -0.0524132 -1.42817 -0.801553 0.968879 -1.32486 1.56913 -3.29461 0.953345 1.7278 -2.75945 -0.00437538 -0.933271 3.27947 3.22243 3.854 -0.586964 1.7005 -1.76965 1.57875 -1.53146 -1.03766 1.55791 0.288546 0.143028 1.22811 -0.770323 -1.03441 -0.371655 -3.33172 -0.0880896 -1.31468
planning -0.586472 0.808522 -1.71546 -0.0160107 2.01947 0.669596 -0.420785 -0.529023 2.4689 -2.22203 0.776176 1.55427 0.0966919 1.21106 0.235913 0.371642 1.9027 1.02389 0.590105 2.35265 0.805988 -1.00505 -0.197644 -0.539922 -1.43114 0.190404 0.193628 -0.439752 1.52794 -0.315331 -0.535088 0.0432592 -1.37447 1.71699 0.423532 -1.53964 -0.587074 1.26163 0.685008 2.73287 0.516013 -0.655019 0.958578 0.77749 1.62659 -1.15229 -1.02239 2.11696 0.480046 -0.281144 -0.419863 0.655112 -0.525772 -0.704872 0.0442664 3.85797 0.910097 -2.81516 -0.0185784 1.53361 0.662437 -1.45834 -0.358606 -0.605798 0.324494 0.342809 -0.805628 -1.78862 0.617854 -0.560861 -0.901528 0.50384 1.0771 -1.15675 -0.601728 -0.580385 0.558602 0.44681 -1.66502 0.706881 -1.37622 -1.84329 0.72251 -1.6068 0.473526 -0.697583 -1.06308 0.691524 -1.73873 1.12633 2.10516 1.44225 2.34322 -0.130077 -3.26777 1.0292 -1.56155 2.23014 -0.265086 -0.197331
canyon 0.125631 -0.0319564 0.330141 -0.00839383 -0.105839 -0.349784 0.39802 0.228801 0.0524802 0.209103 -0.235387 0.404876 0.0540603 -0.075126 0.248647 0.175686 -0.145364 -0.157042 0.226058 0.127434 -0.00605999 -0.176739 0.0770747 -0.0513088 -0.00208331 -0.477451 -0.165505 0.132633 -0.314287 0.159195 0.142044 0.003685 0.040065 0.225655 0.341318 0.145742 0.029914 -0.176226 -0.0527061 -0.177227 0.268784 0.0912165 -0.148523 -0.0431778 -0.353272 -0.282306 0.0633834 -0.366956 0.43911 0.0598139 -0.0858943 0.327359 -0.16243 0.154649 -0.167233 -0.362965 0.171096 0.64062 0.0600374 0.366135 -0.0519533 -0.0344083 0.10593 0.271819 -0.221824 0.148132 0.169794 0.123775 0.00216728 -0.317395 -0.0152988 -0.333733 -0.112643 0.00984249 0.275466 0.0399559 0.198933 -0.240691 -0.182009 -0.315514 -0.165833 -0.0900514 -0.0938652 -0.407641 0.0171114 -0.289068 0.0159271 0.110696 -0.06726 -0.0197844 -0.256306 0.0535744 -0.382619 0.429065 0.0900607 0.077031 -0.271068 -0.0390456 -0.188387 -0.822851
delay 1.32302 1.28668 -0.0894467 -0.581312 0.352521 -1.02398 -0.379608 -0.788785 0.615307 0.0553446 -0.921446 -0.306048 0.457973 -1.81474 0.457471 0.178944 0.314836 2.66981 -0.904891 1.31898 -0.0626249 -0.0300005 1.11465 -2.01549 1.13869 1.4006 -0.849233 -0.82447 1.65449 0.823421 -0.538758 -1.62962 -3.2447 -0.232401 -0.256494 -0.889168 -0.641147 -0.952942 0.131506 1.3501 0.474908 -0.390087 0.232359 -0.363145 -0.531901 2.0272 -0.295037 -0.466539 -1.94198 -1.18674 -0.858292 -2.73415 -0.457128 -1.8279 1.42354 -0.403659 0.182726 0.688372 -0.25512 -0.0953173 1.40387 -1.31352 -1.62885 -1.46838 -0.0683617 -0.459541 0.685306 -2.03139 0.412396 -0.0406138 -0.44335 -1.77011 -0.187677 -0.405962 1.19693 1.19899 -0.60825 -0.957814 -1.66957 0.686084 -0.310904 -1.05112 1.46431 -0.334505 3.1975 0.14075 0.355936 -0.225929 1.36052 1.36761 -0.961906 0.478727 -0.155366 -0.822081 -0.533452 -1.73184 -1.29624 0.276959 -1.7894 -0.547241
size 0.380877 -0.706733 1.78037 -0.00674339 0.59115 1.00419 0.833144 -0.399115 1.39737 -1.82843 0.782694 2.73762 1.02864 0.478928 0.482447 1.14145 0.154093 -0.604976 -1.57964 0.160769 -0.697655 1.39344 0.518297 -0.554767 0.727003 -0.194564 0.947194 -0.748931 0.19896 -0.0600974 0.108647 2.92315 -1.34805 -0.221894 -1.61056 0.0816299 0.424871 0.81041 -0.666528 1.45202 0.477203 1.33703 -1.73252 -1.58766 -1.82088 -0.0325586 -0.187844 -2.18897 1.07571 0.697612 0.911219 -1.07853 2.03528 0.164836 -0.861571 -1.99242 0.171526 -0.48599 0.734764 2.07455 -1.21609 -0.994032 -1.18656 -1.40639 -0.738157 -0.682734 0.900285 -0.882364 2.22857 0.513501 -2.59733 -0.184315 0.76684 -0.611334 1.33505 -2.60393 -0.297069 -1.59067 -2.94921 -0.51833 1.0619 1.60852 2.38629 2.36001 1.68213 -1.16077 0.926743 0.940479 0.284081 0.763809 2.16222 2.48327 0.495762 1.89738 0.911938 -1.72891 0.549153 -2.49471 -0.723789 -0.267042
peace 3.49229 1.46408 -2.3193 1.88294 1.25605 0.558308 -0.172943 -0.506928 1.94372 -0.483338 0.572185 -1.1849 0.256097 -0.48972 3.18449 2.19828 1.40465 3.17348 -1.50379 1.30581 -0.694885 -0.150487 -1.03929 0.0402925 -0.331627 0.202857 0.030932 -3.51083 3.29043 -1.20656 -0.359723 -0.384085 -0.518786 2.28413 -0.945873 -1.66128 0.355714 -1.45959 -2.106 0.028794 1.81067 -0.338612 1.7872 1.43629 1.10711 1.10453 -0.134533 -1.64602 3.47429 -1.01054 -2.75411 2.26809 1.94371 0.933304 0.949669 1.17241 0.702187 3.73107 1.31167 -0.246041 2.73785 -2.83977 -1.16106 -3.89238 -0.955372 -1.00024 -1.3324 0.549421 2.65599 0.920691 1.89517 2.68306 -1.15149 -1.62341 -1.11657 -0.530306 -0.364396 1.78355 -1.29403 4.89001 -2.08281 -0.00720372 1.25961 -1.81332 4.2355 1.11877 1.97746 0.717877 0.279557 -1.08332 0.147675 -2.6905 -0.280715 1.3642 -0.945881 2.60035 3.27766 4.04396 -1.50304 -2.07175
science -0.0694999 -1.04565 -0.0786671 -0.1496 -0.916836 0.0996083 1.40078 0.549782 0.786952 -0.312491 0.302292 2.13476 -0.712088 -1.47325 -1.97927 -0.960715 -1.75629 -0.806547 -0.868797 0.0378757 -0.522422 1.17787 -1.76029 1.42592 -2.02917 0.508048 0.857279 -1.40679 -0.176883 0.644928 4.1538 0.314476 -0.612991 0.222544 -1.70181 1.96184 2.41216 0.17291 0.189977 0.184308 0.0764412 1.60858 0.898268 0.140383 -1.49749 1.27292 0.0228125 -0.644856 1.39607 2.59389 0.424282 0.483527 1.90218 0.221565 -1.38238 0.0492211 -0.532165 -0.757123 -0.601204 0.412537 1.0453 -0.633866 -3.38723 -1.04915 1.14753 0.480764 -0.637005 -2.68883 0.0184129 1.93413 0.455022 0.334422 1.62057 -0.164983 1.28778 -2.11973 -0.665903 2.1671 -1.174 0.536134 -2.31588 1.06827 -0.00333375 -1.6583 0.030937 -1.24881 0.0287112 1.2144 0.240787 -0.0278334 2.11816 -0.560138 0.916109 -0.149479 -2.67614 -0.388857 -0.387383 0.628827 1.60847 -1.66064
dawn 0.822 -0.341798 -0.335754 0.0794361 0.203909 -1.43104 0.0565201 0.346913 1.21857 -0.380826 -0.158295 0.0560896 0.959123 -0.42623 0.565811 0.874169 -0.549689 1.45952 0.345188 0.00602196 1.37762 -0.76184 -0.241237 0.0984472 -0.603213 -1.38403 -0.368071 -1.85878 -0.653881 0.293651 0.811218 -0.76174 -0.853651 -0.369032 1.01688 -0.680677 -0.454907 0.684428 -1.02397 0.226634 0.843309 -0.641332 -1.81183 -0.144841 -0.532178 0.0215653 0.574316 -1.61758 1.33418 0.332872 0.690475 0.519282 -1.19318 -0.980627 -0.815483 -0.652095 -0.0720475 0.232134 -0.146918 -0.0461907 0.573752 0.443171 0.211542 0.71024 -0.25394 -0.727062 0.0378012 0.663494 0.941153 -1.66283 -0.0868846 0.13723 -0.846337 0.680965 -0.302886 0.285143 0.377514 0.70379 -0.967118 -2.27937 -0.143192 -0.824027 0.52341 -0.70843 0.944926 0.853251 0.148283 -0.604202 0.321411 1.15476 -0.340562 -0.701378 -1.891 1.02307 -0.160494 0.947984 -0.247448 0.637282 -1.03978 -1.07012
brother -1.12473 1.62467 -0.465543 -0.71682 -1.4185 -1.52068 -0.0610725 -1.84796 0.63666 1.46485 -1.80355 -0.781991 0.170865 1.79631 -2.59329 -1.68774 1.12081 0.15273 -0.980747 -0.938895 -1.52675 -3.82341 -0.778715 -1.77149 3.26842 -2.26258 -1.82552 -0.421393 -0.649469 -2.05164 -0.734904 0.827355 -0.60965 -2.75944 -0.471959 1.10688 -2.66071 0.997722 1.54636 -0.113805 1.14744 -0.0992696 0.892437 -0.672263 0.673447 -0.443819 0.256514 -0.549417 3.38341 -1.73624 -2.30303 -1.71359 0.126983 1.0379 0.791823 1.10882 0.729162 -0.120194 2.63392 -1.06838 1.67252 0.693907 -0.0658642 0.866741 0.25895 0.0315142 -0.239509 3.24196 1.7715 1.50242 4.59392 1.8622 3.43841 0.329226 2.38044 -2.33621 -0.444735 2.21877 0.0702109 -0.741112 1.08297 1.92811 -0.0866427 1.60069 -1.7729 -0.54433 -0.135791 -1.43286 -1.5033 1.37457 0.49024 0.0700699 -0.703443 1.33086 1.63077 -0.174863 -1.58143 0.986354 -1.39936 -1.15221
wine 0.498438 -1.48022 0.845887 0.29271 0.213433 -0.655925 -0.20865 0.233449 0.506338 -1.43819 0.223487 1.0911 2.63616 0.0623607 0.68345 0.450467 0.244739 -2.71396 -2.23081 0.422687 -0.72996 2.10735 -0.0819983 1.17141 -0.911226 -0.583638 0.72707 -0.333408 -0.679201 -1.20341 -0.541028 2.19417 0.0191162 -0.857251 -1.00624 1.54961 -0.136652 1.39959 0.943381 0.299118 -0.137822 -0.64701 -0.803286 0.261797 0.919786 0.308166 -0.184484 -1.16346 0.795211 2.30833 -0.3753 -0.326815 -1.04755 -0.384759 -0.663203 -2.74876 -0.954502 -0.134251 0.0352058 0.897028 -0.720581 0.319944 1.06251 0.659366 -3.34517 -0.191173 0.235808 -0.342132 0.0792505 -0.0129256 0.155287 0.239815 0.189708 1.81449 1.4801 -0.135637 -1.10581 -0.264741 0.650704 -2.26974 -1.64474 -0.454063 -0.888462 1.96393 0.408008 -0.915103 1.16146 0.0972463 0.937518 -1.79836 0.889426 0.046476 -1.64699 2.01951 0.537924 0.234576 -0.329883 1.45123 0.654124 -3.69322
object 1.86684 -0.887654 0.190717 -0.709598 0.566789 -0.974447 -0.279 0.472629 1.06591 0.310022 -0.203004 0.736939 0.159769 0.0597494 -0.542218 -0.384519 0.178886 0.335833 -0.479189 0.364086 -0.0381819 -0.750585 0.447658 -0.898018 1.4237 -0.0348647 -0.543905 -0.311484 0.333734 -0.419584 1.28693 0.848996 -0.830942 0.344783 -0.387133 0.684216 -0.17872 -0.661729 -0.118944 -0.467587 0.621865 0.0884131 0.350084 -0.333509 -1.0914 1.37628 0.691419 -0.49117 1.67051 -0.241653 -0.023905 -0.236752 0.971069 -0.75498 0.663733 -0.831992 0.41145 -0.951149 0.998023 -0.0283818 0.122793 -0.23294 -0.987648 -1.61494 -0.399107 -1.08497 0.37583 -1.07938 0.219226 -0.414582 -0.374124 0.927508 0.022985 0.94172 1.05482 -0.389235 -0.715686 -0.0527575 0.637421 -0.724428 -0.867829 0.704976 1.24441 0.559064 0.543772 0.291544 -0.0384762 0.694644 -0.0107954 0.433992 -0.567583 -0.167487 -0.634411 -0.124726 -0.0660606 0.0782962 -0.385954 -0.0996235 0.698869 -0.240499
attitude 0.589095 -1.75661 0.307701 -0.357887 1.42086 -0.304931 0.128531 0.136131 2.46963 0.213918 0.454095 -0.565317 -0.338245 0.683638 0.0195285 -0.689536 1.3659 0.293206 -0.215472 -1.15272 0.300024 -1.10312 -0.380783 0.50495 1.36568 -0.175646 0.123425 -1.9942 1.4234 0.789806 0.559248 1.40845 -0.335191 -0.701892 -1.60126 0.0737417 0.627041 -0.911051 -0.325641 -1.37773 0.442191 -1.18899 0.832051 -0.454103 -1.39975 1.00069 -0.0517527 -0.140207 1.59592 1.09986 -0.684999 -1.64666 1.4259 -0.0418296 0.63382 0.958548 0.328418 0.96327 0.74799 -1.05147 1.29759 0.227927 -2.65835 -0.229686 -1.14927 -1.63265 -0.480962 -1.30734 0.725571 0.892399 0.0379838 1.6785 1.05362 0.658657 1.44743 -1.40536 0.142277 1.02007 0.529024 -0.184465 -1.39942 0.41536 0.445025 0.123797 -0.3172 -0.553234 -0.483693 0.388301 -0.559479 1.04245 0.432332 0.396763 0.961341 0.333499 -0.729888 -0.932814 -0.0376083 0.386159 0.494364 -1.09003
treatment 0.656686 0.298522 -2.58251 1.76129 -2.34893 -0.321749 0.762429 -1.87539 3.087 1.08627 0.989929 1.43199 3.7926 -1.02089 -1.61273 -1.32442 0.376119 1.02628 -3.42289 -1.32481 2.11788 0.347724 0.391724 -0.971969 0.30704 0.774943 0.418039 0.803628 1.32255 0.833934 0.146507 0.791047 -2.56664 -3.3192 0.786856 -1.49478 -1.8922 -0.464348 2.77941 -0.186777 1.12624 -0.934543 2.37373 -1.56015 0.375762 1.48405 0.992634 -2.07718 1.81809 -0.683409 0.460177 -0.85024 0.0718741 -1.88208 0.896681 -1.71542 -1.87564 1.462 -0.521276 0.857999 1.40214 -3.70308 -2.51918 -0.187754 0.0787201 1.96775 1.14369 -0.174771 -0.972845 3.03863 -0.929005 1.09129 1.64283 -1.10037 0.678008 -0.0845279 0.259373 -0.650189 -3.49237 1.91046 -4.21665 -1.60629 1.93409 -0.131244 -0.817991 -1.5301 0.0424941 0.111357 1.14844 0.594199 0.205288 0.00810444 1.60735 -2.47603 -0.700357 0.198063 -1.04272 0.919425 0.340813 -1.19095
flight 1.59149 -2.45998 -2.25573 -0.610106 -0.158954 -1.39415 -2.2109 1.47787 1.3139 0.0970586 -1.03884 1.26523 1.94533 2.01425 -0.271928 -0.91982 1.11004 0.763163 -0.43656 1.78943 0.128795 0.448468 0.614909 -1.33341 -0.543146 -2.4371 -2.78258 -0.902697 -0.519471 2.57371 -1.09936 0.612637 -1.66162 -2.51249 2.12368 -0.865324 -0.591168 0.184062 0.288988 0.237116 -0.0463717 -1.49558 -0.783721 0.888318 -0.764917 1.54515 -0.646765 -2.20694 1.59314 -2.26511 1.2522 -0.823321 -1.63232 -2.74046 2.47346 -0.154678 -2.13446 0.52893 -0.274619 1.46137 0.736792 -1.15631 -0.0728015 0.83486 1.26728 2.38898 0.917056 -0.316897 2.07922 0.579822 0.165428 -0.0547138 -1.57145 1.70575 1.47412 0.687575 3.94112 -0.989514 -0.0761113 -3.65826 -1.17446 1.37362 2.67787 -0.246665 1.86072 -0.297323 0.544503 0.669554 0.673403 -0.627522 1.63104 1.80535 0.282309 -0.671285 1.15709 -1.19337 -0.950767 2.02975 -2.56554 -1.44499
forest 1.39425 0.55197 0.803678 -0.218132 0.179348 -0.757876 0.777106 0.977954 0.350207 -0.288067 0.124136 2.35259 1.24065 -0.633662 0.890764 0.0784008 0.103269 -0.917025 0.590367 0.483755 0.109475 0.883357 0.826874 0.271961 0.00852627 -1.31878 0.762601 -0.925376 -0.566171 0.616061 1.08738 0.346664 -0.27073 0.629078 0.115744 0.851601 -0.278739 0.106866 0.547798 -0.109766 0.399822 0.674598 0.87627 -0.0848127 0.143838 -0.420707 -0.113989 -1.67454 1.52468 0.374933 0.152796 0.473328 0.0080172 0.175798 -1.22572 -0.269806 -0.422991 2.49945 0.0175793 1.49693 -0.278701 -0.487158 0.84677 -0.0900648 -2.14661 0.0135377 0.0972707 -0.530526 -0.0963956 -1.17852 -1.52617 -0.218171 0.184163 -0.861618 0.716111 -0.909152 0.473508 -0.388888 -0.531764 -1.54177 -1.24871 0.875654 1.32884 -0.35283 -0.440623 0.00546682 0.249648 0.699698 -1.54027 -0.00355278 0.408607 0.942451 -1.81282 1.77017 -0.102332 0.285 -0.377611 -0.643767 -0.228093 -3.04432
abuse -0.769047 1.51205 -2.03168 0.320794 -1.53242 -1.30824 2.36398 0.638653 1.49229 1.21601 -1.72663 0.364547 2.03396 -1.77619 -1.95249 -0.560921 2.15228 0.491021 -4.67586 -0.123928 2.13227 0.191311 -0.970818 -2.0805 1.63636 0.713362 0.691324 -2.1351 1.48254 1.84534 0.744238 -0.00215213 -2.20824 0.518762 0.190624 -0.272315 2.12254 1.1877 1.79111 0.47668 -0.383383 -1.24218 1.28999 -0.749656 -0.525193 -0.199727 1.92853 -1.22219 1.57749 1.7578 0.19244 -2.51234 0.514038 -0.0759418 -0.0171853 0.0119856 1.43426 -0.480521 0.236924 -0.478488 -1.1233 -1.52258 -2.25735 0.924549 2.16888 -1.66535 2.76963 1.59598 0.685223 -1.31381 -2.67339 0.0322618 3.00895 -2.1703 -0.369241 -0.349143 -0.717776 1.95013 -0.524285 0.595971 -2.14475 1.12842 0.856453 -4.04928 -2.08376 2.05936 0.629906 -1.43849 0.598418 -0.422141 -1.3795 0.340202 1.97623 -0.823288 -0.252624 -2.02697 -1.03077 0.635709 0.626778 0.0611822
criterion -0.0885066 -0.0904458 0.190189 -0.0618638 -0.186857 -0.0214781 0.0535185 -0.0153145 0.00976642 0.0414798 -0.0533681 0.0465571 0.137921 0.0506917 -0.0137057 -0.144232 0.0866002 -0.0554771 0.100337 0.0711413 0.0146198 -0.117601 -0.107145 0.101577 0.102643 -0.0795624 0.0980719 0.120179 -0.174146 -0.0742785 0.0716991 0.156388 0.0696138 0.14618 -0.051775 0.130813 3.79716E-4 -0.16735 -0.0675494 0.00397315 0.0819168 -0.0261864 0.0336291 -0.188589 0.0454526 -0.0269355 0.265919 -0.178128 0.0739491 -0.121336 -0.0485514 0.0165248 0.15226 -0.0658849 0.244698 -0.142474 0.224867 -0.0735908 0.0134096 -0.0209454 -0.0798145 0.0471714 -0.107931 -0.128781 -0.0550407 0.0214105 0.0514211 -0.116477 0.0174628 -0.0157549 0.161976 -0.0956169 0.0534199 0.274506 0.182229 0.020121 0.0742138 -0.106448 -0.032133 0.174542 -0.111518 -0.166953 -0.044815 0.0278377 -0.0165205 -0.184431 -0.199565 -0.0217388 0.0825289 -0.256468 -0.0382681 0.246462 0.00857501 0.0696819 -0.0644118 0.223682 -0.0618139 0.0328145 0.039572 0.0256682
sea 2.25096 -0.497252 0.702079 0.960852 -0.0248579 -1.90752 1.40772 2.7655 1.30281 0.296001 0.281457 3.1074 2.5781 -0.288687 1.93058 0.659001 0.0663063 -1.00689 -0.528043 1.43444 -0.218382 1.09848 0.974632 -0.3787 -0.442239 -0.281032 -0.496598 -4.03753 -0.187295 0.062391 0.79439 0.229927 -0.704055 1.643 1.02456 -0.219613 0.305603 0.111997 -0.92248 -0.0511748 2.18708 -0.019425 0.726911 -0.594115 -0.790258 -0.903356 -0.367043 -3.398 2.45015 0.726631 0.359001 -0.591239 -1.23488 0.15798 -1.28963 -1.78135 -1.74045 3.60152 -0.945126 2.09246 0.147176 0.0213515 1.61353 -0.0582238 -2.3944 -0.239662 1.31056 0.110265 -0.132722 -0.768856 -3.02934 -1.01575 -0.388612 -0.391532 2.03729 0.17331 0.545572 -0.446562 -0.821829 -3.49834 -1.22642 1.47537 0.495103 0.624115 0.623586 0.349729 -0.407872 0.360647 -0.433228 0.295013 0.312379 0.383278 -1.06469 2.66271 1.05889 0.123059 0.596362 0.224985 0.89978 -2.00912
dollar 3.51774 0.765809 2.31609 2.89703 0.36748 2.17189 1.11479 -0.824983 5.11489 0.437317 3.11016 -1.3401 -0.221207 1.78413 2.00323 1.0807 -0.321254 -1.12301 -3.76945 1.343 0.608757 -0.524221 1.47554 -1.06002 0.382161 -2.95684 1.3966 -0.749313 1.95996 1.83984 0.343288 1.76941 -1.99767 0.0622791 0.542862 -0.15903 0.249207 1.89873 -0.581315 1.74665 0.977348 -1.06271 -1.2526 -1.48556 1.47647 0.715989 -0.306674 -3.1867 -0.612452 -0.027731 -0.322753 -2.65899 0.710176 -0.949411 1.83483 -3.97982 2.27379 2.16714 -2.60108 2.54979 -0.810479 0.321352 0.652639 3.25511 -1.566 -2.29341 -1.77966 0.651412 2.08196 -2.02438 0.480226 -2.60852 -0.936683 0.813431 -0.847796 0.223735 3.73756 -2.10361 0.686252 0.238954 2.72346 -0.581368 0.0261882 4.97391 1.91949 2.07185 -0.0940316 2.47037 1.14351 -2.15514 0.479518 1.63016 -0.323081 0.933587 -2.51614 -3.84055 -0.670684 2.50165 1.20786 0.00803091
example 0.344522 -0.625821 -2.1875 0.0580811 1.34057 1.16502 0.988191 0.333798 1.46437 -0.0466319 0.437774 -2.02029 0.51295 -0.171634 -1.53829 -0.582155 -1.90347 0.614378 -0.449899 1.75628 0.547116 -1.93417 1.2196 2.32492 0.981589 -0.103744 2.77737 -0.409788 -2.51659 1.87358 -0.0170401 1.95936 0.442855 -0.737261 -1.04108 -0.174468 -0.1339 -0.167538 -0.620705 -0.325403 1.62376 -0.242352 1.85641 -1.79574 2.16807 1.93578 0.440478 -1.1636 1.5824 -0.137368 1.48476 -0.509548 2.85795 -1.00603 -0.111983 -1.58313 -0.125626 -1.81771 2.47077 0.229457 -0.674413 0.815158 -1.82191 -2.31329 0.0541057 0.949583 2.38351 0.547679 0.418844 -1.09486 2.3242 0.0111813 1.04542 0.331841 2.10643 0.597612 -0.426071 -2.00654 -1.43861 0.412981 -2.14041 0.981126 -0.38777 2.25376 -0.13604 0.135988 1.01758 -0.782095 0.891244 -1.94519 1.18783 1.45301 -0.579079 -1.13446 -2.97136 1.54496 -1.21307 0.140092 2.09616 -3.52562
journal -0.721812 -0.0224494 -0.553379 -0.590551 -1.80715 -2.02212 1.86453 1.82509 -0.299508 -0.309806 -3.05326 -0.837073 -0.053874 -0.704645 -0.700208 -2.38958 -3.11864 -2.16441 1.11758 -0.019434 0.274525 1.66665 -0.681422 -0.721178 -1.28151 -1.53414 0.357998 2.01863 -0.310412 2.50785 1.88463 0.308914 0.146471 0.349934 0.361774 0.789025 -0.0801362 1.6488 -0.93073 -0.297046 -0.162476 3.18901 2.20446 -0.907525 -1.38884 2.60148 -1.21017 -1.3994 -0.979796 -1.41091 -0.069607 2.16167 0.839222 0.553457 0.449629 -0.676055 1.37318 -0.880303 -1.26414 -0.00709348 0.532063 -1.11978 -2.08124 1.34305 0.351152 0.0796799 -1.39011 -2.45015 0.974631 0.501762 0.214639 -2.71552 0.57191 -0.172774 0.770969 -3.02353 -0.382795 0.215253 -1.30843 -0.112027 -1.38289 1.27326 1.66521 -1.15162 -2.21032 0.290436 -2.9153 -1.8434 1.46807 0.73605 -0.71144 0.481908 2.69604 -3.51312 -3.47869 1.00713 0.145178 -0.216353 -1.44864 0.0590413
laundering -0.216985 2.25461 -0.991695 -0.334316 -0.286581 0.267859 0.650199 -0.364465 -0.582262 1.78524 -1.1816 -0.364398 -0.793396 0.13597 0.31219 1.47741 1.6276 -1.11405 -0.387945 -0.444694 1.47857 0.911229 -0.00477692 -0.0424836 0.189739 0.597539 0.192115 0.385659 0.785986 0.0372434 -0.359604 0.301081 -0.45467 1.32077 0.779636 -0.495595 1.43962 0.186974 1.9792 0.823558 -1.22333 0.15633 -0.498821 -0.792674 -0.0132121 0.152885 1.08599 2.07554 -0.0241342 0.280006 0.52258 -1.17894 -0.0749007 -0.588802 0.540004 -0.0959186 0.652874 0.0767889 0.308983 0.297926 -1.45348 -0.128081 -0.174671 0.97252 -0.172442 0.439468 0.286935 -0.182847 -0.140102 -0.347898 0.0719044 -0.829635 0.112873 -1.20233 -0.878808 -0.842827 -0.699131 -0.360517 -0.209438 0.412855 0.93826 0.965805 0.788108 -1.86829 0.187607 0.0966615 1.16285 -0.490458 -0.232596 -0.957169 0.743559 0.656994 -0.663497 -0.330165 -0.173725 -1.68497 -0.552395 0.659656 -0.26327 -0.196502
hotel 1.86397 -2.85319 -0.916445 -0.518734 1.38314 -0.933545 -1.58054 -1.4672 1.69207 -2.43054 -2.32894 0.162722 1.205 1.65818 -0.199651 0.309392 1.6472 -0.186708 -0.365295 1.76166 1.22724 0.69231 -1.54943 -0.634809 -0.29902 -2.32823 -1.57197 0.907057 -1.85847 0.241365 0.985983 1.13667 -2.36413 0.502005 -0.573694 -0.878477 -2.43448 0.70899 1.45826 -0.211311 0.577326 -2.40412 -0.33494 0.478804 0.0274033 -1.4084 -0.755502 -0.894554 1.01892 -0.111214 0.0208519 2.82676 -0.85249 -0.181395 0.622081 -2.06102 -0.652285 0.048312 1.79861 1.9377 2.60989 -1.53076 1.60644 1.43938 -1.60557 1.93102 -1.69899 1.72064 -0.606119 -0.868486 0.265137 1.68788 -0.658149 1.09025 2.08194 -0.937298 0.29045 -0.5573 0.379155 -3.88466 -1.22964 -0.740815 -0.635365 0.367347 -0.604953 -0.538993 1.78425 0.095287 0.713313 -0.0103552 -0.122565 0.942155 -2.76765 0.629044 -0.444059 -0.164754 -0.0229628 -0.0488386 -1.04585 -3.88116
term 2.74259 4.43541 0.780939 -0.101532 -0.511004 1.35644 1.95946 -3.26996 0.391349 -0.111978 1.72175 -1.07085 1.84619 0.670957 -1.12829 -0.744283 0.330806 3.1219 -1.55461 -0.913079 1.16217 -0.219329 0.326768 -1.03208 -3.64797 -1.31584 -0.423255 -1.29313 2.34386 -0.193961 -3.43019 0.76138 -0.0965625 -1.34255 -5.95959 -3.73307 -3.9785 -1.83048 1.73228 -1.30638 -0.137267 -0.914473 1.64877 0.258597 -2.40882 0.922505 2.76629 -1.89716 -0.234507 0.239167 -2.72739 -1.44155 -0.248311 -3.06526 1.87234 -0.653742 0.00294459 -1.6882 0.786954 0.678049 1.43862 1.55849 0.300259 -3.6578 -0.153754 -0.166363 -1.10749 -0.0328803 0.79962 1.28211 -0.678756 -1.30128 0.964769 -0.223788 1.53025 0.420625 3.08646 -1.14207 -1.54671 1.41298 -0.416244 0.0838541 1.36429 1.69671 2.85893 -0.225318 1.15752 1.34732 1.97809 0.820938 -0.109059 1.00836 -1.13956 2.51316 -3.81545 0.0273244 -3.60018 -0.154781 -3.43689 -1.76604
listing -0.224086 -1.11033 -0.509953 0.432332 0.935426 0.511645 0.451766 -1.18401 0.770764 -0.0662515 -0.664052 -0.979575 0.214674 0.387008 0.342485 -0.0953859 0.192919 0.491263 -0.264214 0.35324 0.75523 0.620362 0.128587 -0.345397 -0.603814 -0.752345 0.387718 0.815825 -0.249523 0.0757275 -0.617286 1.78485 -1.40586 0.909711 -0.096389 -1.10717 -0.118701 1.4933 0.0866085 -0.155866 -0.246335 -0.372126 0.582826 0.721611 1.12075 0.653165 -0.656301 -0.364396 -0.236398 -0.486636 0.433915 -0.0798595 1.07522 -1.01993 0.334636 -0.613622 0.303446 -0.803068 0.201659 0.23768 -0.544297 -0.821699 -0.476352 -0.162177 0.317769 0.749733 0.521588 -0.140869 0.390202 -0.125377 0.375058 -0.751942 -0.471117 1.3271 0.140511 -0.536376 -0.222513 -1.1464 0.325318 0.794203 -0.0709744 -0.75504 1.19783 -0.067401 0.261798 -0.393699 0.144276 -0.456632 1.09677 -0.265434 -0.283439 0.940363 -0.274534 -0.955935 -0.643024 -0.921515 0.0775938 0.195999 -1.28021 -1.11075
chemistry -0.353981 -0.174469 -0.503007 -0.0597495 -0.683061 -0.955412 0.247351 -0.12463 0.359125 -0.261438 -0.1797 0.980333 0.440918 -0.553835 -0.195558 -0.294891 -0.671558 -0.455516 -0.481624 -0.0611891 -0.684478 0.586311 -0.916287 0.365317 -0.366354 -0.00461661 0.263443 0.146356 0.348782 -0.128216 1.03429 0.122641 0.36296 -0.155957 -0.140878 1.20937 0.499909 -0.266252 0.139871 0.242898 0.0431047 0.245817 0.522918 -0.044039 -0.893883 0.346878 0.235166 -0.557657 0.774439 0.273461 0.100324 -0.132933 0.20572 0.539415 -0.575464 -0.679463 0.4041 0.128091 0.428442 0.476657 -0.0207418 -0.530346 -1.09116 -0.343279 0.092232 -0.0946136 -0.649588 -1.07876 0.337588 1.05012 0.28525 0.422751 0.887337 0.26502 0.50043 -0.350097 -0.0270092 0.265523 -0.469768 0.281436 -1.11406 0.75202 0.172692 -0.3675 -0.350307 -1.12848 0.177733 -0.0470831 0.220989 -0.0593542 0.366401 -0.0249607 0.827184 0.566645 -0.645271 0.498064 -0.246416 0.0720496 0.736519 -0.948264
seafood -0.208062 -0.0751361 0.238212 0.184905 -0.0449802 -0.714198 0.109012 0.245854 0.28527 -0.511297 0.0553481 0.548452 0.79599 0.10005 0.174455 0.137538 0.289593 -0.958029 -0.409357 0.19403 -0.172586 0.866431 0.270492 0.543315 0.162276 -0.466866 0.314454 -0.0338577 -0.29475 0.0795283 -0.0965885 0.573381 0.334065 -0.338783 0.146839 0.221652 0.376949 0.0447533 0.025608 -0.275183 -0.234918 -0.0573092 0.705774 -0.109683 0.465976 0.0105436 -0.391827 -0.530532 0.206062 0.494653 -0.0590773 -0.0373071 -0.241931 -0.0656498 -0.519959 -0.725168 -0.318762 -0.0527309 0.258549 0.628051 -0.448576 0.170428 0.0920022 0.554691 -1.32944 0.0235034 0.0343703 -0.394663 0.0537055 -0.211386 0.0466837 -0.129846 0.060383 0.633982 0.512936 0.360617 -0.217473 -0.572386 0.413148 -0.210346 -1.06167 -0.232927 -0.0386027 0.227612 -0.228946 -0.744838 0.11818 0.191712 0.233175 -0.856428 0.0816985 0.422691 -0.46399 0.445582 0.0724356 0.222712 -0.238118 0.310634 0.458203 -1.66
CD -0.00935599 -0.771431 0.336226 0.848736 0.950919 0.0480249 -0.0696242 -1.09416 -0.416064 -0.610223 -0.704051 -1.01135 1.03889 0.485352 0.341815 -0.446 -0.405026 -0.231276 0.0837351 0.467248 -0.604774 0.470719 -0.830368 0.103147 -0.116488 -1.47516 -0.0759867 -0.409709 -0.297567 0.0460642 -0.62101 1.75665 -0.576102 -0.570657 -0.389064 0.740673 -0.28034 0.211911 -0.282465 -0.334263 0.210268 0.585658 0.0640853 1.81648 -0.611292 0.915581 0.0582446 0.0390609 0.326909 0.38795 0.269951 7.32788E-4 -0.283493 0.011013 -0.486238 -0.807161 0.41922 -1.07123 -0.558487 0.928452 -0.716483 0.00389032 -1.17739 1.41212 -1.21813 0.2142 0.53408 -0.600016 -0.0387053 0.724154 0.536269 -0.61784 0.311044 1.41824 1.76878 -0.999163 -0.499301 -0.782633 0.907535 -0.499082 0.356377 -0.753666 -0.190659 0.201401 0.532763 -0.526446 -0.464836 -0.0574962 -0.192554 -0.227935 -0.250204 0.999962 0.796857 -0.387152 0.257882 0.622562 -0.796649 1.18203 -0.836713 -0.957146
mind 2.46977 -2.06583 -1.15883 -1.01207 0.666191 0.611049 0.468494 -0.607462 2.74999 0.0631136 -0.772366 -0.849005 0.293547 0.368991 0.687158 -0.829233 1.60718 2.01799 0.203837 -1.70792 -1.52034 -0.460601 -0.695939 0.30801 0.319446 0.435797 1.31947 -1.09754 1.90764 -2.54479 1.30688 1.35719 0.359794 0.300167 -1.67834 1.51646 1.10613 -1.10599 0.915912 -0.242362 2.33917 0.0217546 1.8206 -0.0325694 -1.91666 1.72226 1.22993 -1.87236 2.23176 1.14499 -0.356153 -0.671344 -0.0438082 -0.206998 -0.221791 0.912459 1.10039 -0.574537 1.23281 -0.248378 2.32325 0.868323 -1.24695 -0.87761 -1.97551 -1.28644 -0.207169 -2.10445 0.805537 0.109736 0.542211 0.8806 0.427828 -0.444964 4.06744 -2.79004 1.01097 1.05669 0.54006 0.440803 -0.32842 1.84516 1.99061 2.13961 1.70552 -0.906965 -0.295721 -1.64156 -0.448372 2.16355 0.0748942 -1.06062 -0.645786 -0.135411 0.643186 0.202943 -0.591177 -0.430008 -0.692547 -1.1239
sex 0.54421 -1.28757 -2.7615 1.67804 -0.374444 2.16171 1.58428 0.558734 1.48997 -0.289651 -2.00616 0.248939 1.47969 -0.894584 -2.28131 2.59073 1.25298 -1.51967 -4.06053 -0.316684 1.88495 1.09354 -2.17112 -1.85502 1.45839 -0.527504 0.754019 -0.0915346 1.23215 0.665879 -0.910985 2.16466 -1.3373 -1.40052 -1.32701 -0.711683 -2.63674 -2.67119 2.50145 3.14351 -0.327745 -0.963545 3.97766 0.487758 -0.111013 -0.372575 1.71073 -2.64009 4.24882 2.16679 1.50506 -0.960013 -1.98036 0.119962 -2.56652 -0.359991 1.93584 -1.31123 0.19335 -0.310934 0.619827 0.0842517 -0.813417 -0.779088 0.438605 -1.48477 0.581847 -0.82266 1.97298 1.27949 -0.25264 -0.0537194 2.27284 0.18589 3.42681 -0.901708 -2.08407 2.78501 0.314202 2.34549 -3.40595 1.28833 -0.0285494 -1.25114 -2.04608 1.47834 0.658204 -1.55378 0.740996 0.107829 -2.40067 -2.21002 -0.645863 -1.23326 -0.207528 -1.29974 -1.49021 2.41868 -1.24272 -0.658179
food 0.652886 0.289656 -1.24927 1.36595 1.36634 -0.473658 -0.722592 0.135884 2.48402 -1.52702 0.74374 2.78939 3.52766 -1.0438 -0.58474 1.78445 0.580941 -1.70715 -2.8451 1.85268 1.35 0.121454 0.351384 1.00497 -0.820855 0.114626 0.622952 -0.674827 1.10461 1.23268 0.044685 1.4227 -0.0710984 0.0224289 0.092583 2.21999 0.347121 2.33073 1.35518 0.466684 -1.71632 -2.37986 3.0832 -1.34623 4.02177 0.608165 -1.90588 -1.70486 0.702831 1.53318 -1.15461 -1.99624 -0.95301 -0.289457 -1.11359 -2.13584 -2.97532 1.18466 -1.26023 -0.898595 -1.13836 0.254411 0.652176 1.35421 -4.38315 -0.0510349 0.387223 -1.22031 -1.80565 0.610503 -0.962146 0.765699 2.49979 -0.0239785 1.41807 0.0888654 0.705545 0.036053 -0.307986 -0.356841 -4.13142 -0.366325 1.74527 1.15796 1.39102 -0.349292 0.202787 1.71391 0.425162 -2.07726 1.52384 0.401507 -1.15817 -0.742692 -0.549577 -1.23269 -0.722028 1.35653 1.49176 -3.53685
precedent 0.0633661 0.089519 0.326697 -0.169075 0.0151143 0.441307 0.646088 0.325533 1.05686 -0.202778 0.43854 -0.704441 0.614038 -0.989735 0.0636512 -1.572 -0.489661 1.36215 -0.283433 0.292332 0.153439 0.170788 0.030322 0.252472 -0.122202 -0.139138 -0.00620543 -0.321221 0.233732 0.64481 -0.439723 1.00472 -1.0683 -0.126424 -0.802396 1.2278 0.427695 -0.842428 0.129619 0.906051 0.274223 -0.668063 0.945086 -0.391582 -0.200052 0.83866 0.255822 -0.468491 -0.426416 1.07429 -0.0912657 -0.942589 0.614187 -0.161783 0.936117 -0.173616 0.372787 0.608173 0.100326 -0.461933 0.520342 -0.191306 -0.0741388 -1.11407 -0.359288 0.310313 0.378874 -0.359214 -0.0131854 -0.397445 0.589546 0.152098 -0.781197 1.45057 0.662709 0.514538 -1.43455 0.155429 -1.07386 1.10458 -0.803371 -0.559055 -0.517193 -0.236343 1.60825 0.725327 0.584422 0.627794 0.808514 -0.132706 -0.376992 0.0310568 -0.618713 0.0130423 0.0800263 0.604016 -0.0782201 1.21879 -0.498336 -0.300997
series 1.20743 0.498457 -0.56838 -0.433846 2.93519 -0.300816 0.860705 -0.727561 -2.23653 -1.17303 -0.642308 -3.56055 -0.917313 -0.996181 -2.14321 0.0655038 -0.663459 -0.670711 1.09004 0.266823 -0.208237 -0.848093 -2.99085 -0.828303 0.51268 -0.552019 0.371389 -0.714341 -2.03529 4.00816 -2.70846 -0.479721 -0.280843 -1.59112 -0.0234764 1.41561 0.623373 -0.373205 0.524984 -0.27825 2.7293 0.620647 0.574088 1.69197 -1.14114 0.775619 2.65383 -0.277433 0.282564 2.15964 -1.63855 0.281772 -0.482877 1.2382 -1.78885 -1.19515 -0.801131 2.2721 -0.277172 3.7792 1.11132 -0.747414 -2.7608 -0.100616 3.03602 -1.84715 -0.191423 -0.317538 1.91337 -1.69986 -1.44125 -1.274 -1.25579 3.18664 0.3013 -0.441712 1.68261 -0.432552 -1.42115 1.39075 0.950222 0.199313 0.993067 -0.975636 1.99661 2.01006 -0.0160239 -0.40256 -0.824805 0.302124 0.561905 2.32294 2.29038 -1.88694 -0.89934 0.998196 0.632319 2.46775 -2.93368 -3.06779
kilometer 0.14631 0.0334875 0.116172 -0.0838771 0.00408113 -0.198802 0.246292 0.0757815 -0.0843168 0.120018 0.0168223 0.0923673 0.188525 0.0987139 0.310744 0.0963233 -0.143636 -0.355424 0.176552 0.126777 -0.0495536 -0.121634 0.116891 -0.129339 -0.0761644 -0.0311054 -0.150019 0.213076 -0.27256 0.0495571 -0.125994 0.0981139 0.0461467 -0.29168 0.0580134 0.0500943 -0.0498447 -0.180828 -0.147201 0.0274199 -0.00609241 0.175761 -0.560012 0.125858 -0.233867 0.0292075 0.268057 -0.50181 0.25347 -0.108632 -0.0700504 0.0103678 -0.168836 -0.155123 -0.00263138 -0.193362 0.0231595 0.132083 -0.203414 0.252219 -0.317956 0.0847533 0.0713464 0.116081 -0.200848 0.296528 0.150755 0.107311 0.0262813 -0.0045161 -0.010577 -0.200005 -0.235034 -0.0392263 0.287298 -0.081222 0.108578 -0.302167 -0.351451 -0.283003 -0.0681123 0.0314498 0.0147055 -0.106972 0.0379471 -0.149698 0.123237 0.0893048 0.0844746 -0.223671 -0.174993 0.249798 -0.285562 0.44806 -0.0710008 0.263072 -0.264191 -0.2749 -0.0847628 -0.109654
grocery -0.72656 -0.927841 0.329319 0.729719 0.710131 -0.862938 -0.641415 -0.409832 0.909168 -0.753676 -0.835199 1.11506 0.0670136 -0.716759 -0.273911 1.15155 1.07041 -1.1033 -0.206551 0.780298 0.708293 0.829564 -0.504181 0.552223 -0.813323 -0.797421 0.862373 1.28981 -0.969307 0.271064 -0.289081 1.79145 -0.882834 -0.297103 0.872538 0.375261 -0.370135 1.22512 0.733461 -0.247815 -1.22275 -0.071111 0.116659 0.319315 0.442591 -0.367414 -1.64054 -0.07981 -0.291692 -0.0864361 0.271646 0.52263 -1.18389 0.0766207 -1.18909 -1.60947 0.219998 -0.800998 0.0225713 0.597516 0.0709463 1.02202 1.07134 0.904969 -1.77317 0.369641 -0.208828 -0.220884 -1.20155 -0.886229 -0.449995 0.0327688 0.389349 1.20822 0.981016 0.0048102 0.0369966 -0.957347 0.791847 -1.53983 -0.484421 -0.866468 0.541708 0.01594 0.0885133 -1.15735 0.592675 -0.999741 0.20408 -0.913759 0.617087 1.1039 -0.764807 -0.00248915 0.224292 -0.552106 -0.698989 -0.656315 -0.26808 -2.39526
wizard -0.366925 -0.100395 0.100192 -0.141045 -0.0714015 -0.151022 0.365778 -0.00809732 -0.64977 -0.0812295 -0.353848 -0.0400081 0.361881 0.135465 -0.0215985 -0.31652 -0.0679743 -0.268162 0.0946478 -0.284796 -0.0292177 -0.23269 -0.249943 -0.0714882 0.304915 -0.20503 -0.18569 0.319474 -0.106893 -0.135073 -0.199329 0.366791 0.446622 -0.23026 0.0480557 0.375264 0.139805 -0.250505 0.0999509 -0.0747971 0.0968624 0.109855 -0.0237062 0.231861 -0.384745 0.0274765 0.0870686 0.176907 0.164678 0.38186 -0.257 0.199063 -0.130019 0.211775 -0.264843 -0.274126 0.101393 -0.0876222 -0.0182935 0.0937551 -0.402798 0.132889 0.0116697 0.229422 0.369567 0.112389 0.243796 -0.0828379 -0.170622 0.26108 0.304938 -0.202696 0.190702 0.0356944 0.149836 0.0382273 -0.313295 0.0971055 0.0543059 -0.0143039 0.164156 0.0537408 -0.508772 -0.14167 -0.0286617 -0.073202 -0.0382533 -0.17626 -0.0545819 -0.0655062 -0.0343692 0.1424 0.0543384 0.125154 -0.0970704 0.159189 -0.115458 -0.265397 0.250992 -0.186498
information 0.459432 0.493582 -1.79898 1.89696 3.88442 -0.939656 -1.36504 -1.19519 6.44029 -0.397398 0.235649 2.87943 2.23507 0.406569 0.171486 -3.02925 -0.122375 1.94575 -2.09958 0.0048623 1.24054 -0.461509 -2.13061 0.282681 0.514863 -1.82005 -0.529391 -0.154622 0.897611 1.95413 3.06152 0.992918 -3.45664 0.629905 -1.65175 -1.66226 1.67858 -1.01791 -0.0754503 1.5521 0.0939958 0.433423 2.31741 0.622098 1.36302 1.7745 -0.119055 -0.566567 1.27768 1.54663 2.80959 0.360665 1.81645 -2.95861 0.268812 -1.48216 0.781721 -1.77442 -3.28318 0.946572 -4.45771 -3.03792 -1.63203 0.465567 0.377882 0.799664 1.53025 1.4607 -2.98455 -0.51085 2.1158 0.685061 -0.883211 -1.42588 3.3805 -1.06126 -0.661049 -1.07086 2.71829 4.05455 -3.85247 2.04629 3.44123 -1.57336 -1.55013 -2.92199 0.832652 1.99801 -0.00974924 -0.396958 -0.174884 -0.978942 1.18331 -5.21586 -1.77794 -0.490443 -0.569775 -1.0603 -0.546046 -0.394793
Israel 1.83716 1.44594 -1.5053 -0.448664 0.601472 0.0950504 -1.42883 2.00509 3.71935 1.88613 -0.245496 -0.0594753 0.701868 0.677114 1.31373 0.601238 2.37699 2.45472 -1.95416 1.47511 0.687766 0.09057 0.252262 -1.85434 0.43683 -0.134791 -2.01072 -2.26849 1.76539 0.495969 -1.34133 -1.2188 -3.01324 0.901189 -0.838164 -1.6007 -0.583428 0.477526 -0.237983 0.362562 -0.0275279 2.12864 0.0296018 1.21159 1.28086 0.158142 0.129821 -0.953214 2.9089 -1.02933 -2.24397 2.23208 1.47685 0.830487 -0.505481 1.69192 -1.52483 3.29199 -1.15635 -0.370192 3.21303 -0.810736 -1.93201 -1.68978 0.437377 -2.86146 0.220532 0.436893 3.55355 -1.87262 1.72071 -0.806983 -0.47885 -0.555334 2.24189 0.26986 1.78096 1.75238 -0.107184 3.85385 -3.13852 2.30551 2.31412 0.624709 1.68833 0.101681 -0.506299 1.30486 -0.739432 -1.03033 -1.50366 -0.826527 -2.19491 0.489956 -0.138096 0.260213 1.24791 2.76673 1.44035 -2.1292
brandy -0.0926737 -0.0389231 0.0281221 -0.0905654 -0.0941454 -0.292427 0.0826169 -0.107978 0.0398629 0.114648 0.0453143 0.00552733 0.330088 0.0828983 -0.0875399 -0.0462541 0.00668431 -0.314178 0.050997 -0.00968104 -0.181709 0.095074 -0.0535435 0.00593662 -0.00322533 -0.022877 -0.163431 0.134976 -0.188986 -0.106197 -0.136901 0.062197 0.145538 0.0190176 0.0801619 0.163294 0.0519538 -0.0490145 -0.0409211 -0.0574582 0.00408735 0.0129561 -0.0985043 -0.0860358 -0.0531823 -0.0635258 0.140801 -0.361227 0.42625 0.0921816 0.00663287 -0.11373 -0.237429 -0.114674 -0.131729 -0.219302 0.109231 -0.00294078 0.0112406 0.182676 -0.248737 0.107116 -0.0479535 0.159902 -0.237254 -0.172843 0.267007 0.0231504 -0.0307978 0.0864798 0.309843 -0.199877 0.00943416 0.131895 0.203741 0.0346336 0.0819793 -0.185142 -0.125574 0.0041077 -0.0912569 -0.107916 -0.279021 -0.00669246 -2.58588E-4 -0.381869 0.0031305 -0.0867757 -0.038533 -0.196282 -0.112691 0.0914562 -0.176979 0.121761 0.210289 0.0809578 -0.0861662 0.0495559 0.115258 -0.289718
interview 3.82902 -2.99794 -1.12843 -0.567531 1.51931 -3.36094 1.51778 0.556492 -0.256416 1.68125 -4.4757 -4.89186 -2.34656 0.900179 -1.76254 -2.8963 0.0693688 3.16531 2.45525 -1.63621 -2.4017 -0.94035 -1.70544 -2.48057 -2.665 -2.82518 -1.41029 1.60163 -0.229607 0.682473 0.536212 -0.80236 -0.889145 1.23766 -2.26457 -0.604585 -2.77944 2.08528 -1.16661 -5.1119 -1.79593 -1.05779 -1.3169 0.832023 0.144512 3.58758 -0.368681 -1.63792 -0.230337 -2.50021 0.741433 -1.20762 -0.584461 -1.41388 3.47839 -1.64553 -0.299913 -0.723514 1.23438 0.741579 -1.01758 0.215699 -0.703349 -0.511516 2.794 -3.17108 -1.99665 1.90942 -0.0241248 -0.631628 2.36754 1.96135 -2.41308 3.39566 -0.299038 -1.61004 1.21402 1.10763 -1.49112 2.37562 -2.67663 2.94135 -0.894137 -2.38312 -0.45701 -1.19992 -2.5521 -3.2631 0.271121 2.9272 -2.16082 -1.35781 1.27456 -2.22739 -3.22554 -1.91524 -1.99144 -0.0423327 -0.796081 -1.732
prominence -0.141017 -0.353193 -0.153487 1.10891 -0.151332 -0.0218924 0.473854 0.0707668 0.830115 -0.0429261 0.050352 0.0933864 0.166418 0.517669 -0.503447 -0.226235 -0.415113 0.294538 -0.529609 -0.216122 -0.47895 -0.361152 -0.440125 -0.293539 0.459749 -0.823251 -0.162997 -0.271477 0.138477 0.195449 0.840051 0.486901 0.090353 -0.554976 -0.0829533 0.299088 -0.456604 0.25822 -0.552387 0.00362149 0.551791 -0.495591 0.115876 0.338813 0.374969 -0.671214 0.324493 -0.135921 0.333694 0.29751 -0.00139103 -0.634611 0.474882 -0.848743 -0.266196 0.0128147 0.448965 -0.387595 -0.359505 0.0270889 0.48987 0.317702 0.0156836 -0.263433 -0.110305 -0.53412 -0.175092 -0.500005 0.762258 -0.483401 1.0159 -0.157041 0.649302 6.72388E-4 0.0663574 -0.347073 0.324375 -0.666595 -0.127636 -0.231553 -0.138078 0.154437 -0.0388475 0.441917 0.637371 0.383987 -0.664624 0.146947 0.0943956 0.452134 0.226535 0.440296 0.486299 -0.301608 -0.24831 -0.240554 0.866095 0.116955 -0.0539282 -0.0669408
bed 2.13647 -1.1261 -1.14455 -0.642184 -0.206539 -1.68813 0.683319 -1.87168 1.29759 0.143441 -1.27281 0.502542 1.76347 -0.661341 0.0100833 -0.178693 1.19198 -1.1012 0.382101 0.355945 0.0684214 -1.08506 0.41341 0.114438 -0.11958 -1.01734 0.0336009 0.559139 0.853399 -0.882192 0.478496 0.794907 -0.934158 -0.175193 1.67569 -0.890062 -0.343339 0.201979 1.76441 -0.248874 0.512377 -1.53526 1.46586 -0.76626 -0.958546 0.80805 -0.663057 -3.10282 3.04823 -0.139407 2.19977 -1.104 -2.52325 1.11555 -0.195988 -1.56572 -0.959849 0.314109 -0.147277 0.50816 1.26172 0.840414 0.498174 1.10547 -1.80974 0.473628 0.664376 0.282249 0.482442 -0.846936 0.196456 2.82241 -0.670243 -0.198161 3.58533 -1.91544 0.163483 1.19174 -0.521536 -2.09801 -1.37521 1.24727 -0.878377 -0.0180494 0.98864 -1.36989 1.00177 -1.26184 -0.0869931 2.0662 -0.288943 0.00630931 -1.33717 1.51283 1.06895 -0.26815 -1.16508 0.187436 -1.92151 -2.67982
furnace -0.0783283 0.0399042 0.122837 0.0904729 -0.162926 -0.421475 0.0491397 -0.0507417 -0.0554907 -0.111064 -0.0807969 0.381787 0.211058 -0.0111751 0.166746 -0.0115341 0.195126 -0.125587 0.0848005 0.208572 -0.0797414 0.0459223 -0.0332538 0.0784089 0.0685474 -0.22249 -0.0692408 -0.0484145 -0.115 0.0917425 -0.0719817 -0.0521078 0.0300915 0.0645556 0.317529 0.228724 0.113086 0.0448041 0.051851 -0.123052 0.0781851 0.010615 0.0455994 0.0640789 -0.0153368 -0.142801 0.00863968 -0.181512 0.346112 -0.0688697 -0.0449814 0.187056 0.0228473 -0.0752305 -0.212584 -0.184878 -0.00501993 0.180343 -0.0245729 0.199598 -0.201734 0.180357 -0.0465696 0.290934 -0.271015 -0.0106258 0.171289 -0.0501033 0.0147224 -0.0708561 0.00814557 -0.140698 0.0175681 0.34878 0.288278 -0.0190874 0.0375075 -0.242743 -0.20105 -0.16424 0.0649231 -0.110877 0.0771499 -0.371094 0.164905 -0.0974313 0.109786 0.0765661 -0.0626953 -0.125133 0.104322 0.0232282 -0.329038 0.337307 0.119261 0.0893859 -0.0442705 -0.00139868 0.137622 -0.387306
evidence -0.940211 2.17986 -1.83254 -1.27136 -0.575464 -0.760248 0.542794 0.150675 4.21388 -0.752272 -0.762305 1.72051 0.68492 -1.26522 -2.06754 -4.22635 -1.92843 3.66609 -2.43608 1.4352 1.40467 -0.909495 0.276646 -1.5524 -0.0965703 0.740564 -1.22095 -0.600244 2.49292 3.21566 1.32101 2.37426 -3.73545 1.4026 -1.12319 1.50944 0.880038 -0.330668 0.694422 1.79169 0.77221 -0.0904039 2.32434 -2.79109 -1.55928 -0.0594682 0.140807 -1.0728 2.77608 1.18788 2.65303 -2.09964 0.87817 -1.11043 -0.45629 -2.14148 0.392974 1.68759 -1.99828 1.67974 -1.34572 -2.17528 -2.07339 -1.46994 0.774114 -2.2503 -0.179007 -0.780463 -0.0599184 -2.73939 1.3307 0.760038 0.746298 -1.29461 0.852969 -3.01537 -0.756167 0.0368014 1.89913 3.78484 -2.1541 0.684181 1.25053 1.67125 0.5583 1.2285 1.8576 2.96015 -1.25694 2.13822 -1.00349 -2.69945 2.44936 -3.87777 -2.76377 1.64872 -1.36373 1.10232 0.719284 -0.976541
sprint 0.676837 -0.646008 0.533178 -0.00373195 0.14152 0.188602 -0.176367 -0.0795041 -0.813196 -0.183081 0.312912 -0.0349951 0.204288 0.00562826 1.05659 0.342878 -0.450931 0.428801 0.296806 0.00900784 -0.523827 -0.300604 -0.765099 -0.764683 -0.34313 -0.00744911 0.109472 -0.269337 0.267565 -0.26658 -0.198694 0.685237 0.616536 -0.75936 0.812403 0.609651 -0.570012 0.36943 -0.154567 -0.310949 0.947036 -0.185956 -0.592127 -0.428344 -0.825678 -0.195301 0.376538 -0.117698 -0.0863476 0.152263 -0.178558 -0.615236 -0.540709 -0.323257 -1.04584 0.248448 0.636367 0.829332 0.234552 0.507638 0.624763 0.278679 0.129022 0.204206 0.24694 0.626521 0.255701 0.416519 0.706802 -0.0933562 0.693282 -0.187261 -0.130464 0.996918 0.128854 0.0812292 0.190766 0.300585 -0.530901 -0.152555 0.227203 -0.407417 0.00357857 -0.13958 0.286666 -0.212862 -0.58167 0.674484 -0.171519 -0.276136 -0.35661 0.193941 0.790825 0.15499 0.0369972 0.422838 0.203272 0.406994 0.0243939 -0.772241
emergency 1.86647 -0.219044 -2.5032 -0.71201 1.33827 -1.44602 -1.69939 -1.86259 0.328725 0.65173 0.972376 2.05166 0.0462568 -1.63062 0.995358 -0.0897303 1.6766 1.7825 -0.938266 1.21929 2.27705 0.202576 0.950101 -0.0601145 -0.821019 -0.556497 -1.18849 1.23748 0.830115 1.45266 1.05728 -3.23404 -1.40595 -0.292276 2.23926 -0.914105 -2.30328 0.431614 0.626457 1.84082 -2.16467 -1.05118 0.245529 -0.0248091 2.12728 1.46042 -0.39801 -1.47837 -0.754088 -2.70924 -0.45831 -0.835415 1.04337 -3.03441 0.216084 -1.80006 -1.41741 0.513718 0.397938 0.418396 1.22422 -3.02432 -0.609323 -0.655131 2.34691 0.234092 1.3715 0.171872 0.905611 -3.00666 -1.83518 2.27779 0.938789 -2.04825 -1.128 0.0528889 2.23813 -0.0272859 -1.35084 0.73125 -2.89382 -3.06616 0.949535 -2.43618 1.32495 -0.8918 0.0621253 -0.477824 -0.0736795 -1.45021 0.13671 2.5746 -3.83743 -0.37182 1.33082 -1.59658 0.104591 0.00544315 1.52514 -0.824502
Jackson -0.139999 -0.691235 -3.08951 -0.20185 0.545548 -0.529881 -1.94997 -2.13342 -0.49606 2.13124 -2.75964 -0.158401 0.950235 -1.51044 -0.99813 -0.0306028 0.239186 0.190892 -0.53385 0.646032 -1.19933 -1.06365 0.165384 -2.44881 -0.600077 -2.86843 -0.961419 0.199895 0.0797752 -1.27686 -0.588423 0.794059 -0.507785 -0.537428 0.332762 3.87808 -2.13238 -0.850459 0.921439 1.03213 -1.63343 1.88373 -0.40729 -0.271061 -1.35965 0.216008 2.71329 0.580422 0.560117 -0.663472 0.0663094 -0.315482 -1.05603 0.844891 0.826681 -0.377086 -0.121553 -0.392352 -0.595395 -0.0211184 1.59045 -0.609523 0.656257 1.8535 0.725094 -0.658459 1.93142 2.78362 -0.772007 1.18009 3.30509 -1.114 3.33597 1.98084 2.56651 0.440618 -2.27678 -0.48139 0.857898 0.650043 -1.29558 0.528052 -1.2648 -1.1313 -0.973934 0.148399 -1.24319 -0.620426 0.399469 0.947625 -1.39846 0.488403 0.333613 -0.816085 0.737459 0.813816 -0.107588 0.834098 -1.96197 -1.47538
institution 1.13529 -1.31788 0.618743 0.15641 0.27155 0.092996 0.478823 -0.511079 0.612689 -0.112228 -0.82675 1.72909 -0.691506 0.649811 -1.07242 -0.0226191 0.191248 -0.613128 -0.701888 -0.815639 -0.333864 -1.10026 -0.650922 0.51019 0.106848 -1.00079 0.554988 -0.831514 -0.70984 0.751773 2.10448 1.35209 -0.790717 -0.32203 -2.39575 -0.151049 -0.918931 -0.139848 0.458235 0.0540535 -0.0548709 -0.782376 0.738885 0.526361 -0.449385 1.86589 1.92107 0.767001 1.0005 0.535959 -0.733802 -0.773486 2.66713 0.141576 2.27863 -0.724189 0.588955 -0.290995 0.595726 -0.523216 1.12674 -1.65071 -0.940846 -1.07756 0.81082 0.400264 -1.13619 -0.623798 1.23208 -0.293667 -0.101839 0.234178 -0.275793 0.384284 1.25847 -0.632352 0.995341 -0.129769 0.107948 0.00159726 -2.15363 -0.0398913 1.11651 -0.146 -0.636236 0.833737 -0.123306 0.862005 0.848197 -1.15374 1.03579 1.21282 -0.868554 -0.559464 -0.858429 0.0846573 -0.457483 -0.774754 1.07905 -1.11404
bird 0.929768 -0.102083 0.302335 -0.642286 0.0683516 -0.670393 0.417359 2.21067 -0.320486 0.580547 -0.634503 1.55339 2.22565 -0.579998 -0.415107 -0.617125 -1.47473 -1.922 -1.01743 0.260809 -0.359429 0.912908 1.28755 -0.0404097 0.150758 -0.366889 0.0499196 -0.713896 -0.761881 0.627716 -0.151668 0.956541 -0.195526 -0.787381 1.07497 1.36171 -0.512338 0.126123 -0.153785 0.70313 0.227055 0.168065 1.16595 0.317933 -1.00379 0.222116 0.878598 -1.7944 1.74184 0.744156 0.540007 0.307696 0.268443 -0.0658201 -0.683007 -0.353345 -0.246204 1.56921 0.0459053 1.77457 0.286886 -0.922211 -0.0728815 -0.391628 -1.76045 -0.308364 1.82123 -1.50208 -0.0319141 -0.802994 -0.803361 -0.0240656 0.484479 0.659465 0.801589 -0.819033 0.487256 0.379811 -0.556681 -1.22271 -1.12214 0.13858 1.20624 0.0155162 -0.303565 0.148922 0.700466 0.253471 -0.800465 -0.622536 -0.413433 -0.818425 0.982416 0.718771 0.106694 0.392392 -0.638999 -0.0690578 0.50934 -0.50912
Brazil -0.796665 0.691859 0.322717 0.775886 -0.883995 0.258802 -1.04502 1.44978 1.18526 -0.615235 2.16064 0.587885 -0.713389 2.0101 1.13844 0.406336 0.179812 1.02279 -0.786468 0.0881398 -1.59344 -1.03658 1.63914 -0.736316 1.54853 0.0179228 0.631877 0.469717 0.144853 -1.12784 -0.0935144 0.628127 -0.876839 -0.635106 -2.14715 0.304459 -1.46543 0.941307 -0.0832717 -0.815888 0.865733 -1.09869 -1.23848 1.42032 1.76916 -0.795866 1.04968 -0.591837 -0.575638 0.267135 -1.27141 0.58914 -0.599783 -0.521141 -0.779528 0.173397 -0.531543 2.64972 0.758274 1.35213 0.651284 0.799282 0.152986 2.33286 -0.647226 0.357425 0.427393 0.517842 2.255 -1.4466 2.01257 -0.427065 -0.0234357 0.0905021 -0.195905 1.45287 2.29376 -0.00506767 -0.299707 -0.0841588 -2.632 0.864617 0.646345 0.44493 0.204535 0.633037 -1.21342 0.938212 0.584884 -1.87332 1.47835 0.182661 1.19065 0.290492 -0.30078 0.819301 0.69833 1.57896 0.8247 -1.86382
warning -0.73257 -0.960005 -1.99534 -1.9031 1.27577 -1.54244 -0.883654 0.264783 1.45121 -0.97604 0.171341 -0.968714 -0.258887 -0.838162 -0.521328 -2.88394 0.377503 1.5652 0.292413 1.00644 1.49618 -0.425976 2.4542 -0.144656 0.214374 1.51587 0.236976 -2.73673 0.761876 2.32117 -0.192564 -0.603469 -1.23139 -1.75603 0.689033 0.563143 -0.926142 0.172933 -0.10001 1.74836 0.960952 -1.75514 1.65263 1.25514 1.58217 3.26399 -1.7777 -1.50253 1.53615 -0.658646 -1.44284 0.504318 2.27101 -3.50703 0.221837 -0.604868 -1.28846 0.979211 -0.411912 1.27488 -1.53894 -0.193389 0.399198 1.34051 -0.288388 -2.61267 2.09076 -1.2025 -1.81326 -2.01908 -1.47955 -0.630836 -0.462836 1.06136 -1.21113 0.411633 1.63582 -1.10936 -0.320238 1.36483 -0.477994 -0.205677 0.810711 -0.503281 1.37299 0.873947 0.953745 1.34122 -1.76419 1.83472 -1.17203 0.708609 -0.964226 -1.41322 -0.604445 -0.530677 0.421006 0.0216141 0.0125736 0.0352407
implement 1.95769 1.12017 -0.711668 0.47089 0.246757 -0.782647 0.778206 -0.452355 -1.06946 -1.53158 0.0278025 0.17519 -0.113088 0.19265 1.0129 0.0206358 0.977906 0.638988 0.780383 0.437681 0.523583 0.158038 -0.770839 -0.172232 -0.186802 1.54804 0.452988 0.119769 1.61479 -0.522744 0.386451 -0.710988 -2.33311 -0.329284 -1.38302 -1.10475 0.702789 -0.379955 0.350909 0.710495 -0.0751109 0.756291 0.977704 0.620796 0.974932 1.04931 -1.29282 1.54393 0.0800139 -0.46083 -0.871907 -1.38744 1.43059 -0.815206 0.809079 -0.402515 0.580432 0.0116534 -0.193559 -0.488448 1.23571 0.0593852 -2.69803 -1.19229 0.797193 0.963696 -0.205305 -1.68107 0.0413657 0.855634 -0.0907502 0.0381492 -0.411433 -0.484167 -0.910347 0.783204 -1.15967 -1.20355 -0.28015 2.10865 0.0858456 -0.513781 1.01322 -0.416367 3.18722 -0.140153 -0.642341 0.714817 0.248937 0.0878641 2.50727 0.756431 0.0978967 -0.724293 -1.02202 -0.979435 -0.0799086 -0.0716821 1.33905 0.63293
train 2.04679 -1.69301 -0.683052 1.21164 2.17049 -2.42178 -0.557703 0.896853 0.678215 -1.87156 -0.597153 2.53959 0.442011 1.72652 -0.643115 0.420515 0.52729 0.686761 1.4645 1.09676 0.165291 0.370501 -0.638842 -0.642934 -0.29681 -1.67154 -1.46179 -0.735902 -1.17194 1.79148 0.772211 0.488092 -1.49978 -0.690221 1.73276 0.692144 -1.00294 -0.361696 -0.367657 1.0091 1.12638 -0.592302 -0.0568769 1.72895 1.22356 0.616375 -1.08249 -2.28378 3.08967 -2.75927 1.26254 -0.402058 -2.32592 0.00862637 0.576298 -0.659565 -0.0690714 0.011192 -0.891844 0.49097 2.27576 -0.638826 1.19215 -0.708794 -0.74946 2.34151 0.129516 0.230192 1.11757 -1.38856 -0.976508 1.70521 -0.680787 -0.703618 0.258354 1.87712 1.55159 0.82291 0.443717 -2.23661 0.0445789 2.03282 0.724257 -0.644707 2.25145 -0.739217 0.646079 1.08917 -2.04784 -0.358547 1.64473 0.617792 -1.5847 -0.602117 0.412945 -0.8259 -0.42165 0.54862 -1.93362 -2.74184
area 3.00293 -0.454268 -1.28286 0.174672 1.45713 -2.22826 1.15214 -0.554535 1.95798 -0.432387 -0.926483 3.74331 0.609842 -0.391027 -0.832547 -0.0335763 0.582482 0.0991116 0.793647 -1.52237 1.30812 0.464522 1.07328 -0.28097 1.60659 -0.359882 -0.945101 0.291081 -2.88627 2.44315 2.37463 0.694765 -2.53117 1.48717 -0.0635305 0.0656751 -2.47741 -0.784054 1.09957 -0.900913 0.762875 0.725727 1.07854 0.0138033 -1.23377 -1.24468 0.982322 -0.640379 1.88998 -0.724 0.440978 0.722856 0.923479 -0.0197545 0.992864 -0.439813 -0.0817465 2.621 0.567831 2.04962 1.40182 -0.808555 0.807823 -2.34192 -2.34616 0.379241 -0.909392 0.823383 1.51235 -3.42309 -2.89444 -0.0959333 -0.636864 -0.840117 0.77617 -1.8785 3.00443 -0.788116 -0.292309 -1.16832 -2.92919 1.71406 1.46211 -0.501259 -2.71671 0.169913 1.21663 1.91673 -0.996092 0.791053 0.91223 1.86009 -1.0355 1.39753 -0.773401 0.798023 -1.47361 -2.01226 -2.1849 -3.07036
image 1.47741 -1.37616 1.14462 0.0970107 0.728861 0.517285 1.32146 0.152558 1.14576 -0.587 -1.51637 -0.392347 0.225658 -0.227291 -0.57807 -1.02156 1.12016 1.22383 -0.643427 -1.00993 -1.29151 -1.03591 -0.408939 0.159283 1.71952 -2.28627 0.0645042 -1.76418 1.11963 0.156464 1.14702 3.05861 0.0494464 -1.04053 -1.30097 0.554213 -0.740849 0.621887 -1.00413 -1.85389 0.754808 0.324921 1.09737 1.20646 -1.52748 0.873784 0.761946 0.36326 2.95539 2.0872 -0.145468 -1.21855 1.57657 -0.680361 -0.460953 -0.0612173 -0.188209 0.932713 0.852139 -0.217065 0.315482 -0.582957 -1.7068 -0.539598 -0.43006 -1.41294 -0.248596 -1.55952 0.0914194 -1.23672 -0.165206 1.8982 0.896169 0.423887 2.10443 -2.31268 0.0980421 0.952398 0.783126 0.881247 0.253959 1.58485 2.24737 1.16152 -0.181372 0.0930786 -1.43601 0.482431 -0.79767 0.344917 0.293244 0.798567 0.83646 0.596066 -0.474601 -0.393601 0.32327 0.0303233 1.88108 -3.17256
murder 0.329832 1.5489 -2.3491 0.234992 -1.99966 -0.868842 1.13372 -0.314355 1.36683 2.0484 -3.16433 -1.97056 1.58785 -0.715199 -2.63986 -0.859063 0.490605 1.23149 -1.31255 0.523919 1.46065 1.21755 -1.16858 -3.42951 2.88296 -0.350013 -0.287794 1.34128 -0.552005 -0.912749 -0.150521 1.64024 -3.69613 1.57856 0.822674 -1.17991 -2.44981 0.85089 1.93843 2.02607 1.64521 -0.949189 0.933797 0.255491 -1.72371 -1.57887 2.47156 -1.2996 4.62625 0.903347 1.65259 -1.64624 -0.706214 -0.833338 1.42566 -0.007482 1.80849 1.07668 2.6933 0.0961062 -0.743207 -1.33802 0.0797786 -0.280481 2.14696 -0.626389 1.89434 3.33982 2.89341 -3.51161 0.985466 -0.195783 3.03922 -0.835828 0.741264 -0.147521 -1.97137 4.60413 -3.26508 1.0107 -0.580104 1.81899 0.610659 -1.39248 -1.08925 0.425586 2.03805 -1.07104 0.890247 -0.946754 -1.42521 -0.764521 0.753841 -0.101167 -0.622675 1.01763 -1.31211 1.53987 -2.53503 -0.532851
journey 2.40355 -1.31339 -0.183986 -0.527314 0.674908 -0.512952 -0.857626 0.690285 1.24673 -1.02732 0.0597019 -0.860727 0.786834 0.418616 -0.388777 -0.909481 0.390955 1.81312 0.579611 0.287423 -0.593597 -0.857832 -0.475731 -0.803419 0.0221762 -1.83097 0.653321 -1.11507 0.443727 0.847031 -1.39846 0.472441 -0.740755 -2.0538 0.275553 0.545388 -1.03908 -0.0289323 -0.186369 -1.49807 1.00059 -1.10023 -0.332247 1.06891 -1.37296 0.0544918 0.0767496 -1.38211 2.70659 -0.891958 0.235036 -1.32359 -1.28544 -0.489314 2.00503 0.795895 -0.250189 1.84076 -0.397552 -0.35479 0.723186 -0.193822 -0.644028 -1.23345 -1.06171 -0.214413 0.295033 0.853491 -0.39888 0.679119 -0.487863 0.97465 0.0876192 0.536459 3.25932 -1.29406 2.01855 0.174919 -0.584449 -2.21648 -1.44639 0.710423 1.69514 -0.179689 1.59448 -0.0507272 0.50403 0.94417 -0.371499 -0.438411 0.909609 1.61134 1.54038 1.95277 -0.423342 0.506766 -0.604956 0.0358042 -3.36015 -1.85194
minister -0.209126 4.18699 0.32518 -0.147384 -0.519041 0.646683 -0.656268 0.264245 -0.834405 0.781305 0.742926 1.48137 -0.288439 4.22708 -4.01441 -1.54613 1.52686 2.47488 3.21324 -1.59911 -0.189931 -6.53494 1.13583 -0.00382377 0.89515 -2.25524 -2.42951 -3.35555 3.43045 -0.689073 -1.7019 -1.2567 -0.674895 2.17633 -0.483535 -1.624 -3.39217 3.56629 -0.0463853 -3.13937 -1.3949 -0.580657 1.62278 -3.80775 0.472349 -3.13519 2.8731 -2.24858 0.994572 -1.94755 -1.28388 -1.63383 1.33264 -1.34288 3.94001 0.736364 -0.531632 -0.343756 -3.21435 0.49685 -0.186222 0.475176 0.635277 -1.03006 1.21146 2.61846 0.0644513 0.357025 3.20955 -2.94678 5.65959 2.04105 0.854495 0.565276 0.46685 0.295793 -1.95249 3.2211 0.381861 2.31655 -0.248708 0.323816 -1.96331 -0.527057 -0.145083 3.28935 -0.897039 -0.128458 3.33342 -0.999701 3.94147 0.423689 -3.16468 -2.62547 -6.18795 -3.38875 1.84646 3.06462 2.38834 -1.91524
planet 2.0758 -0.797894 2.38638 0.0199273 1.1677 0.424281 0.158747 1.58984 1.07707 0.870814 -0.199635 2.53266 3.03831 -0.0344879 1.19437 -0.764156 -0.819403 0.541683 0.26637 -0.113081 -0.164867 -0.575283 0.528633 0.38529 0.0661378 -1.55381 1.20363 -0.972214 0.250336 -0.326805 0.447029 1.56514 -1.58434 -0.213944 -1.3276 1.37561 -0.390335 -0.861235 -0.983652 -0.702521 0.40154 0.482177 0.813487 0.512445 -0.628777 1.44928 1.62073 -2.39695 2.22879 1.04148 1.16603 -0.741681 0.999517 1.00795 0.133193 0.225645 0.157541 1.89716 -0.115777 0.328624 0.167303 0.187516 -0.601016 0.189888 -3.53152 0.599285 0.76519 -1.36101 -0.0517792 -0.205984 -1.26112 -0.308779 0.398143 0.974006 2.6984 -0.674695 1.2078 0.413897 0.158592 -0.6282 -0.136359 1.8979 1.53119 0.952351 0.840077 -0.245283 0.621246 1.00569 0.178355 -0.412291 0.620164 0.139978 0.95544 0.549187 -0.535108 0.132041 -0.246726 0.644557 -0.934715 -0.396667
article 2.73726 -1.31279 0.14412 -2.19359 2.17681 -1.12852 4.71503 1.88624 1.94096 0.299112 -1.14778 -3.18124 -0.48833 1.12034 -1.10997 -3.37506 -2.24212 -0.438853 2.46524 0.872225 -1.02902 1.02499 1.16469 0.303262 -1.17151 -3.52823 0.636548 1.10248 -0.962691 4.3039 0.658162 1.62544 -1.27373 1.09635 -4.52212 0.994745 -0.168889 -3.71322 -3.17385 -0.713622 0.264545 -0.210069 -0.0584755 0.415451 -2.84885 4.78551 1.8157 -2.53921 2.97765 -1.27727 1.25401 -1.61293 0.27035 -0.457316 3.25388 -1.50419 0.770944 -2.2197 -0.230536 -1.47538 -1.28465 -2.7898 -2.09059 0.219483 2.32118 -1.71051 -0.751329 1.50614 1.17289 -0.791161 0.885828 -0.777661 0.467789 1.19776 2.39855 -3.00924 0.365303 -0.11953 1.32974 -0.674264 -2.35409 1.14047 1.11636 0.205036 -1.22115 -1.238 -2.14813 -1.9571 1.3602 2.20102 -0.95915 -0.471888 2.68327 -2.6854 -2.05074 -1.81153 -1.70649 2.0535 -2.24763 -0.705966
anxiety 0.320468 0.136808 -0.511814 -0.290009 0.0263891 -1.15435 0.0432243 -0.845655 1.40987 -0.137205 0.771693 0.886053 0.366909 -1.19147 -0.379367 -0.801838 0.796038 -0.643312 -2.05173 -0.557016 -0.0953173 -0.379727 0.314992 -1.28243 1.3539 1.13072 0.173446 -1.96567 0.945405 0.477362 1.60146 0.00228225 -0.825154 -0.49949 -0.406462 1.14884 0.965257 -0.648567 -0.149982 0.584605 -0.830409 -0.924822 1.21369 -0.82248 -0.661703 1.18932 1.60523 -2.55389 0.703263 1.3803 -0.108376 0.61485 0.0649668 -0.57829 -0.571064 -0.37724 -0.0539312 1.31625 -0.344007 -0.715022 -0.583317 -0.992678 -0.438838 0.106276 -0.654026 -1.32588 0.0322218 -0.963814 -0.413624 1.49433 -1.02943 0.0877826 2.4031 -0.637491 0.549261 -0.415182 1.0931 -0.134208 -0.328015 0.153118 -1.03918 0.774198 0.216675 -0.839351 -0.235532 0.469906 0.211235 0.00814829 -0.221721 0.382883 -0.189212 -0.964796 1.28028 0.393648 -0.755198 -0.40181 1.32795 -0.394034 1.33752 0.132606
month -0.283209 2.31831 -1.44763 2.57458 3.41864 -2.10993 0.916514 0.452758 -1.59611 -0.104756 2.95782 -3.67566 3.97779 0.602327 -2.16961 -0.301733 1.76719 0.0148715 -0.994003 1.76527 -0.501173 0.329465 0.0580478 0.246073 0.777506 1.6797 0.777781 -0.0102912 -1.07115 2.77304 -2.20181 2.587 -0.435984 -2.06381 -3.86264 -0.267544 -3.58295 0.297319 -3.62718 3.79558 -2.0875 -0.859291 -2.49743 0.544842 -1.18608 2.32764 3.51117 -2.11856 -1.58234 -2.23255 1.47638 -2.27899 3.17592 -1.39488 0.950294 -0.446104 1.44552 2.75029 -3.57346 0.894508 2.96652 -0.474471 1.07328 -0.834485 0.0706163 1.44488 -2.15161 4.83035 0.675088 -4.43929 1.31301 -0.56362 -1.91262 0.893839 1.23582 -0.688365 3.27937 -3.42114 -1.90904 -4.54455 -0.732977 -2.61965 4.6355 0.466228 -0.779188 -1.35514 1.48847 -2.09214 -2.29017 3.55499 0.443236 1.82284 0.351228 -0.802901 -4.25829 0.580267 -1.25308 3.89842 -2.38822 0.85837
carnivore -0.0363014 -0.00981738 0.108108 -0.0673391 -0.0491797 -0.125852 0.0882941 0.0719693 -0.0598867 0.0419034 -0.113897 0.0315807 0.0403057 0.0609536 -0.0241229 0.0349059 -0.00292757 -0.0249823 -0.00960051 0.0438789 0.0301504 -0.00205521 0.0867487 0.00682907 0.01424 -0.0414645 0.0279945 0.0779508 -0.00913888 0.0142324 0.0543495 0.133339 0.0530875 0.0409198 0.00556247 0.0858489 0.0615223 0.0312393 -0.0738821 -0.0432733 -0.0294589 -0.00618505 0.0693704 -0.00975755 0.0124213 -0.0669471 0.050102 -0.0653267 0.0456946 0.0324962 -0.067052 0.0403751 -0.0301539 -0.0834996 -0.0517846 -0.0731162 0.0466561 0.0871269 -0.0159335 0.00867704 0.0545467 0.0777555 -0.097264 0.00430379 -0.0455168 0.069388 0.0449425 0.0715043 -0.00540276 0.0433156 0.0491028 -0.055764 2.92688E-4 0.0908957 0.0288105 0.00900539 0.0323427 -0.0303005 -0.0406562 0.0186714 0.0455627 0.0125606 -0.0764718 -0.0991666 0.0363293 -0.0882114 -0.0451866 -0.0603034 0.0133559 -0.0345192 -1.98441E-4 -0.0188284 -0.00853607 0.0499952 -0.0579348 0.0173699 0.0165591 -0.0684778 -0.0665192 -0.0482205
party 0.705651 -0.1235 3.24291 -2.23491 1.68387 0.80629 2.44021 -0.817942 1.23832 0.851472 -0.795068 0.0235377 1.24079 0.845809 -1.59119 0.483818 -0.156805 1.46945 -0.0787153 -1.96676 0.58444 -3.86372 -0.582014 -1.70681 -0.0270917 -0.0873681 0.431993 -3.50488 3.10752 -1.74022 -0.791378 -1.43817 -5.45138 -0.55407 -4.24606 -0.0578077 -4.66571 1.89183 0.347625 0.110338 2.62776 -0.348916 -0.171848 -1.33315 1.01323 0.24727 0.879012 -0.875675 1.4509 2.36644 -1.75522 2.52768 4.34898 -0.753329 0.399145 1.34206 2.20445 1.18281 -1.26278 -0.498902 3.70072 1.25128 1.45914 -3.24671 1.17555 0.0179368 -0.458955 -0.160056 2.35358 -2.63042 0.118049 1.82384 0.479159 -0.08896 1.18844 -1.35045 0.412953 -1.05728 1.15029 0.568524 -1.19298 -1.31295 -0.558477 1.16806 1.14434 -0.64085 0.302375 1.30149 -0.268714 -0.248385 -2.55154 0.418777 -1.85793 -0.192962 -1.06433 -1.2069 0.0498169 1.44602 -0.379428 -1.83838
production 0.20833 1.35739 1.08923 2.79888 1.58718 -0.538776 1.69221 -0.0445368 2.22402 -2.04298 0.552693 2.55976 -0.766174 0.00381484 -0.185178 0.298062 0.0202652 0.85298 -1.48614 1.20638 -1.96726 2.61356 -0.2916 0.480606 -0.167888 -0.673061 1.18792 -2.07364 -0.620782 -0.138806 -1.50124 1.48949 -0.839847 1.27622 0.324873 0.550062 0.515429 2.78639 -1.03904 -0.386771 -1.92353 1.46969 -1.11681 1.79 1.17537 -0.128686 -1.55159 0.00629338 -0.0161046 -0.835686 -0.828161 -2.20575 1.00083 -0.541669 -0.06293 -1.24427 -2.86853 2.27701 -0.575759 1.65231 0.52371 0.847175 -1.11546 0.266715 0.1659 -0.237583 0.105691 0.114804 1.14006 1.91361 -1.51427 -1.99516 2.35929 2.6725 1.74228 0.298487 0.328712 -2.80086 -3.68897 -0.492576 0.343577 0.221652 1.74069 1.47869 0.770194 -0.402451 -0.112745 1.55299 0.286811 -0.842501 2.5733 1.96468 1.04592 0.707944 -0.66696 0.419249 0.671498 2.51364 -0.89983 -1.78899
importance -0.150471 -0.222097 -0.185204 0.396173 1.23508 -0.0410785 -0.850522 0.0615018 3.26521 -0.414252 0.69601 0.0924371 0.813523 -0.0230175 -0.360976 -1.50524 -0.416651 -0.606794 -0.0300172 -0.906885 0.915204 -1.19416 -0.498522 -0.491676 1.18501 0.580475 0.994305 -0.474583 1.92426 0.315039 1.46674 0.0364865 -0.386659 1.34651 -1.15146 0.840376 2.13723 -0.0398299 -0.339207 -0.691301 -0.0269503 0.70434 1.50948 -1.1027 -1.97282 -0.260911 0.867793 -0.208602 0.037982 1.64105 -1.50898 -0.933025 2.26926 -0.821522 1.18464 0.165272 -0.888735 1.48798 0.168491 -1.46016 0.987794 -1.59667 -2.63266 -3.2264 0.343402 -0.925675 -0.671741 -2.16189 1.39092 0.703931 -1.21215 1.10763 0.223689 -0.39575 0.325217 -2.24167 1.21865 1.16144 -0.409335 2.34054 -0.458498 2.00799 0.74869 0.129878 0.514155 0.384989 -0.747016 0.56346 1.00738 -0.902328 1.10732 0.73741 1.60001 -0.0886689 -1.4744 -0.0987503 3.29619 -1.11037 0.159349 -1.23149
inmate 0.394209 -0.47175 -0.160082 -0.0190437 -0.175286 -0.665217 0.563302 -0.938049 -0.648102 1.1918 -1.15963 0.563705 0.472287 -0.629745 -0.94009 -0.0436465 0.0380164 0.106324 -0.581791 0.205032 0.412157 -0.524085 0.515309 -0.364026 0.445689 -0.328479 -0.540313 0.301919 -0.593465 0.35816 -0.171458 0.963396 -0.619296 -0.0161646 0.296222 -0.691641 -1.0297 -0.278098 0.493716 0.270673 0.14217 -0.235264 0.582051 0.398186 -0.934775 -0.380279 0.661053 -0.514638 0.320812 -1.09827 -0.0224679 -0.813474 0.493341 -0.133324 0.245066 0.0173225 0.263282 -0.484248 0.315013 0.550636 -0.305317 -0.362287 0.0937018 -0.649884 0.867685 0.486537 0.117889 0.70656 0.728479 -0.493441 0.958509 0.118725 0.915341 0.332 -0.154552 -0.249132 0.052396 1.09129 -0.568228 -0.366758 -0.596662 0.32552 0.134287 -0.458188 -0.486483 0.0641586 -0.0278046 -0.0125735 -0.0633493 -0.116178 -0.222685 -0.102826 -0.704836 0.876631 0.0626036 0.21542 -1.18461 0.677922 0.510638 -0.132101
Harvard -1.24025 -1.26509 -0.116122 -0.401134 -2.01312 -1.89917 0.716701 -0.555935 -0.262853 0.145973 -0.610325 0.0983702 -0.0828127 -0.293902 -2.03288 0.647537 -0.706731 -2.25629 -0.461611 -0.569032 0.33776 -0.378636 -2.08431 -0.670643 -2.69308 -1.00098 0.428675 1.1396 -0.850833 0.826908 3.27492 0.29689 0.668118 -2.81566E-4 -0.59935 1.5932 -0.678533 -1.03743 -0.385177 0.955774 0.288043 1.47846 -0.581591 0.148057 -1.8504 -0.338574 -0.109339 0.576125 0.544015 -1.12865 -1.05084 1.1158 1.55257 -0.0741858 -1.83303 -1.2562 -0.385381 -1.25089 0.137447 -0.813654 2.06699 -0.543486 -1.07421 1.2794 2.8748 0.647277 -1.37817 -0.366539 -0.660169 0.883597 1.63169 0.268228 0.325892 -0.677315 0.454303 -0.653461 -0.244156 0.983952 -0.0747232 -0.598329 -1.56459 0.238253 -0.728166 -0.776541 -0.958927 -0.963174 0.186171 0.0987156 1.23771 0.224934 0.358545 -0.479043 -0.232268 0.938198 -0.98716 0.881621 0.0377806 0.669915 0.65163 -0.138063
psychology -0.139235 -0.509674 -0.0573904 -0.153793 -0.872449 -0.549046 0.277116 -0.187394 0.193817 0.0953739 -0.500557 0.497615 -0.0464728 -0.193821 -0.669771 -0.437373 -0.26866 -0.821186 -0.572731 0.245823 -0.291923 -0.313815 -0.547279 0.308695 -0.47891 0.0516008 0.603113 0.134194 -0.347483 0.648764 1.2549 0.680582 0.345716 0.270133 -0.447142 0.738035 0.77612 -0.089226 -0.124052 -0.149644 0.0411567 0.401565 0.146494 0.0774411 -0.925607 0.224355 0.0574232 -0.21107 0.802725 0.455299 -0.183474 0.358249 0.608391 0.028513 -0.602652 -0.454531 0.274624 -0.165442 0.38927 -0.0432725 0.177608 -0.258079 -0.68968 -0.0943207 0.287807 -0.100288 -0.515256 -0.828251 -0.233347 0.786207 0.697979 -0.202224 0.904688 0.0717212 -0.0544882 -0.411752 -0.196899 0.854189 -0.156646 -0.203543 -0.883115 0.257285 0.186378 -0.68306 -0.565806 -0.60306 -0.17638 -0.0784841 0.258312 -0.263819 0.00681191 -0.275043 0.135916 0.289466 -0.716947 0.264386 -0.433725 -0.211062 0.5674 -0.71012
medal 2.88258 -1.5749 1.27221 -0.616095 -0.666119 1.10631 -0.205577 -0.591766 -0.212053 0.601927 0.67577 -0.0300822 2.61132 -0.313739 1.6838 1.09544 -1.95443 0.889011 -0.562636 -0.499909 0.147157 -0.98244 -1.25851 -2.27715 -1.62359 0.630562 0.537251 -0.316088 1.04143 -0.427039 -2.53587 1.39667 1.99321 -2.32519 -0.239028 0.921265 -3.03704 0.703424 0.576434 -1.23016 1.84173 -1.86355 -0.426478 -1.469 -1.75045 -0.977437 1.36087 0.545148 -0.247191 -0.487367 -0.417138 -2.08568 -0.00458878 -1.15658 -2.18256 -0.635224 0.798821 1.36088 1.58823 0.713068 1.18963 -0.685898 0.689566 1.68498 -0.670169 1.83571 -0.769255 1.19395 2.51454 0.269172 2.28727 1.43474 -1.3731 2.65328 0.29077 -1.60199 0.132346 0.415759 -1.96012 -0.34871 -0.555464 0.170767 1.01264 0.767324 0.605972 0.82132 -1.51206 1.80365 0.0199112 -1.31108 -1.06216 2.41705 1.20402 -1.11717 0.440471 0.475934 1.71709 1.97408 1.72478 -1.8709
company -0.0106088 0.349209 1.05099 2.28519 2.62743 -1.25658 -0.295318 0.301547 2.88165 -0.942561 -0.821145 1.59777 -1.91507 0.424857 1.15426 0.81891 0.582051 -0.65161 -2.00867 -0.993178 -1.97462 -0.473915 0.665482 -0.588055 -1.05927 -3.57723 0.0704403 -0.964274 -0.884649 -0.511795 -0.823749 1.0126 -4.21121 0.607502 -1.83801 1.13308 -2.90046 4.29726 2.15324 1.57801 -0.558874 1.67783 -0.316615 0.413336 -0.308168 2.4272 -1.04598 1.08034 0.859082 -0.77329 -2.4794 -0.543607 1.82929 0.579882 3.01872 -1.59808 -0.651381 0.168873 -0.82553 1.55762 1.99397 0.463657 0.970972 0.224851 2.43843 0.0610449 -2.78626 -0.91079 0.7686 0.370706 0.640532 -1.84439 0.131773 2.19362 2.30062 -2.54653 1.14509 -3.46427 0.295358 1.19751 -0.734274 -0.560481 2.18824 0.811602 0.275511 -0.0652378 0.516489 1.49629 1.20022 -3.94073 0.325841 -0.043841 -2.21043 -3.71923 -1.46334 -2.55454 -1.00918 0.6162 -0.824829 -1.98136
live 4.32736 -2.60515 0.573053 1.06129 -1.29592 -1.81468 0.236078 -0.555445 0.00216609 -2.67312 -1.76596 1.96494 0.0290459 -0.412581 -0.061379 1.98896 0.345219 0.96566 0.556454 0.465382 1.31905 1.21772 -1.13204 -0.828548 -1.50365 -0.429176 0.463672 -0.0254549 0.114476 -3.41463 -0.0376636 -0.232662 -3.00902 -2.32952 -1.01257 0.466318 -0.670922 -1.68545 0.400528 -2.67259 -0.938344 0.178907 1.03231 1.03295 1.46703 0.492302 -0.763161 -2.91236 -0.767001 0.664964 -0.014219 0.21891 -0.182189 -0.0870427 -1.32125 0.943235 1.72648 0.816179 -0.792542 0.514577 -0.215696 -0.463172 -3.11976 -1.52991 -4.02904 0.691365 1.7058 0.820446 0.709817 0.751607 -0.293603 -0.0986229 -1.75875 0.398284 1.98823 -0.461361 -1.4675 2.75005 -0.249675 -1.08388 -1.52627 3.95221 -0.827637 -0.434765 -0.199429 1.855 -0.818575 -2.22765 -1.34881 0.703582 0.710862 -1.10048 0.42078 -1.01411 -0.427176 -0.180039 -0.268208 1.07945 -1.86076 -2.94024
holy 0.187757 0.459919 0.42309 -0.483331 -1.27497 0.150436 0.473608 2.12286 0.163679 0.749306 -1.26191 -0.249033 2.1711 -0.794737 0.321923 -0.282828 -0.0146855 -0.606814 -0.0640679 1.14751 2.1842 -1.00555 -1.3426 0.0193839 -0.273716 -1.14904 0.181015 0.529496 -0.62712 -0.0107474 0.315847 -0.614461 -0.950308 -0.294134 0.327935 -0.821365 -0.390477 0.4501 -0.156528 -0.864107 1.21929 0.226209 -0.392351 0.688082 1.63633 0.0891998 -0.247332 -1.1776 0.62532 1.11226 -1.94369 1.56515 -0.633063 -0.544373 -0.584386 0.753884 0.80941 0.456616 0.285999 -0.0318989 0.255549 -0.633237 -0.267906 -1.49662 -1.11113 -1.1156 1.10392 -0.121308 1.64957 -1.63734 -0.58513 0.205936 0.581501 -1.76387 0.543407 -0.209051 -0.278173 1.07583 -0.71692 -0.499956 -0.37058 1.48091 0.36417 -1.81508 -0.385678 0.760965 0.0832622 0.492611 0.342638 -0.744024 -0.420598 -0.386737 -0.233187 1.53203 0.617337 0.518403 2.0749 -0.0529005 0.766594 -1.43202
ticket 0.61055 -1.99087 1.66433 0.793106 0.851259 1.15617 -0.0483215 -1.53095 1.0386 -0.221773 -0.402862 -1.83237 0.692913 1.22893 -0.327674 1.16338 -0.0803693 0.24464 -0.373002 0.979155 -0.350307 0.47017 -0.282809 -0.24534 -0.943714 -1.00611 0.249698 -0.237331 1.19731 0.559837 -0.806024 1.81868 -1.34904 -0.60974 -0.22609 -0.744796 -2.59273 -0.0953887 -0.0716895 0.663482 0.576837 -1.18682 0.53586 0.502947 0.809163 -0.363141 -0.811221 -0.0123948 -2.15742 -0.838111 -0.0591426 -2.11152 -0.687092 -0.742857 -0.701505 -0.139313 -0.0419055 -1.9326 -0.0413953 -0.121215 0.842872 -0.258597 0.46292 0.501125 -2.61723 -0.681234 -0.293773 -0.286047 -1.04179 0.120449 0.110769 -0.263564 -2.72503 1.71224 1.2653 -0.649653 1.40697 -2.10484 1.37302 -0.856731 0.0623928 -1.11853 0.892573 0.276084 0.284498 -0.299488 0.0451564 1.00331 -0.567125 -0.477649 -1.03202 2.28438 -1.66265 -0.157393 -0.0118444 -0.982582 0.041882 1.10009 -1.49062 -2.17152
victory 2.93845 -3.97077 3.18915 -1.55018 0.397739 0.167333 2.20902 -2.34851 -0.147399 1.20559 3.00224 -2.39213 1.55872 -1.38182 1.03026 -0.985597 0.223685 1.09263 -0.332011 -2.17831 0.30785 -0.452233 1.33217 -3.88601 -0.597281 2.02559 0.157044 -2.24265 -0.47201 -0.847853 -2.06496 -1.83346 -1.08237 -3.2164 -0.0906714 0.462945 -4.38836 0.480489 -2.95812 -0.0126074 3.79716 -2.89294 -1.14358 -1.21831 -4.49704 -0.289711 1.96167 -0.0377871 -0.325754 0.95885 1.35205 -1.59854 -0.0665631 -2.05097 1.70554 2.05348 2.43036 4.45074 0.849215 -0.0201252 2.54323 0.607384 -1.24425 -0.554476 2.63472 -0.771806 -1.46522 1.77614 3.92509 -0.967402 4.68882 1.0487 -3.67886 0.165673 -2.2355 -0.197768 1.40312 -1.66195 -2.58525 2.44067 -2.22585 2.36011 0.153027 1.13603 4.06861 1.95296 -2.55954 0.998078 0.306623 -0.29303 -1.89746 1.47192 2.37629 -0.323205 0.780885 -1.85785 1.31292 -2.01379 -3.09468 -3.96063
football -0.404648 -2.52994 -0.53204 -0.595435 0.649509 1.86289 -1.58278 -1.02115 1.1226 -0.731239 -0.592526 0.117229 0.390537 1.99197 0.758457 1.01007 0.849389 0.745985 -1.79133 -0.800092 -0.357668 0.281767 -2.80711 0.211086 -1.1062 2.22245 2.02646 -2.81145 -0.350927 0.191216 1.80102 1.40386 -0.59202 -1.37498 -1.09041 2.98544 1.21506 -0.149821 0.718905 2.47131 4.28038 0.721518 -0.087451 2.82157 -2.0806 -0.310588 1.24495 -1.6444 0.616934 2.34221 -0.936819 -2.24367 -1.41621 -0.0527532 -0.193934 0.542962 0.2544 0.218548 0.0727559 1.11361 3.25894 -1.49279 0.621352 0.439874 1.46742 -0.0245129 -0.79497 -0.585199 2.2312 0.107968 0.518181 0.455055 -0.498558 1.89835 0.217722 0.461757 -0.16 1.13291 0.789539 -0.2876 -1.17636 0.874034 -2.11601 -1.65237 -1.09728 1.24224 -0.290495 -0.0742736 -0.836355 -0.263231 0.319382 1.23897 2.03865 1.03577 -0.219014 -1.10224 0.396534 -0.182087 0.172487 -2.27668
stroke 0.777256 -0.883915 0.274447 0.047435 -0.372551 -1.16091 0.823564 -0.499448 0.290885 0.682352 1.12134 -0.246423 1.11681 -0.879199 -0.309492 0.830621 -0.428146 0.872244 -2.42827 -1.01753 -1.59347 -1.88283 1.21358 -1.3916 1.0917 0.420248 -0.313952 -0.680348 -0.55264 0.491546 -0.299122 0.07545 -0.300575 -1.22097 0.885709 1.61423 -1.71524 0.273641 -0.218464 0.00652652 0.617341 -1.23825 0.641471 -0.394898 -2.38802 0.999015 1.35552 -2.72559 1.23971 -0.332817 1.196 -0.426818 -0.122239 -1.87347 -0.257126 -0.699277 0.870197 1.4666 -0.571974 1.73359 0.969887 -1.60699 0.405465 1.15834 -0.502105 1.50417 0.667352 -0.431506 1.47227 0.917089 -0.11443 -0.179437 1.25177 0.665385 0.557536 -0.449422 1.11872 0.661089 -1.83464 -0.953686 -1.30674 -0.141917 -0.0361421 0.52949 -0.384612 -1.19221 2.35915 0.0566722 -0.204415 1.04164 -1.55797 0.173004 1.14734 0.274552 0.108753 -0.107941 -1.16374 0.447164 -0.344189 0.609928
environment 1.47553 0.231586 0.775436 2.053 0.445741 -1.46357 0.24719 -0.796271 1.15353 -0.930923 1.13949 2.51177 0.148207 -0.0281189 1.3688 -0.460676 1.2057 0.559817 0.408484 -1.38066 0.372173 0.665079 -0.729629 1.84609 0.469616 -0.673765 1.83498 -1.17399 1.9507 2.8105 2.25738 0.10018 -0.879904 0.981583 -3.05896 0.755497 0.00663929 0.55739 1.70925 -0.999711 -0.698883 -0.289629 1.83603 0.469013 0.0126391 0.634989 1.59483 -0.674507 -0.0471596 1.69065 0.605834 -1.50933 2.29453 -1.04987 2.16923 -0.593515 -0.714247 1.63922 0.176626 -0.67692 2.24473 0.223814 -1.7312 -2.08112 -3.0224 -0.552302 -1.49957 -1.17304 -0.556719 1.65403 -0.704232 0.98809 1.24144 0.520841 1.48715 -0.654538 1.3716 1.6124 -1.09302 1.36672 -1.80693 0.78861 0.915785 -0.515397 -1.72088 -0.751801 -0.803151 1.11521 0.0714533 -0.552969 2.58855 1.04703 -0.653379 0.070914 -3.12153 -0.435772 -0.454624 -0.83028 1.0758 -1.74725
coffee 0.509488 -2.31743 -0.0796333 -0.48595 0.651558 -1.09826 -0.569875 -0.702698 0.757978 -1.1329 1.73882E-4 1.04156 2.24607 0.0834913 0.337865 0.7296 1.27435 -2.69478 -0.644013 1.04715 -0.439096 1.99619 -0.885162 1.25262 -0.285151 -0.356677 0.908491 0.307358 -0.677454 -0.603994 -0.237313 1.19163 -0.853612 -0.293664 0.779741 0.823921 -0.347128 1.38464 0.518059 -0.601664 -0.24587 -1.42961 -0.174812 -0.136091 0.539758 0.672025 -0.826046 -1.69858 0.854949 1.10907 0.36679 -0.0052908 -1.42272 -0.058701 -1.63365 -1.63297 -0.293996 -1.68197 -0.256666 0.0630662 0.186209 1.74616 1.9083 0.496056 -2.41431 -0.480801 0.347425 -0.879499 0.7847 -0.700915 0.309449 1.58151 0.405961 1.87458 1.94105 -0.924449 -0.660015 -0.532456 0.611745 -1.5996 -1.91032 -0.602986 -0.870272 1.24119 0.902324 -1.78409 1.50749 -0.33181 0.180512 -1.40705 0.445096 -0.158343 -2.36812 0.814315 0.850089 -0.500622 -0.549458 -0.242497 -0.651851 -3.67067
baby 0.764496 0.18036 -0.827403 0.295853 0.560403 -1.0693 -0.451729 -0.526574 1.23196 1.29498 -2.0765 2.52278 1.6253 -1.37315 -0.412146 -0.410211 0.478756 -1.87411 -2.26121 1.00557 0.946509 -2.01046 0.314931 -0.720374 2.47848 -1.80742 0.117548 0.187741 -0.600473 -1.52347 -2.82794 0.778921 -0.611874 -1.64455 -0.246758 1.56431 -3.62247 0.970464 1.59019 0.225839 0.28182 -1.3103 2.89452 -0.50877 -1.05317 1.27188 0.43918 -2.66239 2.62578 -0.792421 0.201701 -0.735784 -1.74754 1.67873 -1.10615 -1.79421 -0.242563 0.0341512 -0.625755 -0.925928 0.141112 0.526795 0.650135 1.03274 -1.20408 0.0874484 1.1921 -0.407093 -0.823958 0.778973 1.03599 2.24957 2.3984 1.12246 2.78561 -2.56848 -0.501642 1.35947 -0.947431 -1.46107 -1.71101 -0.597322 0.811911 2.22698 1.34364 0.82612 -0.0897747 -1.8544 -0.325543 1.19137 0.191508 -0.775974 -1.41234 -0.114478 0.393676 0.409323 -1.36027 0.912431 0.109285 -0.541582
personnel -0.120266 2.56961 -2.46876 1.13307 -1.11761 -1.01485 -1.46211 -0.403387 0.685447 0.965362 -0.0423379 3.70542 1.28623 1.20249 -0.571212 0.512642 1.74691 0.309463 -2.04502 -0.162256 1.69797 1.75367 -0.0816819 -0.114301 -1.3436 -1.61062 -1.82845 -2.49052 -2.24312 1.61124 0.627918 -0.66858 -1.00909 -1.94045 1.93622 -1.29311 2.15549 1.16478 0.339986 1.87822 -0.138427 1.17121 1.75819 -0.70029 1.99841 -1.97255 -0.722916 -0.903734 -1.25449 -1.61823 -0.219808 -1.04374 0.943718 -0.269805 0.587936 -0.370152 -2.04033 -1.24085 -0.576652 0.191996 1.60067 -3.08872 -0.361871 -1.27032 1.38089 1.33079 -0.512067 0.737709 -0.113591 -0.989876 0.991764 -0.00419917 -0.113825 -0.747436 -0.234867 -0.574211 1.80338 0.907496 0.365311 1.61028 -1.00624 2.38544 0.852827 -1.34957 0.281327 -1.92686 0.0901078 2.31862 -1.27897 0.905157 1.74093 2.47758 -0.776529 -0.515807 1.44878 0.562733 0.820641 0.25077 0.833771 0.658715
family 0.789556 -0.435537 -2.58194 -0.154702 0.615404 -1.50851 0.888923 -0.277401 2.90009 0.426352 -4.10106 0.754977 0.818848 0.10651 -0.338956 1.30554 1.26616 -1.29766 -0.964774 0.0244469 1.03025 -1.78937 -1.01989 -2.96731 1.21203 -2.31416 -1.09887 -1.05165 0.057334 -2.4584 -2.00679 0.854885 -2.94846 -1.54067 -2.94118 1.39665 -3.68338 1.41912 3.19477 -0.0376392 0.770355 -0.421066 0.464533 -0.359278 0.194745 0.885143 0.271101 -1.50463 1.67751 0.844046 -1.8133 1.9262 0.14087 0.679584 1.5341 0.213461 -0.829415 0.929541 1.11253 -1.09335 3.21498 -1.47749 -0.0383321 -0.672275 -0.0207216 0.195517 -0.295658 1.94727 -0.33509 0.177194 -0.176221 1.29735 2.18895 -0.837787 3.73476 -3.57649 1.1616 0.238415 1.78468 0.637549 -2.9598 0.975114 -1.04707 0.77086 -2.26937 0.00932285 2.71629 -0.944965 -1.18191 -0.573571 0.751188 0.0203318 -0.24266 1.95458 0.642702 -2.09178 -0.177724 1.80887 -1.51097 -1.66427
hypertension -0.0983344 0.0643899 -0.0682033 0.404706 -0.526959 -0.634225 0.258909 0.18791 0.11777 0.151353 0.0704479 0.649272 0.225185 -0.32749 -0.23433 -0.124554 -0.00691384 -0.586829 -0.642465 -0.127196 -0.0353775 0.00513282 0.244264 -0.107065 0.115272 0.0487583 0.101703 0.123631 -0.0305668 0.242151 0.406994 0.27766 0.159601 -0.268866 0.19927 0.0913849 0.188955 -0.134462 0.093202 -0.0528827 -0.248933 0.308915 0.616437 -0.147774 -0.0519857 0.209184 0.291472 -0.768517 0.242305 0.124467 0.127577 -0.0185949 -0.0398699 -0.111072 -0.273345 -0.592393 0.117845 0.0564006 -0.0788381 0.387354 -0.176072 -0.455051 -0.15495 0.142089 -0.0574903 0.288831 0.11726 -0.141577 0.0595847 0.642299 -0.197587 -0.216322 0.643806 0.208084 0.240054 0.214068 -0.043922 -0.0552424 -0.42987 0.326145 -0.371486 -0.23326 0.0818689 -0.234147 -0.558081 -0.312366 0.0072692 -0.318868 0.0867609 -0.0772359 -0.254805 0.129504 0.384763 -0.0971769 -0.115468 0.127923 -0.107057 -0.173567 0.452153 0.12641
president -0.844077 0.178308 1.41213 0.386 0.928793 0.601379 -0.852771 -1.53265 1.28537 1.05316 -0.0717528 0.739501 1.95736 -0.260586 -2.89229 -2.20868 2.87157 1.89053 -1.57499 -0.619449 -0.374074 -4.63768 -0.302005 1.53917 -0.606719 -0.65786 0.83434 -1.40575 0.809435 -1.62867 1.25159 -0.773199 0.414345 1.14734 -1.32882 -0.949747 -3.21129 0.666225 -3.04136 0.406568 -0.133387 2.1117 -2.05585 -0.0409951 0.0408465 -1.4225 0.827678 -1.38407 -1.11027 -2.98149 -2.88644 -0.898396 1.46314 0.769945 2.0507 2.01481 -0.0769491 1.28555 -0.191274 -2.18777 2.04658 0.317495 -1.95115 -1.15502 2.72904 -0.232891 0.453126 0.460645 2.38843 0.224689 4.56837 0.803409 0.342465 1.88384 -2.99125 0.457023 -1.29953 1.13843 2.01812 2.01809 1.56534 0.720668 1.6146 0.94657 1.2649 -1.06491 -1.6349 -0.0016932 3.02386 -0.492122 1.68217 0.810027 -0.640797 -0.391405 -3.75796 -1.9652 2.57617 3.15186 0.669272 -1.79808
atmosphere 1.03767 -0.788827 1.56256 -0.809848 1.0988 -1.00766 0.0463267 0.451129 1.0423 -0.62404 0.242787 1.05368 0.671254 -0.502263 0.780446 -0.85171 -0.459621 0.621039 -0.165508 -0.471684 -0.463038 0.362658 0.639725 0.828195 0.870428 -0.828129 0.514991 -2.10436 0.483606 2.05355 1.0609 0.328219 -0.748041 0.594493 -0.251688 0.084528 -0.585592 -0.504431 -0.720102 -0.955712 0.744946 -0.0140197 -1.06591 -0.252678 -1.14261 0.0476263 1.39779 -1.45043 2.00235 1.28343 0.0742457 -0.539141 0.922725 0.353174 0.501343 -1.18062 -0.472982 1.92495 0.0879813 0.961986 1.52675 1.26667 -1.3886 -1.18692 -2.72548 -0.913163 0.487532 -1.17721 0.535456 0.303676 -1.59833 0.275754 0.0317683 0.140141 2.50088 -1.44419 0.322994 0.120552 -1.39182 -1.28703 -2.06891 0.669137 0.825888 0.166163 -0.258562 -0.22575 -1.44673 0.821513 -0.178287 0.347128 0.152841 0.0243183 -0.532085 0.933348 -0.320725 1.09365 0.504918 -0.0465525 0.975021 -2.32237
practice 1.0056 -0.878983 -1.45508 -0.245576 -0.675571 -0.0567481 0.517937 -2.48241 1.00551 -0.755512 0.514466 0.167291 0.493703 0.130095 -0.471165 0.337576 -0.136909 0.53165 -1.72474 -1.58006 1.38538 0.304758 -1.99051 -0.00445752 -0.615118 0.558996 0.694681 -1.16736 0.961878 0.72932 2.02003 0.504405 -1.76399 -0.720064 -0.481413 0.434019 0.13088 0.751231 1.83905 0.6126 2.36931 0.244541 1.85739 0.131819 -1.84619 1.30007 -0.800432 -0.895625 0.751181 1.40402 -0.464816 -4.82995E-5 -1.86128 -0.666398 2.5231 -1.58207 -2.0159 0.299266 -0.134484 1.14538 3.02389 -0.22746 -1.77148 -0.661475 1.14151 -0.154152 -1.58251 0.0753126 1.99564 -0.615263 -0.321323 0.224123 0.363881 1.12668 0.976521 0.580906 0.016982 0.233413 -0.970088 0.33895 -2.06981 -0.809217 0.930291 -0.820788 -0.315806 -0.189805 -0.392016 0.84223 1.46753 0.629668 -0.351559 -0.303752 0.359156 -1.39657 0.0186886 -0.84472 -1.34447 -0.0282235 -1.77106 -1.03059
movie 3.11149 -1.29028 0.800024 1.17932 3.03633 0.396942 -1.18535 -0.364254 0.0595998 0.331124 -1.94659 -0.606897 1.23335 -1.61177 -1.79951 -0.72492 -0.392768 0.486755 -1.67734 -1.18333 -1.77526 0.0322309 -1.4663 -0.224573 -1.03428 -3.60468 0.888622 -2.31734 -2.13285 1.84748 -0.672658 2.9227 0.819554 -0.800237 -2.65755 2.65355 -0.670867 -0.674403 -0.144445 -1.81206 1.07938 -0.115347 -1.96653 2.88132 -1.65199 2.91921 0.762636 0.495293 1.40433 1.22076 -1.85149 1.11982 -0.479646 1.21728 0.26653 -0.544736 0.973353 -0.610434 0.646742 0.36102 -1.45737 0.102224 -1.81296 0.581595 -0.942413 -0.640622 0.332496 0.428837 0.172369 0.313904 2.25583 -1.21282 0.227609 3.09877 3.01564 -1.32203 -1.32286 0.672194 0.843484 -0.219041 0.677199 -0.0701699 -1.39333 -0.0910625 1.40201 2.82764 -0.980101 -0.449915 -1.62826 0.183106 -0.499452 0.989122 0.760098 -0.169649 -0.901626 1.15757 -0.599952 3.13129 -1.26766 -2.25715
popcorn 0.0465466 -0.245067 0.0355252 0.0606162 -0.0264139 -0.498468 0.0337833 -0.121015 -0.35075 -0.182836 -0.0868124 0.316773 0.504879 -0.0709078 -0.0109679 0.0766464 -7.25441E-4 -0.477025 -0.0769966 0.00352484 -0.266069 0.392981 -0.201015 0.0987875 0.0755722 -0.196926 -0.11292 -0.321704 -0.319633 -0.0132907 -0.164752 0.23478 0.0579752 -0.105116 0.12466 0.402045 0.14753 -0.234055 0.00441048 -0.197232 0.289618 -0.141255 -0.0438357 -0.310335 -0.0100523 0.452727 -0.0274917 -0.153386 0.283831 0.502849 0.120687 0.0531766 -0.472807 -0.00883139 -0.286823 -0.405663 0.185905 -0.396642 0.27918 0.299886 -0.29046 0.322633 0.16916 0.490525 -0.817421 -0.199903 0.209401 -0.265653 0.0874897 0.164934 0.219115 -0.331918 0.366701 0.614079 0.317737 -0.174676 -0.0958287 -0.434136 -0.251825 -0.45183 -0.0917829 -0.29768 -0.32797 -0.0613646 0.193359 -0.425276 -0.00138181 -0.0713397 0.0850593 -0.408831 -0.283462 0.151152 -0.189572 0.319504 0.226871 0.352159 -0.199931 0.249958 0.274855 -0.833302
recommendation -0.326588 -1.03437 0.02418 -0.771071 0.406723 0.185462 -0.320712 -0.759542 1.44955 0.0691907 -0.557821 -0.803636 0.492286 0.980989 -0.122229 -1.35623 0.208562 1.0765 0.212839 0.287851 -0.315338 -0.296887 0.0988204 -0.0256897 0.0326444 -0.687357 -0.074076 -0.370254 0.314156 -0.384196 0.220834 0.730442 -0.636472 0.179881 -1.46512 -0.0649641 -0.680139 0.590912 -0.262208 1.82288 0.63227 -0.198528 0.662429 0.238752 0.0576091 0.51829 -1.20297 -0.0691519 1.17048 -1.08078 -0.208575 -0.722933 1.24294 -0.430485 1.01556 -0.131767 0.390878 -0.674347 -0.837736 -0.630583 0.401449 -0.18748 -1.2143 -0.333317 1.03259 -0.105456 0.412328 -0.399639 0.0115105 0.306018 0.175382 -0.287936 0.121075 0.62483 0.878999 -0.680449 0.408398 -0.159686 -0.458478 0.828473 -0.449184 -0.838181 0.916516 0.0528088 0.969246 -0.720645 -0.364081 0.828447 0.346053 0.535782 0.0670595 0.762116 0.415209 -1.06986 -0.0502628 0.0902272 -0.509109 1.00812 -1.02765 0.154358
focus 0.486271 -1.03684 0.998137 1.44891 2.55961 -0.978545 1.8104 -0.224339 3.37412 -0.627237 0.837099 -0.101398 1.6095 1.87539 -1.99776 0.952753 0.115943 1.2677 0.498909 0.789798 0.538755 -1.59802 -1.16361 -1.94568 1.13563 -0.0949114 2.84332 -0.963823 2.02238 -1.059 0.3488 -0.653122 -4.19048 1.42827 0.65429 0.280694 2.44931 -2.06779 -1.33906 -0.856308 -0.812479 -0.876306 4.32722 1.62288 0.239377 -0.385983 1.24981 0.967136 0.510193 0.602228 -0.9634 -0.932463 2.73521 -0.353107 2.2317 1.54374 -1.62042 1.94163 0.869292 -1.08284 1.71477 -0.729975 -2.97789 -1.92925 -0.989005 1.10438 -2.0386 -3.42404 -0.330172 1.48069 0.31942 -1.64248 0.67649 0.713057 2.45972 0.367923 0.375592 0.753147 2.01868 0.0900249 -0.292072 2.49695 0.444614 -0.18579 2.97435 -0.375016 1.29954 0.79645 -0.503655 1.26185 3.14348 2.45818 3.99001 -2.51004 -0.264653 -2.66194 -0.147007 0.451684 -2.06336 -1.06222
attempt 2.50762 -1.49973 0.152734 -1.05787 2.33376 -2.09541 2.71349 -0.485241 -0.16307 1.00073 0.857647 -0.313287 -0.256555 1.64979 1.89257 0.0220548 2.26297 4.22845 0.17045 -0.230439 -0.328106 -2.44368 0.230378 -1.38817 0.22529 -1.3314 -1.57511 -1.67021 1.19536 1.36537 0.63269 2.06785 -1.9665 0.826618 -0.17887 -2.19019 -2.31288 0.960687 -1.29528 0.292058 1.54003 -0.936048 0.547756 -0.0335957 -0.284622 2.60172 0.686998 0.82166 3.22041 -0.608631 2.16471 -2.31976 -0.357074 -2.54646 1.21126 2.861 2.88112 -1.7568 1.13285 1.40933 2.06474 1.73425 0.0464584 -1.92792 2.28596 -1.51057 -0.298799 -0.166772 2.10265 -2.34268 -2.34483 1.89743 1.72908 -2.9377 -2.11284 -1.47204 2.2947 -0.504591 -0.544718 -0.0771943 -1.06561 -1.59534 3.31432 0.596747 3.31875 1.62374 -1.94355 2.07577 -2.6414 -0.670549 -1.29769 1.61318 3.12978 2.44199 0.250885 0.538695 -2.2702 1.9724 2.13984 -1.75597
approach 1.99758 -0.0354998 0.697851 0.369992 2.91693 -0.982117 0.807012 0.629523 2.56101 -0.0996863 1.13192 -0.65082 -0.325999 0.894515 -0.394097 -1.77373 1.72944 0.910657 -0.542064 -1.24133 -0.800305 -1.1734 -0.996741 1.12538 1.4409 -0.603186 -0.711703 -0.3531 1.68159 1.96943 0.488981 1.59996 -2.12903 -2.17009 -1.49879 -1.50764 0.316953 -1.85584 -0.389523 -1.24691 1.41322 -0.188997 1.74978 -0.694848 -1.20019 0.898581 0.154037 0.552127 2.64855 1.36923 -1.03219 -1.66241 2.80764 -0.234918 2.66683 0.194339 -0.68663 -0.081506 -0.156522 -0.221513 3.5742 1.15896 -3.51253 -2.36574 -0.790711 -1.15409 -2.61556 -2.65939 0.71712 1.33553 0.596017 0.621035 -0.142741 -0.726322 1.53144 -0.314111 0.881665 0.275852 -1.00532 0.797826 -1.65288 -1.31202 1.3111 0.747442 1.35385 0.00201165 -0.765232 2.97328 -0.836954 1.09829 1.12724 1.56171 1.14842 -0.905351 -2.38304 -0.459652 -1.29329 0.592636 1.82676 -0.266301
number -1.41934 1.54333 -0.423953 0.2761 2.51905 -1.67323 3.86389 -0.217119 -1.15414 -0.348059 -0.199636 -1.46104 -1.23514 1.9313 -1.78453 3.16969 -1.22995 -0.973845 -0.897675 0.766207 -0.466555 -0.305432 -0.327001 -2.64167 0.424147 0.319792 0.0986312 0.37411 -3.62076 -0.101412 -0.248278 3.30226 -1.05176 -0.258937 -0.0927752 1.28394 -1.43593 -1.24653 0.187659 0.134419 0.803085 -0.560818 3.18609 -0.356024 0.621422 -1.16131 1.13601 -4.16198 -0.725179 -0.356776 -2.39393 -0.287448 0.708697 -0.467439 -2.37868 -2.36275 -4.20535 0.118208 -2.25435 3.72663 -1.06024 -1.65554 -1.86977 -2.77086 -0.909999 0.213979 1.77105 0.626541 0.774319 -2.79283 -6.05863 0.573915 -0.81268 1.09041 -0.147768 -3.6072 -0.117313 1.3027 -3.90204 2.87929 0.521319 0.569455 1.41008 2.37659 0.319522 1.33114 0.864826 0.890406 1.06589 0.143335 1.06898 3.17996 1.36711 -3.8567 2.3514 -1.30083 1.69397 0.248431 -0.0575696 -0.754822
property -0.386813 0.491278 -0.318146 2.00053 0.17181 0.0965777 1.70058 -1.12472 1.95328 -1.90885 -1.4689 1.78527 0.781639 1.59168 0.434192 0.946329 1.86925 -0.108725 -1.30616 -0.245398 -0.20274 -0.982976 -0.251893 -0.0724336 -0.339612 -3.03871 -0.155968 -0.543934 2.13122E-5 0.69388 0.208089 3.98356 -2.89181 3.1182 -3.67943 -1.41462 -0.428848 0.614689 2.19568 0.833549 0.885551 -0.0140441 3.61498 0.46602 0.131213 -1.47654 -0.89891 0.905416 -0.309739 0.86314 1.28949 0.258869 0.824759 -0.176713 0.0373866 -1.00086 1.47499 0.200279 1.6375 0.572006 0.105629 -2.65732 1.46619 2.11251 -1.56793 -0.675528 -0.365113 0.866571 -0.611383 -0.178641 -0.264369 -2.04935 1.30647 -2.17844 1.72638 -1.78488 1.17604 -2.67609 0.0725896 -0.407559 -0.237794 2.1853 0.113754 0.699803 -0.00274996 1.81033 2.44401 0.335453 0.264036 -2.03142 0.0817872 0.268351 -1.99012 -0.869831 -0.47303 -1.40611 -0.801037 0.698658 -1.43141 -2.81862
fingerprint -0.263926 -0.0650722 -0.0183565 -0.262718 -0.25826 -0.153972 0.302235 -0.037893 -0.156857 0.0571775 -0.479966 0.192731 0.231261 -0.178037 -0.00864792 -0.16745 0.296907 -0.118344 -0.143389 0.0762222 0.12335 0.170985 0.0233142 -0.065193 0.0632517 -0.21558 -0.171999 -0.12577 -0.0780663 0.270662 -0.0416664 0.220821 -0.230418 -0.160109 0.140318 0.507344 0.210068 0.113568 0.0677767 0.160228 0.158946 0.452829 0.489194 0.0829351 -0.330527 -0.00144159 -0.079999 -0.216006 0.419278 0.00919471 0.0375036 -0.0328824 0.138138 -0.131338 -0.0137739 -0.427187 0.175248 -0.160482 -0.00838474 0.383766 -0.31721 -0.164205 -0.421849 0.117733 0.05233 0.082148 0.375116 -0.283745 -0.0618536 -0.192341 0.111393 -0.0738582 0.267613 0.215568 0.241627 -0.217626 -0.0661306 -0.16439 -0.103531 0.0779824 -0.198918 -0.370067 0.351378 -0.344977 -0.263354 -0.469394 0.0489159 -0.036213 -0.166054 -0.207449 -0.0520757 -0.00765175 0.0352846 -0.156245 -0.127345 0.115855 -0.386947 0.194779 0.261932 -0.300388
